{"weights":[{"row":8,"colmun":40,"elements":[1.2746146872081384,2.254240829465883,2.0427634541437458,1.3785323632968388,1.1565193208980856,1.6896030089750407,1.5365455873883512,1.678527630662656,1.3455733329250697,1.690869941531687,1.4963945100215768,2.032774065896339,1.4763951724811715,1.428670334870975,1.335911406891685,2.280706738026813,2.1964603784199996,1.2610923162469288,1.3722271280787455,1.5101314197692893,2.389464517986538,1.3544185494022463,1.719079330471441,1.9585501918423556,2.1426167659011075,1.2705498874707658,1.357640001866887,1.7002998009315474,2.1857646089057307,1.1306124698675333,1.3960630325674886,1.422277685128371,1.9591845885705795,1.26109565998244,2.1414159180947598,1.2246436101310648,2.31151916988039,2.14357646926732,1.2407800993966408,1.5993965087754719,2.5799113038037779,2.866612351831689,2.8649783315601957,2.6670147065380638,2.7989638029922565,3.0193755677032749,2.5606425573873277,2.196133941336501,2.685255850779902,2.380288461328634,2.8735466739214905,3.1513188474497224,3.1266582750317495,3.1827136530840929,2.3417248949467854,3.314521736850141,3.2772855661578488,2.4153465166583327,2.5297153925757906,2.8949317802414269,3.1126166607613525,2.4717416838935657,2.5430492883282467,2.6152907447343449,2.809611593212678,2.641927646262225,2.9977179980728105,2.2727385042145027,2.494574947476734,2.7078486643407264,2.8504784649389625,2.153711283527251,2.425642075398778,2.760469481690629,2.820031019323698,2.3387293487123395,3.063836131657515,3.032679640479932,2.5744340095300806,2.9596041923770648,0.305872260309642,0.4027426749736066,0.3765125381583863,0.32555848613496499,0.3404644963849309,0.40577880478194208,0.49080696011134319,0.3965814054874122,0.20146542230834425,0.22695481429358509,0.17687872323249527,0.3317317847529844,0.32654006882679018,0.6026356420332772,0.2167108667510303,0.3832048231745334,0.4349337959765943,0.294301267330185,0.16323791644828265,0.4738824572320292,0.2055942846979739,0.2627569815212334,0.36004306548445039,0.28444494303110826,0.172192713102631,0.16886102600735099,0.48379022758146519,0.2776607444252767,-0.02890606426509765,0.27499982526869928,0.5102820461424582,0.16946408798046343,0.31852856009798288,0.4566462113858508,0.11660505297076615,0.15499298934592929,0.5111518670132602,0.5577782800892998,0.4518523939514996,0.22449170320928686,-0.013024199145991494,0.35471556932651729,0.19140536194556194,-0.17841492908487317,-0.4223928241487882,0.05884864977858518,0.002161743549993686,-0.28993000466821686,0.19402846559773186,-0.09216605898145033,-0.13864292163791945,-0.2729805179856661,0.07876214079779676,-0.18846271438248256,0.06762271264007716,0.06524947843300534,-0.21149310900285493,-0.12837207879639668,0.10081628013548715,-0.3423055919590077,0.14044150288303723,-0.43922351532651196,0.21293264950197389,0.3671351506195777,-0.21104089915236588,-0.09064634896531272,-0.03246396180024401,0.1561854413302205,0.04251782821857476,-0.30656552774046816,-0.20263761037509876,0.37246027025160458,0.19990685677060944,0.009046427173801877,-0.16381552306058987,0.09737117748618685,0.19178221742454214,-0.4271698741142236,-0.16186935790906382,0.3670213074003084,1.5976776108141609,2.087473161499337,1.506259632868482,1.8267118678679404,1.895039285766941,2.3093954045116504,2.0418048813951148,1.3509198881353069,1.8480782141330039,1.8455789664616707,2.0078885632966996,2.3778776952991569,1.699534673335894,2.5911270603265308,1.5604786925453296,2.3953481991713434,2.0413905179136098,1.7633294047963189,1.7771869280183124,1.4727547440310372,1.8830467694449636,2.1490812994869938,1.6113704712152695,1.575219297930407,1.9508489204729168,1.9247734568659539,1.8204985305097557,1.3880403693740687,1.1733279908662864,2.128085792853327,1.6395523465383802,1.5108367416155513,1.3967283508281734,1.8050352255950828,2.17070960341112,1.4352256754710265,2.2653367208458916,2.46381209682808,1.7177163218459742,1.5137712326498918,-1.3280861236402189,-1.2849506768242923,-1.382479706685908,-1.209244902033173,-1.4046036996010325,-1.5967533912830328,-1.348762625639754,-0.9231694065765992,-1.3962181241376213,-1.2256937539567848,-1.5175744170333914,-1.6069158765369605,-1.6640143460680355,-1.579326790508993,-1.2077168090559146,-1.5956080293692683,-1.608041251319319,-1.199425425097491,-1.1376964854817547,-1.5613560002989873,-1.501194580632307,-1.2337875753594468,-1.1823940170969388,-1.1823284731532933,-1.3518954186233537,-1.4720035459846815,-1.607263964170452,-1.0055739026273348,-1.239042404689516,-1.510215721684933,-1.44278240286465,-0.9530669090573427,-1.0601386069844175,-1.3401415429174886,-1.4214001884555819,-1.1686562891884656,-1.3809432887313145,-1.3500717685197823,-1.3396604011572345,-1.5159569721957953,-0.16773363879258483,-0.6046624675146454,-0.13817609526141645,0.08975178239032024,-0.595620166571448,0.2239914842968481,0.46133059435692588,0.07492812201075297,-0.8466086991228773,-0.4850733058878133,0.5457130733442192,-0.3344373595226388,-0.44151071281462087,-0.3814221738174051,-0.7482879566611097,-0.04580404466257133,0.40033283151048296,-0.7579084265807571,-0.5080519810414022,-0.5506283202180903,0.3027858263227696,0.32246428366379029,-0.7138076958080565,-0.6891507976184252,0.448053226738167,-0.6345622895798133,-0.5594862946064237,-0.6175196086156511,-0.40732321143870506,-0.741623878118016,-0.7275304776542878,-0.46745593841443319,-0.3316370846706667,-0.6431280418162075,0.042990670101399858,-0.6704799034418498,-0.7634667209603362,0.40764325529402359,-0.6399776225447383,-0.5661341595573971,0.42301823089775028,-0.4637355651658505,0.02508440696249561,0.22987366208477529,0.7900717995472176,0.12066226989932365,0.16840964560591396,0.87810428482823,-0.12016530825523173,0.3352609997274061,-0.16085007195507368,0.27992572097830367,0.31173349816891279,0.06174417849608466,0.44339481208077177,-0.34987192442017386,0.11999719454023257,0.24408930802253507,-0.11065046612132748,0.8192883726425921,-0.03075165425941838,0.7515449125782971,0.05657750965190391,-0.26739174055438549,-0.03775985299078616,0.10861747231859634,0.45291208344712738,0.17622083952712826,-0.0604129786454335,0.41958563015449376,0.7585000406016546,-0.21729154091254575,-0.06053582459737275,0.48361640935218277,-0.28579409177064088,-0.18310180475933503,-0.3156473829278426,0.3707382552504592,0.6610963760988187,-0.39450805755089327]},{"row":40,"colmun":6,"elements":[-134.82162750156776,-133.50234592090286,-147.99233951600378,-148.2860275297451,-147.66136690024693,-144.88726925799706,-135.33013962761255,-133.09974410921346,-147.9891319696111,-146.5627761231107,-147.41721205618428,-145.5469893303353,-135.50717409656193,-134.29210715184883,-147.20782407694325,-148.21955852866618,-148.3892872188841,-145.66895929719426,-135.36360512552123,-134.1017701902646,-148.09255648892654,-146.87033868138063,-146.3962080005677,-144.979613168812,-135.72384768674025,-133.78982062164409,-148.75048678492056,-147.29582261462753,-147.6463812383241,-145.81702787476005,-131.80105797715039,-130.2944480601325,-143.7054209076804,-144.13972124921475,-144.3314500839031,-141.49368188052419,-135.06027325433224,-133.06977492974583,-147.19201711053004,-146.3414554663756,-147.59851605737266,-145.3530465490042,-136.0684379253207,-133.2170659216552,-148.32805104256776,-148.2036915020047,-147.05518243805927,-146.03133636453797,-134.81016960636078,-134.25272064296085,-147.2513259791872,-147.15988149423735,-147.7405594291273,-145.26513427293004,-134.40004689522483,-132.80487672034355,-146.67319271090435,-147.48550259045246,-147.31957615884708,-144.05653982333693,-136.2212716129375,-134.14686863585298,-148.58271443825636,-148.00556923282864,-148.20975002169176,-146.07858142284,-135.4336882600876,-134.674403213528,-147.21333019474757,-147.63459365731098,-147.79683381230414,-145.17088430695746,-136.602228750366,-134.29942133473913,-147.0739488093609,-148.04097164095593,-146.78961083307272,-146.28337239843538,-134.17308916638735,-133.3744781787611,-146.8178695508128,-147.04125986482476,-147.0765923926329,-145.47015566995584,-136.14508465959589,-134.76272942649809,-147.604539924804,-148.11246820329087,-147.98452282672293,-146.37354468951038,-134.85835028562108,-134.06143471963663,-148.30209873267254,-147.85692130523919,-146.18619402991784,-144.56769425658619,-135.61576958450619,-134.61776669130473,-148.47181985312194,-148.67654382223197,-147.56254892252989,-145.95167857754877,-136.68594103507517,-135.1151926404432,-148.16558505546426,-148.2180663876813,-146.6569469372905,-146.03465082252979,-134.2331727161031,-132.49432422173445,-146.07634535937809,-146.85990279309389,-145.8532172817955,-144.59921668114795,-136.46453797822614,-134.48171393980864,-148.22440713892014,-146.66860633601835,-147.2356253475783,-145.05827848095948,-135.3482735960662,-132.76376492031739,-146.45379823195604,-147.3513572785632,-146.9119974105601,-145.1144200376464,-133.82914452387736,-133.59748624780756,-146.97676626012348,-145.52121263837243,-144.8661049340293,-143.43551510527088,-136.26557151511825,-135.01619114711509,-148.53263990582469,-147.20445087005866,-146.93112597336953,-146.52647103025107,-132.6363095388652,-131.00160877013614,-143.93416977116977,-144.55559892846058,-144.02092489494417,-141.94180239272425,-135.31432475641607,-132.9210813254304,-147.08262578339379,-145.66775000222155,-147.11100943323306,-143.8264975150504,-135.84273642582435,-134.71485747142567,-146.51507290903153,-146.631229809663,-146.976029215063,-145.22569254117938,-136.18501444189099,-134.48718597712694,-147.14324421298316,-146.53048999066997,-146.5597801772513,-145.1629784203638,-134.65838988441426,-133.03411428745683,-148.11643415857589,-147.35624434608838,-146.4897245121778,-145.0485880528988,-134.79525716432318,-134.47719976430225,-148.39003315384714,-147.9977096336298,-147.0445797323515,-144.94853887072206,-136.5937940032907,-134.35187998136969,-148.89630287033359,-148.7741042249887,-147.64692293388988,-145.04243837020048,-135.58646518292233,-134.95296978991846,-148.66715309777048,-147.76525205033958,-147.15138776459669,-145.98623003520295,-135.19620427681344,-134.53716873322274,-148.6704760874386,-147.6171894799305,-148.03711185743394,-145.84733301194326,-134.1439476630759,-132.3799082548285,-147.47122476581959,-147.13469770197754,-145.43177845957599,-144.58362900465813,-134.52909313335233,-133.1924789651633,-146.62250015333178,-147.29765901404427,-147.509937886338,-145.39541852834859,-134.71668214675669,-132.86618318520199,-145.7133047289459,-145.74888182269343,-144.9441780592282,-144.0216799900799,-136.05699529593938,-134.62089254800078,-147.9773486497989,-148.23800067296157,-147.48259594426396,-145.23720916421147,-136.08653659731636,-133.75968069171533,-148.60109104334405,-148.1344347003999,-146.60943111617824,-145.76663383412714,-134.612834784895,-132.24636194308463,-146.6065354044322,-145.7207514718149,-146.49311488085284,-144.12814841735,-136.42402213496616,-134.7348901399072,-147.65552950498648,-148.1251063390929,-146.94449347554949,-146.40719683631824,-135.84548277866268,-134.43589106652923,-148.01777443944997,-146.55924215175939,-147.07745304140804,-146.5195105167233]}],"biases":[{"row":1,"colmun":40,"elements":[9.495227426086009,9.257122582816099,9.34252785796449,9.445272735239247,9.387203743987165,9.130032946408033,9.423168503165517,9.634809173815452,9.446028997962492,9.506838874824459,9.407455746314318,9.114599170468744,9.250221354962541,9.120270842551568,9.588605926838924,9.054028568304263,9.125432040159142,9.586371646959602,9.50436307839598,9.386784465384146,9.151776117648279,9.430250576908608,9.475381325994812,9.399955353795067,9.339578750855456,9.481199540332357,9.278165296737415,9.608597895016443,9.598643046769619,9.43392986127974,9.35704947533701,9.701272111127884,9.535241071580636,9.356387907914112,9.328020230026011,9.713588047320715,9.151295319496782,9.107805503724894,9.477257705230177,9.391174695682933]},{"row":1,"colmun":6,"elements":[-136.52700832287466,-134.1103503935236,-148.28239230190733,-148.70619772733085,-148.49802058782366,-145.35354301700765]}],"inputSize":8,"hiddenSize":40,"hiddenLayers":1,"outputSize":6,"v":[{"row":1,"colmun":40,"elements":[11.219463754292523,11.103590079863333,11.211052716766194,11.188238375201588,11.274733727205641,11.124590772934685,11.136607399274926,11.21329977135305,11.163703164839906,11.129800438531678,11.20543823932038,11.19831844450859,11.28731481561516,11.175686093959186,11.190164349153913,11.163248075156126,11.24552730207358,11.178887504260322,11.127537121039874,11.33107112322957,11.187581804182392,11.154141931812433,11.160755795262509,11.090169125562886,11.152200806977458,11.184583515007076,11.261280004196877,11.142090066268617,11.199449992738666,11.218928311337141,11.289794929498094,11.107281456950363,11.129374669565838,11.214666822920823,11.11427454778345,11.176915712205643,11.136093846391404,11.147809287123862,11.235249266099374,11.220665994140753]},{"row":1,"colmun":6,"elements":[-5545.515953183618,-5481.679643016826,-6044.934889029776,-6035.210449023521,-6022.5641103283415,-5949.121121145467]}],"y":[{"row":1,"colmun":40,"elements":[0.9999866485595703,0.9999849796295166,0.9999865293502808,0.9999861717224121,0.9999873638153076,0.9999852180480957,0.9999854564666748,0.9999865293502808,0.9999858140945435,0.9999853372573853,0.9999864101409912,0.9999862909317017,0.9999874830245972,0.999985933303833,0.9999861717224121,0.9999858140945435,0.9999868869781494,0.9999860525131226,0.9999853372573853,0.9999879598617554,0.9999861717224121,0.9999856948852539,0.9999858140945435,0.9999847412109375,0.9999856948852539,0.9999861717224121,0.9999871253967285,0.9999854564666748,0.9999862909317017,0.9999865293502808,0.9999874830245972,0.9999849796295166,0.9999853372573853,0.9999865293502808,0.9999850988388062,0.9999860525131226,0.9999854564666748,0.9999855756759644,0.9999867677688599,0.9999866485595703]},{"row":1,"colmun":6,"elements":[0.0,0.0,0.0,0.0,0.0,0.0]}],"lastInputs":[0.053999997675418857,0.5800000667572021,0.013319416902959347,0.12037176638841629,0.07200000435113907,0.032000160217285248,0.002766137709841132,0.20062017440795899],"dw":[{"row":8,"colmun":40,"elements":[-0.00014796204164767873,-0.00016621089820274297,-0.00014963540591765253,-0.0001529767867816113,-0.00014033067291729497,-0.0001597147935373137,-0.00016067905072780103,-0.00014958417926905622,-0.0001570621593005131,-0.00016165058681823216,-0.00015130854572676609,-0.0001520291743200148,-0.00013899494811971442,-0.0001552972378364337,-0.00015390175793721206,-0.00015695160694125906,-0.00014594176221106287,-0.00015519761271170598,-0.0001611471924597375,-0.00013354511729866985,-0.00015265717275156183,-0.0001568428938204113,-0.0001577811418399125,-0.0001653106599570603,-0.00015753173094499063,-0.0001529695203363076,-0.0001424491693925662,-0.00016071162377045677,-0.0001519995118742481,-0.00014998718205117548,-0.0001391704549967582,-0.00016697694423295343,-0.00016135740199215313,-0.0001488207300643985,-0.00016333196527846606,-0.00015498185366038197,-0.00016149832650758105,-0.0001584639528906036,-0.00014714470926552762,-0.0001481553456772537,-0.0015892221801381759,-0.0017852284482087747,-0.0016071953547691764,-0.0016430842660207319,-0.0015072556141454102,-0.0017154554611383355,-0.0017258122992666516,-0.001606645142530572,-0.0016869642000150569,-0.001736247318184506,-0.0016251661185238893,-0.0016329062046384052,-0.001492908938124744,-0.0016680076331436985,-0.001653019142966868,-0.0016857767855982468,-0.0015675228790539686,-0.00166693758533851,-0.001730840489034493,-0.0014343737089378699,-0.0016396513740439679,-0.001684609125967443,-0.001694686606289136,-0.0017755592210778444,-0.0016920077481052123,-0.0016430062190032754,-0.0015300098391449707,-0.001726162157928283,-0.001632587607948304,-0.0016109736916156569,-0.0014947940122874058,-0.0017934563513159522,-0.0017330982954804652,-0.0015984451312578167,-0.00175430657116895,-0.0016646201729392803,-0.0017346119294040668,-0.0017020205039193517,-0.00158044342353415,-0.001591298408932329,-0.00003649570746955001,-0.00004099689522737555,-0.00003690845260476773,-0.00003773262383948051,-0.0000346133855059241,-0.0000393945928198053,-0.000039632432524891495,-0.00003689581725072018,-0.00003874030498995426,-0.00003987206761344288,-0.00003732114237539462,-0.00003749888965463278,-0.000034283921131619226,-0.000038304976734528135,-0.00003796077341309182,-0.00003871303660058578,-0.00003599739366889939,-0.000038280403611798876,-0.000039747902435368435,-0.00003293968831901056,-0.00003765378915989678,-0.00003868622187018345,-0.00003891764626033302,-0.000040774846171405046,-0.000038856127596766176,-0.00003773083152802553,-0.000035135925116595825,-0.00003964046685736569,-0.00003749157323799324,-0.00003699522025626035,-0.00003432721093468058,-0.00004118584498445813,-0.0000397997518524008,-0.00003670750801592742,-0.000040286789495805205,-0.00003822718537330107,-0.00003983451171265329,-0.000039086065620362786,-0.000036294107632239,-0.00003654338704491604,-0.00032982320515311686,-0.0003705018568690935,-0.00033355331296161593,-0.00034100160803727023,-0.0003128120686053134,-0.0003560213452601513,-0.0003581707775984517,-0.0003334391232867429,-0.0003501083400303117,-0.00036033643538270244,-0.00033728292042286683,-0.0003388892785786716,-0.0003098345952679993,-0.0003461741414504333,-0.00034306346760488055,-0.00034986190700559566,-0.0003253197863595574,-0.0003459520663993894,-0.0003592143155543613,-0.00029768633988491093,-0.0003402891542036456,-0.00034961957383986664,-0.0003517110289561546,-0.00036849512960116697,-0.00035115506541410563,-0.0003409854103540439,-0.000317534423675564,-0.00035824338639196845,-0.0003388231578167079,-0.0003343374595613984,-0.00031022581885526795,-0.00037220945534614385,-0.0003596828950695057,-0.0003317373134114008,-0.00036408440767785527,-0.0003454711164134604,-0.0003599970308765377,-0.0003532330877676244,-0.0003280012839160579,-0.00033025410049555365,-0.0001972827426117784,-0.00022161455386972666,-0.00019951389520262377,-0.00020396907014892486,-0.0001871075832516717,-0.00021295308008619591,-0.00021423875647322117,-0.0001994455929974274,-0.00020941623407113463,-0.0002155341380611758,-0.00020174474851229114,-0.00020270558673605058,-0.00018532661667060272,-0.00020706300520884928,-0.0002052023651506809,-0.00020926883091020927,-0.0001945890364175451,-0.0002069301716954667,-0.00021486294551372774,-0.00017806017482394318,-0.00020354291806476055,-0.00020912388006741269,-0.00021037487755620117,-0.0002204142360846072,-0.0002100423296618932,-0.000203959381554184,-0.00018993224551099686,-0.0002142821872012564,-0.00020266603680426902,-0.00019998293009585686,-0.00018556062586420972,-0.00022263594868236818,-0.0002151432249192853,-0.00019842766061921454,-0.00021777597624014034,-0.00020664249293059894,-0.00021533112429263305,-0.00021128529238466598,-0.00019619296598947318,-0.0001975404813445492,-0.00008768165264121238,-0.00009849584446867123,-0.00008867328091984503,-0.00009065336846792882,-0.00008315933722339848,-0.00009464628152365988,-0.00009521769607763328,-0.00008864292423404792,-0.00009307434218607514,-0.0000957934240755777,-0.00008966477618396285,-0.00009009181750681115,-0.00008236779260545796,-0.00009202845751843235,-0.00009120150229107277,-0.00009300882934606,-0.00008648444396642712,-0.00009196942010935475,-0.00009549511480117491,-0.0000791382469214234,-0.00009046396660478892,-0.00009294440643060434,-0.00009350040806467951,-0.00009796236725875114,-0.00009335260826947565,-0.00009064906240452255,-0.00008441474888167145,-0.000095236998718904,-0.00009007423967240686,-0.00008888174190351049,-0.0000824717972059469,-0.00009894979996414913,-0.00009561968404202808,-0.00008819050760592783,-0.00009678980152797652,-0.00009184156224809708,-0.00009570319528770151,-0.00009390503887876925,-0.00008719730507999912,-0.00008779620375571846,-0.000007579322234175516,-0.000008514115798091222,-0.000007665039941744646,-0.000007836201423385696,-0.000007188407090999017,-0.000008181354300764373,-0.000008230748158012753,-0.000007662415868216295,-0.000008045473709862608,-0.000008280514875270159,-0.000007750746151356803,-0.000007787660188623186,-0.000007119984889302527,-0.000007955066005661532,-0.000007883582862351705,-0.000008039810690177263,-0.000007475833875386499,-0.000007949962731101904,-0.000008254728612716536,-0.000006840818533834181,-0.000007819829266734351,-0.000008034241885064732,-0.000008082303428391565,-0.000008468001296861204,-0.000008069527411514019,-0.000007835829201362801,-0.0000072969265954559739,-0.000008232416704781141,-0.000007786140736524419,-0.000007683059594897389,-0.0000071289751895215249,-0.000008553356333329316,-0.000008265496548635312,-0.000007623308354781843,-0.000008366643107929041,-0.000007938910522327854,-0.00000827271537517507,-0.000008117280270564148,-0.0000075374545671187149,-0.000007589224189521616,-0.0005497068866472827,-0.0006175048300255166,-0.0005559237504647233,-0.0005683376104748686,-0.000521354912729366,-0.0005933705761912054,-0.0005969529734885622,-0.0005557334338051282,-0.000583515539781274,-0.0006005624132718281,-0.0005621397803677405,-0.0005648170514841193,-0.0005163924432221936,-0.000576958523722343,-0.000571774052744262,-0.000583104816919246,-0.0005422011675662763,-0.0005765883975971822,-0.0005986922083024832,-0.0004961452940207496,-0.0005671501840820534,-0.0005827009271747314,-0.0005861866954971981,-0.0006141602751804748,-0.0005852600869899306,-0.0005683106142602963,-0.0005292255266302445,-0.0005970739884844864,-0.0005647068499045034,-0.0005572306651369077,-0.0005170444843666018,-0.0006203508354847966,-0.0005994731763556472,-0.0005528970760424729,-0.00060680905131736,-0.0005757868120347736,-0.0005999967375052874,-0.0005887234673115363,-0.0005466703427192248,-0.0005504250475694403]},{"row":40,"colmun":6,"elements":[0.22499569099381393,0.21980413517583972,0.24989894996045226,0.24999575470251857,0.243789630869501,0.2452079981979442,0.2249953154867297,0.21980376833321473,0.24989853289101583,0.2499953374715196,0.24378922399622694,0.24520758895748266,0.22499566417187934,0.21980410897279507,0.24989892016977825,0.24999572490030437,0.2437896018071243,0.24520796896648268,0.22499558370607557,0.21980403036366115,0.24989883079775614,0.24999563549366173,0.24378951461999413,0.24520788127209806,0.22499585192542144,0.21980429239410757,0.24989912870449647,0.24999593351580383,0.24378980524376135,0.24520817358671344,0.22499536913059887,0.219803820739304,0.24989859247236388,0.24999539707594804,0.24378928212098037,0.24520764742040575,0.22499542277446805,0.2198038731453933,0.24989865205371196,0.24999545668037646,0.24378934024573382,0.2452077058833288,0.22499566417187934,0.21980410897279507,0.24989892016977825,0.24999572490030437,0.2437896018071243,0.24520796896648268,0.22499550324027182,0.21980395175452722,0.24989874142573405,0.24999554608701908,0.24378942743286398,0.24520779357771345,0.22499539595253346,0.21980384694234865,0.2498986222630379,0.24999542687816224,0.2437893111833571,0.24520767665186728,0.22499563734994475,0.21980408276975045,0.2498988903791042,0.24999569509809015,0.24378957274474759,0.2452079397350211,0.22499561052801016,0.2198040565667058,0.24989886058843017,0.24999566529587595,0.24378954368237086,0.24520791050355959,0.22499587874735603,0.21980431859715222,0.2498991584951705,0.24999596331801805,0.24378983430613805,0.245208202818175,0.2249955300622064,0.21980397795757188,0.24989877121640809,0.2499955758892333,0.2437894564952407,0.24520782280917498,0.22499558370607557,0.21980403036366115,0.24989883079775614,0.24999563549366173,0.24378951461999413,0.24520788127209806,0.22499550324027182,0.21980395175452722,0.24989874142573405,0.24999554608701908,0.24378942743286398,0.24520779357771345,0.2249957446376831,0.21980418758192903,0.24989900954180034,0.24999581430694699,0.24378968899425447,0.24520805666086729,0.224995556884141,0.2198040041606165,0.24989880100708213,0.24999560569144753,0.24378948555761743,0.2452078520406365,0.22499539595253346,0.21980384694234865,0.2498986222630379,0.24999542687816224,0.2437893111833571,0.24520767665186728,0.22499598603509439,0.2198044234093308,0.24989927765786663,0.24999608252687489,0.24378995055564493,0.24520831974402114,0.22499558370607557,0.21980403036366115,0.24989883079775614,0.24999563549366173,0.24378951461999413,0.24520788127209806,0.22499547641833723,0.21980392555148257,0.24989871163506,0.24999551628480488,0.24378939837048725,0.24520776434625189,0.22499550324027182,0.21980395175452722,0.24989874142573405,0.24999554608701908,0.24378942743286398,0.24520779357771345,0.22499526184286054,0.21980371592712545,0.24989847330966775,0.2499952778670912,0.24378916587147349,0.24520753049455958,0.22499547641833723,0.21980392555148257,0.24989871163506,0.24999551628480488,0.24378939837048725,0.24520776434625189,0.22499558370607557,0.21980403036366115,0.24989883079775614,0.24999563549366173,0.24378951461999413,0.24520788127209806,0.22499579828155226,0.2198042399880183,0.2498990691231484,0.2499958739113754,0.2437897471190079,0.24520811512379038,0.22499542277446805,0.2198038731453933,0.24989865205371196,0.24999545668037646,0.24378934024573382,0.2452077058833288,0.22499561052801016,0.2198040565667058,0.24989886058843017,0.24999566529587595,0.24378954368237086,0.24520791050355959,0.22499566417187934,0.21980410897279507,0.24989892016977825,0.24999572490030437,0.2437896018071243,0.24520796896648268,0.22499587874735603,0.21980431859715222,0.2498991584951705,0.24999596331801805,0.24378983430613805,0.245208202818175,0.2249953154867297,0.21980376833321473,0.24989853289101583,0.2499953374715196,0.24378922399622694,0.24520758895748266,0.22499539595253346,0.21980384694234865,0.2498986222630379,0.24999542687816224,0.2437893111833571,0.24520767665186728,0.22499566417187934,0.21980410897279507,0.24989892016977825,0.24999572490030437,0.2437896018071243,0.24520796896648268,0.22499534230866428,0.21980379453625938,0.24989856268168984,0.2499953672737338,0.24378925305860367,0.24520761818894419,0.224995556884141,0.2198040041606165,0.24989880100708213,0.24999560569144753,0.24378948555761743,0.2452078520406365,0.22499542277446805,0.2198038731453933,0.24989865205371196,0.24999545668037646,0.24378934024573382,0.2452077058833288,0.22499544959640264,0.21980389934843795,0.24989868184438597,0.24999548648259066,0.24378936930811055,0.24520773511479036,0.2249957178157485,0.21980416137888438,0.2498989797511263,0.24999578450473279,0.24378965993187774,0.24520802742940576,0.22499569099381393,0.21980413517583972,0.24989894996045226,0.24999575470251857,0.243789630869501,0.2452079981979442]}],"db":[{"row":1,"colmun":40,"elements":[-0.002740037926242949,-0.0030779797288473448,-0.002771026154798661,-0.0028329035808689919,-0.002598716277004108,-0.0029576814891237839,-0.002975538104531126,-0.0027700775131171515,-0.0029085586307721047,-0.002993529514387675,-0.002802010226671597,-0.002815355201195119,-0.002573980631539653,-0.0028758748985488566,-0.0028500326770804498,-0.0029065113647718627,-0.002702625342472866,-0.0028740299887522575,-0.0029842073962364774,-0.002473057834212842,-0.002826984802279952,-0.002904498158743573,-0.0029218731228156235,-0.003061308649505938,-0.0029172544023404669,-0.0028327690170612789,-0.002637947694901661,-0.0029761413090507178,-0.0028148058966202379,-0.0027775405279221079,-0.002577230759032226,-0.0030921657670545125,-0.00298810016552286,-0.002755939564274142,-0.0030246661538805179,-0.0028700344505927768,-0.0029907098788838676,-0.0029345177724468204,-0.0027249021407367366,-0.0027436176306484354]},{"row":1,"colmun":6,"elements":[0.22499869505048765,0.21980706991683975,0.24990228651594394,0.24999909255051024,0.2437928858556937,0.24521127212163663]}],"learningRate":0.1}