{"weights":[{"row":8,"colmun":40,"elements":[0.6989301113220618,-0.49565059798492347,0.829235814440774,0.6641865926181337,0.6506642562515185,0.7781926446090345,-0.9722679165048485,0.6781278648859329,0.6800831617734481,0.7294062938790029,-0.38818498682089555,-0.3192576796021051,0.5397639767392809,-0.813358362365553,-0.5100423246437794,0.8451535431967159,-0.6199287876774086,-0.9331910429822616,-0.9510511813990419,-0.2067826180168531,-0.8259616608926786,-0.09878711836531419,-0.6971596055344372,-0.11621069022007225,-0.5632235460480172,0.6719467260691554,0.84527814220022,0.655976507146403,-0.07183354976943786,0.49147310837964305,0.7984490599660693,-0.7055442579374835,-0.2985792694165211,0.40492520333908446,-0.58045922922234,0.49795341694572878,-0.7388533617841161,0.15609317800360465,-0.24077781128926849,-0.3264418287191874,-0.27331186166732615,-0.5531348516968619,-0.26797179078760149,0.8233246676302254,0.3510990664590252,-0.37451862694275209,0.5841179081156496,-1.0096621731056628,-0.2897826572027772,0.6996542155998375,-0.47776154007876839,-0.5700842787335745,0.8608173841205987,-0.13725066230031489,-0.21099826860604904,-0.7836210936746104,-0.6216760178479847,0.6805769626456369,0.8134447818672341,-0.38460896777916267,0.29160961624971445,-0.5272936639569998,0.47687062917493686,-0.5572781782182545,0.8917875896375529,-0.7706838918283179,-1.0143713498537404,-0.8618241586664897,-0.020882318038364875,-0.6212289947997789,0.5720742999468621,-0.11571573333147703,0.635435896045534,-0.06703317601279153,0.10225125360371752,-0.6585173335458783,-0.14089017373329927,-0.004116581362919145,-0.521960227549259,0.8750562086130374,-0.23813727762355137,0.8961877029385219,-0.46054474511616985,0.5867610902717979,0.7434574183727228,0.034152800312223587,-0.5500903356642103,-0.07100487519322471,-0.26393072196815206,0.5109798280208089,0.31172294925970026,-0.4201636769958561,-0.6422956525179528,0.8864482948641113,-0.18645934153903125,-0.5211330376976886,-0.9609405735308805,-0.5981586044100563,0.1008901375927575,-0.607035087694798,0.010247974502042049,0.24349408615162816,0.6933731173237184,-0.8634717406995057,-0.5042152773458936,0.6418636446973343,-0.4416529062335494,-0.8336049620806063,0.42397008652533876,0.5307073791360891,0.39912878425799966,0.8893326696917872,-0.02978783783052619,0.5281500789314058,0.08139014947996032,-0.13875415241825674,-0.09991272948648875,0.9189132139921425,-0.8287952781784852,0.2584604015674484,0.2777298778522394,0.01606147387618135,0.8887951857510464,0.3980897655005342,0.47225047695505847,0.8543334603082426,0.45215111991333925,-0.04484227875761973,0.16358002445750698,0.08953008601706959,0.6747188974112984,0.5745922762435372,-0.5849214335964496,0.09626842129207697,0.4894108439394065,0.12082337482727605,0.31229433985705898,0.15171688517611427,0.4194973992071551,-0.3971346647597957,0.5056908641454577,0.7996103411495271,-0.6764596136959016,0.5450110032522104,0.4397509747789442,-0.605153751213353,-0.7463814825726396,-0.7963177714529066,-0.6239704684256503,-0.9983315762149849,-0.3176418275900431,0.1976388459810997,0.07970411766181462,0.6109372226455875,0.7867724043695998,-0.4626803419168253,-0.04692355331264881,-0.8282009660251423,0.15560707191259369,0.7963918644411334,0.8208671456061788,-0.8443093876980786,0.6856240045370595,0.5739008171486875,-0.5175664235498185,0.5459955707933285,0.11022425705449844,0.4523616539105596,0.4168806625974831,-0.7826079873472143,0.23036060464833048,-0.1094772338440165,0.19904253880538434,-0.6896173830098872,-0.49295796288169127,-0.25324794962174876,-0.8286259686207872,-0.1097093132433352,-0.5996857542093392,0.9740417177275725,-0.1167025550783324,-0.11021950487919885,-0.9444847530490447,0.9888224907043119,-0.35493324033467818,0.08377528498320652,-0.03750077020087908,-0.12952495035565,0.4314461418670044,-0.17449273355217286,-0.7284576405293509,0.7048060761608679,0.39346238357200327,-0.5940391301104945,0.624771118310184,0.6414098977293583,0.22852401515174598,0.6230764682667765,-0.8693728192796514,-0.31981915917570916,0.665474807089751,0.4433563052960289,0.7872517088239414,-0.4326837310196331,0.89563733351814,-0.5842125018974738,0.27896285719221566,0.710404821605483,0.40885093448234058,-0.7551829566331997,0.6808888979419537,-0.0928266786007669,0.23749162267483663,0.4502951829160205,0.4015859578985034,0.40041815417628398,-0.06576316015683549,-0.9198864412470198,-0.285478580003073,-0.5014319081228582,0.326345573793103,0.01620521693914326,0.16525997176970359,0.3984643372533854,0.05647668788517047,0.8402490391288385,0.2555023759206365,-0.5018626001044847,-0.25462164520409238,-0.8653011419320577,0.5516008426922684,0.35985002593978268,0.007865630514780844,-0.4277494782755951,-0.9157235361207506,-0.013310006974785384,0.32318097140040749,-0.012776428557368753,0.6158223084748535,0.44369901667559,-0.28970827837273258,0.7748029215008185,-0.1716940330519747,0.3791037764180029,0.06736744533753618,0.19986409012206195,-0.7288757296915542,0.129669448565393,0.9513940015022805,0.1492538672524996,0.8112051778469404,0.9233552045561791,-0.06005744554613215,0.6229764484421554,-0.48436888364690308,-0.028240924586046165,0.46123055762736817,-0.24095434605105069,0.22104234082617653,-0.2855129565833496,0.41454638924149886,0.5977420052968859,-0.6642686302615248,0.667357066898987,-0.6229114734757385,-0.27058133321957009,-0.8284745160696452,0.3471681062750747,-0.3542202001988343,0.09995777756456743,0.3964696294921034,-0.3266433454063952,0.3519416419160135,-0.5696863413022022,0.7233459906534218,-0.6132103031534872,0.5729621923912512,0.8606869088455936,0.03417116521534184,0.010723576303746765,0.309807702104167,0.9191393991625899,-0.7926409206474581,0.7234667394100932,-0.4856579231041946,0.49547114962119567,0.018985497705508854,0.5062590794230064,-0.12606300106475569,0.8114588302662699,0.453830889574985,0.6601544389679285,0.17409102893070534,0.9304351025754047,-0.2198332091530886,-0.584844107305813,-0.3088342958200372,0.5367916680034784,-0.7784937874326209,0.05437599279709867,-0.029375857557266427,-0.8309602738114129,0.05896061026801467,0.5980017425105325,-0.5628378466909303,-0.5064555718899274,0.815380416888529,-0.3751768490822228,-0.9324752214092438,-0.46965825853048706,-0.964247491418143,0.37875195325428098,-0.3908587064370665,-0.4104506128293629,-0.3775124417094278,-0.3834186359006232,0.6016031341001337,-0.964923738925262,0.1031548186635166,-0.9929009021787879]},{"row":40,"colmun":9,"elements":[-0.6725731373925974,-0.39434693160693126,-0.610184721089059,-0.7898664580307682,0.052240217477580678,0.3113559334725682,-0.8946750986630898,-0.09484604294507089,-0.05719000369299626,-0.3049802237441182,-0.24274829044418276,0.07455941171635074,0.7569964025605452,-0.869160926402125,-0.18702957429133469,0.8426529270614017,-0.1633150276392751,-0.2911220634020111,-0.047159721078302827,-0.052365916836329007,0.8500843198476474,1.0120039139619095,0.04250652384713521,-0.844286947648421,0.13740379873881046,0.8159537226509578,0.3932204733081645,0.3663788094439333,0.7610217765629134,0.48073345678977005,0.35518113066758508,0.9059634325779636,0.8292871076897902,0.868643940498365,-0.11664152059779494,-0.43084528834393229,-0.43461829156179995,-0.16225977525793953,0.834762073724879,0.12614895100843513,-0.4184218274878865,0.20310505364826238,0.5637563569260456,-0.49171860533106595,0.9652552554084217,0.5045499868256982,0.36330411545437649,-0.08741543531597826,0.5776074128047289,0.5812379328432082,-0.8894295688043931,0.9727290384007292,0.010983490575755354,0.7256669212387668,0.09480957296756466,0.09374283565122482,0.9790460246661003,-0.38680779051891869,-0.7048954853452627,-0.12161484768751189,0.364700132561186,-0.7987254315161265,-0.35465670766644977,0.5009727014188463,-0.08063867315847444,0.7018843783744864,-0.6449705549850214,-0.4617365650846106,0.8146029731723582,0.9581085943518228,0.6568230006191672,0.8278348601704444,-0.6213402032905877,0.4689265377644371,0.7009829339654727,0.7417368775099515,-0.07063713716243833,-0.2145670668408025,-0.6736804291322179,0.4389672363768983,0.8158588721748044,0.7822223394111286,-0.7817170704117565,-0.1438493457576291,0.5224355386914312,-0.7568160140505804,0.17803930390842249,-0.5860724731071207,0.5591687591254331,0.13646280554539004,0.15655175395358235,0.9062979601831102,-0.9549845500366812,-0.8748942651986771,-0.7157652228166642,-0.13896705065119026,0.35134581594513705,0.8504644199447869,0.08552818360015834,-0.508737635723478,-0.9051374987291205,-0.7910325320314923,-0.9540251801270685,0.44167594486902048,0.028677439486392527,-0.6082568999216523,0.18381607560189096,-0.8601415766594207,0.30786577097741626,-0.2041597928787372,0.6148033546988648,-0.011820316076914053,-0.9984893916958515,0.6631975980589393,-0.4060465257006249,0.3014201912621035,-0.1490760355808112,0.988549731706002,-0.6068271623730261,0.1351797168262915,0.39249163588272209,0.535844860234706,0.053093562908206579,0.15729817343908088,-0.8451332767712623,-0.3796257144725547,0.21070266493745275,0.37865923698731299,-0.342931934315425,0.6688477481416936,0.017663338638203565,0.8127346351511307,-0.8070886552561373,0.7017402778714604,0.20500614313457778,0.6050739381945902,-0.007507360334614566,0.7628455534043576,-0.4879817553466718,0.5357227978336848,0.5748207581836463,-0.08054695249885424,-0.6115178295829606,0.575975272274141,-0.52010558313962,0.8608870635540673,0.0024020157520173019,0.8225273930194721,-0.10567478525451889,0.11294931829361374,0.7605384666463132,-0.23993646308774906,0.2720452531363167,0.5731120279036195,0.7953428965540157,-0.5998513670241222,0.20135558525473588,-0.7338099436914931,0.1261377656092558,-0.5117347195611162,0.8920646594241216,0.22419094129217274,0.08105653045707935,-0.8476904898737356,0.6494376041081741,0.5568287803780382,0.991799347640485,-0.9443990097562894,0.6387741897100988,-0.5036666942944956,0.9642326233310176,0.42369960408778309,-0.05733151106898946,-0.26222860417269758,-0.6192946807113819,0.7828108973943798,-0.9265365277584567,0.6946008347128542,0.4864640356818043,-0.8551279340160126,-0.05425597106737683,-0.7442353145624303,-0.7794976990296664,0.23507215525499837,0.9493750472664035,0.6177864151302459,-0.2912815131126415,0.4664819864682439,0.9095156910766217,0.32037456917138509,-0.7971631907688751,-0.6079447974342372,0.35748363580144978,0.8906018357586245,0.3360325229216508,0.11294813158889035,0.8266851322333474,-0.28998224797107116,-0.09898593519890427,-0.566927210215389,0.987492052744313,-0.15486260356800875,-0.2461833055678661,0.08078310546708587,0.00873708734407656,-0.6225518740247126,-0.6095153070605787,-0.7456371181627653,-0.2164154149728578,-0.546018728488674,0.09005169232918474,-0.47346898650640176,0.1604548940185467,-0.10243455677264657,-0.03265275010832284,-0.675636022512206,-0.2954365201480639,-0.20415829438193476,-0.26143996499353419,0.06371660159210897,0.660711090840811,-0.86982783956062,0.07507613121672302,-0.9132429160498482,0.5582182686911799,0.4220724696040297,0.08957993528009006,0.2695624680565278,0.07548911889038605,0.9168693833126126,0.5117268370184918,-0.02576632852220739,-0.8645281335027573,-0.9420100790878488,-0.8164994518218933,0.06227825625378601,0.788700108775562,0.30127151676366439,-0.16815342737557144,-1.007062890027294,0.7892822432841349,-0.44060986557233786,-0.539047094883608,-0.13000982855984476,-0.5226808861112022,0.1914389630331386,-0.0818154836740074,-0.23305003529967889,-0.4603973832751478,0.4381127873986653,0.053574253989411697,0.14956056317971914,-0.8074837901359313,-0.5019854074333248,0.9375950435937658,0.4506861294965478,-0.7331879171003197,0.828221125379914,-0.9816232610916142,-0.389886543600237,0.433329765967994,-0.8296788798926997,-0.5763070683049476,0.32845533365939108,0.9730607123779486,-0.19569340037534414,0.20080354862618986,-0.25074166895316488,0.7188972130197889,-0.36653546311159199,0.8846258019721631,0.2907512821588547,-0.5162097924024475,-0.5199003920619778,0.5331986255332633,0.13668734755520696,-0.22127453387267669,0.3968523805656687,-0.3043681148430417,0.5242456994398405,0.9115889888327222,-0.25183934741114585,-0.11517162360403112,0.2459094753956557,0.8882450042182399,0.11116297520051395,-0.7147651857237898,-0.7560946385083693,0.6964517762874387,0.7456218687548439,0.3032299630672711,0.41494369974949538,0.475760235402571,0.35310444117164876,0.8130339587937688,0.20044647868658589,0.3800624712721246,0.1549612424505311,-0.28878228183733686,-0.23161992878052777,0.19114133858224142,-0.6483715379709786,-0.6016311644197858,0.9123074290858968,0.523852871658596,-0.43158201943439858,0.826312012038415,0.34856738711230619,0.9655985309781486,0.857018470821883,-0.0789634659282576,-0.7168042884569222,0.6201622131548116,0.2505920034994708,-0.6743688739086436,-0.18070444815411569,0.1364833443356652,-0.7039678918747775,0.3669473529984538,0.2529265056837856,-0.4007301469949182,-0.11390416030152115,0.16731686542454017,0.8321953236534612,0.7226446346780457,0.45050142574430565,-0.20691984556654076,0.8125713712918312,-0.6518859078463213,-0.7624169353812434,-0.7482379167646914,-0.45721124387592657,0.28951027375194957,0.6694101593250879,0.1293802935788575,-0.6486400125519197,-0.4814155390434214,-0.19579778863730605,0.6338512577087373,-0.5014018031864724,0.8773509713269572,-0.194390365210523,-0.4658651279986786,0.9573830610521613,-0.19423787519897438,-0.02924487456618443,-0.956985294224397,-0.823798827140425,-0.8023505048693337,-0.015958960182680196,0.3773602572906705,0.13543183246117353,0.1682713662466161,-0.39138205360944969,0.2330773887966898,-0.20361657420723776,0.06589468512242802,0.3576107522393326,-0.04372784445392229,0.83117228023947]}],"biases":[{"row":1,"colmun":40,"elements":[0.8388353162945473,-0.9202892588371292,0.8199053507683335,0.7315288444817952,-0.7966305734165471,0.5975104493557036,0.3758193855186818,-0.17405564702723995,-0.9705263727153348,0.8287874919977825,0.6124334543568791,0.9197077073800182,-0.2941207951387731,0.43372042268857988,-0.41273872097249406,-0.2728005098575278,-0.8073757337086273,0.7285087818973638,-0.9144160612008023,0.7610120721665895,-0.35604358168482189,-0.236441870142177,-0.372494022287051,-0.9888122033932316,0.28183008364980208,0.3884503248294966,-0.6665197157388425,-0.1449856490386472,0.1488306970127873,0.9126589328872679,0.23576277160631138,-0.907645237877184,-0.9725484326504816,0.8911331800266225,-0.20796285824707529,0.08338161250284747,0.5096823533923977,-0.9338678805970532,1.0371837685355186,0.9241990294146064]},{"row":1,"colmun":9,"elements":[0.6838363084516895,0.138082643497952,-0.9753287751976331,0.14370324609264699,0.9667126178501587,-0.04182013799230714,0.7647487178547258,-0.43427897492731268,-0.5363291881549371]}],"inputSize":8,"hiddenSize":40,"hiddenLayers":1,"outputSize":9,"v":[{"row":1,"colmun":40,"elements":[0.9450698131757824,-1.7122845693737128,0.808147578783371,1.2258967453072669,-1.7158840511330205,1.495794608226625,0.9167212194704959,-0.5291003064253306,-1.596721025294789,0.805114471034786,0.3659006811754474,0.8993318761616416,-0.830621481140394,-0.13829830877110844,-0.4093582962793809,-0.8524113273542122,-1.1957609664877218,1.6695592721273847,-0.8909178547149752,1.6460685948004277,-0.4690899397302452,-0.24258599062025955,-0.7894931832648988,-0.7523477190272623,0.48888105310286919,-0.3825285354968067,-0.8353728038930409,-0.5530116747067833,0.4097956100451906,0.8865826728047785,-1.1963446077225673,-0.25005832399747976,-0.9435522456350491,1.335018515190332,0.8616401726589659,0.42694549025878528,0.3463771222270941,-1.4430838971194362,0.23862861875760633,0.6834740134286947]},{"row":1,"colmun":9,"elements":[1.4744002170400168,0.549293797515729,-4.138675577653061,-0.038363036440806217,0.37087186955767539,-4.483400712375777,-0.24171124810509493,1.9637422336744757,-2.580297440399571]}],"y":[{"row":1,"colmun":40,"elements":[0.737542899697718,-0.9369272412159767,0.6685671056092255,0.8413850128587329,-0.9373655004435231,0.9043854121707947,0.7243426175575053,-0.4846930598878769,-0.9211734855452795,0.6668863391870185,0.3504008892184311,0.7159723933858725,-0.6808095707972713,-0.13742328530774448,-0.3879276808755526,-0.6923271045207351,-0.832357039337288,0.9314933914110662,-0.7118467817147661,0.928316165745633,-0.437463709950728,-0.2379368336127249,-0.6581218297068471,-0.636547480254703,0.45332788736556176,-0.36490134055382486,-0.6833504094238981,-0.5027739955206938,0.3882991211803233,0.7097017423802946,-0.832536236204664,-0.24497348704416967,-0.7368500677221975,0.8704705487379973,0.697101766362854,0.4027654538432009,0.3331586836286593,-0.8943168209485649,0.23420000504305783,0.5937732276825648]},{"row":1,"colmun":9,"elements":[0.9004135259526149,0.4999907398290893,-0.9994917098703785,-0.03834422759782465,0.35475409245491038,-0.9997448813461097,-0.237111442133956,0.961374362327001,-0.9885889099387806]}],"lastInputs":[-0.23399996757507325,-0.10000047683715829,0.08167079836130142,0.4397203326225281,0.534000039100647,-0.7120000362396239,-0.4877927303314209,0.10981001704931259],"dw":[{"row":8,"colmun":40,"elements":[0.0034241095739726446,0.00011093808585252274,0.0013540048842701576,-0.003946689977878602,-0.00003541102485340636,-0.0014471847285574198,-0.0018763639007662132,-0.0038237552260533705,-0.00024341663985833,0.00833799597752461,-0.014381530322720529,0.0062073268356319659,0.0025294710799679384,0.008911386148506234,0.000322556305661573,-0.00014756140554817362,-0.004183415909443271,-0.001040578782136889,0.0050095895259874788,-0.0005484926766055278,0.009902827237509743,0.010707582749400258,0.004153140898169227,0.0019545456571249599,0.0021344231821526446,-0.0005037746942333211,-0.0022697350314222835,0.0035575214988690006,0.010534965423024137,0.005470475478936148,-0.0011785311107287125,-0.012228078939009436,-0.0058423815261424579,-0.000021110999579237547,-0.0027717615316539517,-0.0003681324720178115,-0.00020232551053802098,-0.00008049340230439633,-0.009047908180806287,-0.0021824473582095725,0.001463301870031621,0.000047409671033799097,0.0005786374052527033,-0.0016866279248080375,-0.000015132990860338546,-0.0006184580469258647,-0.0008018688495606427,-0.001634091448287216,-0.00010402471550822911,0.003563263628877483,-0.006145983287192999,0.002652716792570227,0.0010809758512528136,0.0038083033658744818,0.0001378452514641524,-0.00006306073915520729,-0.001787793349237392,-0.00044469396931405016,0.0021408607298052737,-0.00023439972992579536,0.004231998217988057,0.004575912517465745,0.0017748552467452049,0.0008352800204973775,0.0009121511348888161,-0.00021528938727593308,-0.0009699769952464265,0.0015203157929122667,0.004502144067295215,0.0023378215052277256,-0.0005036482451754466,-0.005225700402334654,-0.0024967564933162254,-0.000009021838961390045,-0.0011845192874027288,-0.0001573223412059332,-0.00008646431766548188,-0.000034399058666973535,-0.0038666464010050449,-0.0009326743877557793,-0.0011950846210831319,-0.00003871967220398575,-0.00047257553507124966,0.001377475923258326,0.000012359175518439936,0.0005050972159628546,0.0006548895684899516,0.001334569168048226,0.00008495741054014106,-0.0029101319768315007,0.005019449683201448,-0.0021664846521525628,-0.0008828373981142855,-0.0031102569320692328,-0.00011257878055645875,0.00005150196354009619,0.0014600981390819532,0.00036318338321002165,-0.0017484497125776274,0.00019143521795287818,-0.0034562902503906835,-0.0037371664651306279,-0.0014495315378692616,-0.0006821766084210963,-0.0007449575618908989,0.00017582772296349095,0.0007921841785101941,-0.0012416481250447627,-0.0036769194702176556,-0.0019093083832898396,0.00041133158138564814,0.004267850887857558,0.002039111237988913,0.000007368172772452527,0.000967401745834413,0.0001284857993955417,0.0000706157618128589,0.000028093851880164775,0.0031579059274404626,0.000761718986432356,-0.006434405168539959,-0.0002084689691075595,-0.002544374190533966,0.007416410556868998,0.00006654252044735386,0.0027194728136163178,0.0035259635593800585,0.007185398089116772,0.00045741564391466554,-0.01566831996874594,0.027025009288083724,-0.011664479483250964,-0.004753247943445656,-0.016745804377480478,-0.0006061307079860876,0.00027728956974779767,0.00786125337649289,0.001955400476943997,-0.009413755033802839,0.0010306983573432573,-0.01860886790671963,-0.020121121797330878,-0.0078043621804575629,-0.0036728785708107847,-0.004010894878916104,0.000946666695772165,0.004265165731964517,-0.006685105784438193,-0.0197967484696031,-0.01027982748087111,0.0022146331787390837,0.02297835762165522,0.010978693606694063,0.00003967067112519227,0.005208547314256276,0.0006917750233999148,0.0003801993723065735,0.00015125893393063238,0.017002349342316947,0.0041011393643684379,-0.007813995298096226,-0.00025316645466624707,-0.003089909236465008,0.009006550831376307,0.00008080979178019042,0.0033025504646174285,0.004281959552215492,0.008726007363948515,0.0005554893727085407,-0.019027738440137628,0.032819396661651439,-0.014165441163467338,-0.005772383943487014,-0.020336244492070646,-0.0007360901867654298,0.0003367427660313276,0.00954677166141174,0.00237465464677951,-0.011432142621546548,0.0012516886809388214,-0.022598764379489036,-0.024435258116088058,-0.009477682518487286,-0.004460374367333506,-0.004870864190872881,0.0011496399303226517,0.005179652835373808,-0.00811844821682704,-0.024041336441698405,-0.012483908224106168,0.002689469001779046,0.027905109129820327,0.013332617075684197,0.0000481763938584728,0.006325303296488784,0.0008400973576573695,0.000461717288502183,0.00018369011082918863,0.020647794836892547,0.004980457846623916,0.010418660164877175,0.0003375552653528011,0.004119878889981843,-0.012008734173754064,-0.00010774638663494122,-0.004403400521189114,-0.005709279275500976,-0.011634676225534083,-0.0007406524804105166,0.025370317353820703,-0.043759194571995497,0.018887254462987149,0.0076965117528336869,0.02711499205078356,0.0009814535604440983,-0.00044899034468525004,-0.012729028597721574,-0.003166206125024147,0.015242856488449704,-0.0016689182039951055,0.030131685166663915,0.03258034342746583,0.012636909742545414,0.00594716569034779,0.00649448544284868,-0.0015328532062110386,-0.006906203626325455,0.010824597380789517,0.03205511454000475,0.016645210593889939,-0.0035859585889863765,-0.03720681134249501,-0.01777682237073206,-0.0000642351903773212,-0.008433737540378338,-0.0011201297852042325,-0.0006156230375931763,-0.00024492014230469443,-0.027530392501272765,-0.0066406103139213259,0.0071378461089154359,0.0002312598260441306,0.002822537738892304,-0.008227209174562876,-0.00007381727731024232,-0.003016779007930762,-0.003911439303752989,-0.007970941283302566,-0.0005074225804176708,0.01738125806391092,-0.029979516728835904,0.012939697969150319,0.005272896475919703,0.018576538387864776,0.0006723959095156544,-0.0003076042345210704,-0.008720684407464917,-0.002169174511106079,0.01044291321081973,-0.00114337939043672,0.020643281220265473,0.022320862172358528,0.008657573585001053,0.004074415789568542,0.00444938570929882,-0.0010501609727493207,-0.004731454707365048,0.007415954553879581,0.021961026750977526,0.011403668973694369,-0.0024567478117211479,-0.025490465123478725,-0.012178938594769552,-0.000044007664750970375,-0.005777971421809326,-0.0007674032843257221,-0.0004217646447723404,-0.00016779530736956208,-0.018861130114847269,-0.004549496167447538,-0.0016068443709335965,-0.000052060319602289213,-0.0006353988035440949,0.0018520775803960693,0.00001661746060558174,0.0006791256484486943,0.0008805281217303949,0.0017943875416589887,0.00011422901314870506,-0.003912801740689689,0.006748873114379759,-0.002912934872235477,-0.001187014106435333,-0.004181878634605069,-0.00015136717235953028,0.00006924667822386301,0.0019631668204951777,0.0004883161950479555,-0.0023508683225875045,0.00025739315604884764,-0.0046471358054289749,-0.005024786355542296,-0.001948959555688167,-0.0009172167592873417,-0.0010016285405998376,0.00023640818559098859,0.0010651268249340268,-0.0016694510708373067,-0.004943781594093826,-0.00256714995234818,0.0005530535867307148,0.005738315140330831,0.002741675657662071,0.000009906835662190286,0.0013007146291586574,0.00017275486594121943,0.00009494602923208975,0.00003777343206924661,0.004245944825937621,0.0010241650206098126]},{"row":40,"colmun":9,"elements":[-0.0013260432381887492,0.043169820114624859,-0.000007596700174169593,-0.0077855397097579838,-0.00031879030673455773,-0.0000037370637151067517,0.015252183195941358,0.00042722835496256985,-0.0001839364694298897,0.0016845203626778662,-0.05484017333820533,0.000009650361137564713,0.009890250783555273,0.00040497077897112094,0.000004747326288787172,-0.019375396238172517,-0.0005427235271987245,0.00023366110491008038,-0.0012020302683842376,0.03913253275915844,-0.000006886248718152196,-0.0070574277801222378,-0.0002889766991956033,-0.0000033875695535950268,0.01382578284966402,0.00038727350616293897,-0.00016673453575801757,-0.0015127430654839894,0.04924790092500324,-0.000008666275109349274,-0.00888170224605467,-0.0003636742844938613,-0.000004263222387847125,0.01739960937824831,0.00048737983252380746,-0.00020983374493861528,0.0016853083177724102,-0.054865825503014328,0.000009654875212544756,0.009894877069864352,0.0004051602090281875,0.000004749546908981259,-0.019384459317796207,-0.0005429773927961135,0.00023377040276250768,-0.0016260127526373605,0.052935436804700437,-0.00000931517993186583,-0.009546737609795133,-0.00039090512981733086,-0.0000045824397600201019,0.018702440213063274,0.0005238733801819959,-0.00022554546967609599,-0.0013023101849909123,0.042397181932237317,-0.000007460737119444586,-0.007646196871768822,-0.0003130847104984801,-0.0000036701790695687377,0.01497920501186128,0.0004195819728658589,-0.00018064443951089205,0.000871439417184755,-0.028370027309248707,0.000004992343976164808,0.00511644416392291,0.00020950028709800585,0.000002455896257442681,-0.010023318435091902,-0.00028076281220053984,0.00012087802652494576,0.0016561963679763137,-0.053918075384699868,0.000009488097276714774,0.009723953351362098,0.0003981614874647676,0.000004667503421916989,-0.01904961292765315,-0.0005335980226044389,0.0002297322619919033,-0.0011990083845723863,0.03903415423211803,-0.000006868936805072222,-0.007039685525768919,-0.0002882502166499722,-0.0000033790532608985965,0.013791025064874016,0.00038629990710323665,-0.00016631536794857384,-0.0006299928180365657,0.02050964542098359,-0.0000036091331056753607,-0.0036988492987495358,-0.00015145479266329796,-0.0000017754498746798673,0.007246193484569722,0.00020297286508970126,-0.00008738678451700581,-0.0012872611903229862,0.04190725643508106,-0.000007374523716199104,-0.007557840367090203,-0.00030946682422745034,-0.0000036277678945009029,0.01480611109080372,0.0004147334452683724,-0.00017855698197710268,0.0012240412431872258,-0.039849108052804557,0.000007012346247481555,0.00718665985449503,0.0002942682954323562,0.000003449601026552674,-0.014078953644060574,-0.00039436506417958996,0.0001697876948688034,0.0002470760932370232,-0.00804365211668033,0.0000014154613865311005,0.0014506470677805317,0.00005939886519642683,6.963114597738207e-7,-0.0028418755353226,-0.00007960367341295309,0.000034272113428687056,0.0006974629927860467,-0.022706161509716745,0.000003995659482425135,0.004094983986977269,0.0001676751066654268,0.0000019655947618500606,-0.008022237157886792,-0.00022471059651287141,0.00009674562394081558,0.0012447488491052945,-0.040523251698157038,0.000007130976974560483,0.007308239516097433,0.0002992465524395533,0.000003507959336805698,-0.014317133056251647,-0.0004010366991284425,0.00017266006268700336,0.0014965114900087655,-0.04871947607937039,0.000008573286880392196,0.008786402506366769,0.00035977209731360033,0.000004217478455823966,-0.017212913382539289,-0.0004821502977024522,0.0002075822507186564,-0.0016747507346411947,0.05452211954268507,-0.000009594392423370198,-0.009832890793444419,-0.00040262209030939445,-0.000004719793459242486,0.01926302572695521,0.0005395759208503791,-0.00023230595235022636,0.0012798436699833485,-0.041665776361477949,0.0000073320298695180568,0.007514290204102255,0.00030768359912876293,0.000003606863790231129,-0.014720794582396118,-0.0004123436476197427,0.00017752809207072156,-0.0016690383366077052,0.05433615034618608,-0.000009561666963229692,-0.009799351840530317,-0.0004012487888446749,-0.000004703694741793151,0.0191973215788658,0.0005377354843212711,-0.00023151358126005474,0.0007865248174321511,-0.025605601617193335,0.000004505881139846399,0.004617888785581619,0.00018908620818882202,0.000002216589377787902,-0.009046628539816858,-0.0002534047866702696,0.00010909945759767603,0.0004277914267190545,-0.013926905553445925,0.0000024507520662024778,0.002511673107103575,0.00010284412771370714,0.000001205604592961222,-0.004920467916931837,-0.0001378270498584283,0.000059339275234008655,0.0011832504964048156,-0.03852115044914216,0.0000067786622587077778,0.006947166925667975,0.00028446190729643233,0.0000033346442775398225,-0.01360977743267672,-0.0003812229861962601,0.00016412957925651507,0.0011444615388796845,-0.037258361823123479,0.0000065564462163489258,0.006719427014619132,0.0002751367636576469,0.000003225328984086811,-0.013163625852460543,-0.0003687258503284959,0.00015874913335960455,-0.0008150473416120854,0.02653416277010465,-0.0000046692823459046749,-0.004785351835224501,-0.00019594322760591495,-0.000002296971741730785,0.009374695341467484,0.00026259425405250814,-0.00011305583869129086,0.000656063471624126,-0.021358385034620138,0.0000037584879177551336,0.0038519167877422309,0.00015772236480167021,0.0000018489223609045745,-0.007546058808040264,-0.00021137238188089277,0.00009100306476980926,0.0012286094681427478,-0.03999782827843038,0.000007038516913954439,0.007213481074022461,0.00029536652948149064,0.000003462475227960348,-0.014131497484182307,-0.00039583686779552066,0.00017042135683824867,0.0009039474956244626,-0.029428339631274615,0.000005178577816836672,0.005307307424102852,0.0002173154623492297,0.0000025475107364326817,-0.010397227183638966,-0.00029123635670860634,0.00012538724689118138,-0.0006981308127931728,0.022727902633042374,-0.000003999485321747975,-0.004098904929398085,-0.00016783565538569777,-0.000001967476816556106,0.008029918440666466,0.00022492575664855843,-0.00009683825776359589,-0.0012759870605491167,0.04154022303807685,-0.0000073099359402124409,-0.007491647061683875,-0.0003067564425556685,-0.0000035959950683335747,0.014676435762176619,0.0004111011143019223,-0.0001769931388332453,0.0014968336716667895,-0.048729964820476697,0.000008575132610144545,0.0087882941174546,0.00035984955209533584,0.000004218386430276986,-0.017216619124199169,-0.00048225409909881145,0.00020762694078228737,0.00044044276768656876,-0.014338774561972653,0.0000025232296758034054,0.0025859523724002396,0.00010588560083576476,0.000001241258684709934,-0.0050659839638854879,-0.00014190309461621794,0.00006109415239344187,0.001324797581621902,-0.043129267311845329,0.000007589563997018049,0.00777822614079838,0.0003184908419602616,0.0000037335531976338769,-0.015237855622292454,-0.0004268270258123761,0.00018376368345698207,-0.0015650365364096838,0.05095033389854271,-0.000008965856456509396,-0.0091887306164185,-0.00037624601002777923,-0.000004410596189172286,0.01800109021653512,0.0005042278906530306,-0.0002170874121941755,-0.0012533333098234093,0.04080272194038554,-0.000007180156045313509,-0.0073586410851284949,-0.00030131031837618794,-0.0000035321521200721367,0.014415871742698926,0.00040380246492341805,-0.00017385081978373758,-0.0007241401237320483,0.023574645214430799,-0.000004148488711116537,-0.0042516122599785348,-0.00017408848031128925,-0.0000020407764265276219,0.008329078199425001,0.00023330550989197728,-0.00010044602913079171,-0.0005989927092386261,0.019500425599336746,-0.0000034315381938938618,-0.003516839714821607,-0.00014400214413126482,-0.000001688085165583819,0.006889629441359399,0.00019298516249902656,-0.00008308673577046271,0.001607910229633212,-0.05234610258149864,0.000009211473328869714,0.009440453057650275,0.00038655315343001146,0.000004531423111450562,-0.018494224531088116,-0.0005180410582025872,0.00022303445489674044,-0.00042107290735006806,0.013708181710781538,-0.0000024122626898452969,-0.0024722269579648267,-0.0001012289474625965,-0.0000011866704177925632,0.00484319133554281,0.000135662458316363,-0.000058407344285651595,-0.0010675568484337342,0.03475470164303965,-0.0000061158709330699268,-0.006267899866717515,-0.0002566483244042799,-0.0000030085956831579248,0.012279066138622739,0.00034394847999703746,-0.0001480816250643636]}],"db":[{"row":1,"colmun":40,"elements":[-0.014632948924978382,-0.0004740944496794895,-0.005786346461076999,0.01686619882377719,0.00015132918700959044,0.006184550979021505,0.008018650259702396,0.01634083656369145,0.00104024219482097,-0.03563246637993472,0.06145953981000686,-0.026527041434911717,-0.010809706967828612,-0.03808285206555523,-0.0013784459416990669,0.0006306043845960453,0.01787784824415039,0.004446918488580749,-0.02140850521434484,0.0023439861222611377,-0.0423197803834424,-0.04575890697918575,-0.01774846783616238,-0.00835276037590856,-0.00912146785434005,0.002152883607010318,0.009699723700577409,-0.015203085435162104,-0.04502122599501749,-0.023378103576792498,0.005036458436049181,0.05225675484372173,0.024967445879102828,0.00009021795942114647,0.01184513639201552,0.0015732159103812914,0.0008646390537345256,0.0003439889464026185,0.03866627963486142,0.00932669940438939]},{"row":1,"colmun":9,"elements":[-0.0017979201463836585,0.058531944558503658,-0.00001030001126345749,-0.010556049977498105,-0.0004322329004390307,-0.0000050669102999139268,0.0206797234468564,0.0005792589897315388,-0.00024939087543961993]}],"learningRate":0.0025}