{"weights":[{"row":8,"colmun":40,"elements":[0.7003025916654176,-0.4963173266420506,0.829027145089587,0.6651789943953068,0.650507317647283,0.7824449050397577,-0.9781013017330268,0.6817477832462945,0.6899346629334867,0.7310175100551082,-0.37042196028098686,-0.3168089058061412,0.5309478873578465,-0.8165781776047308,-0.5162544955759667,0.8415499106531783,-0.6161912678536142,-0.9346701619723853,-0.9542252729618265,-0.2040057200177415,-0.8230802351728463,-0.09680269888299982,-0.6999698485675875,-0.11168207161082078,-0.5654333111934491,0.6602713391743706,0.8483656034428335,0.6597871981035315,-0.06912600270370546,0.4945843983249413,0.7919877370738547,-0.7141191771790393,-0.3024552950419938,0.40941770569948829,-0.5752954816193788,0.49903101720709316,-0.7423730789336299,0.15094135668073953,-0.24095945364826458,-0.32583278632061365,-0.2663960612218385,-0.5544873214843872,-0.27331296949843117,0.8318946661903844,0.3462942567531992,-0.3755508111379497,0.5818681053613927,-1.00731114394059,-0.28589883604967605,0.7120167666476375,-0.47988283620981467,-0.5752846708095014,0.8677474728938205,-0.1320869831290583,-0.21453437597264345,-0.7820322586351337,-0.6279662256017009,0.6802517040307959,0.8143647202422175,-0.38863229645263328,0.2980815933104273,-0.5283910833860405,0.481315219953997,-0.5622358606962976,0.8892559455221802,-0.7743079719383783,-1.0059740999126566,-0.8615244128541215,-0.012710577546882402,-0.6239279805607925,0.5677836268244447,-0.1185812012307105,0.6301799192811048,-0.07077909529522042,0.10223714915570612,-0.6626730384851282,-0.13701905636876766,-0.004363473422498255,-0.5273999420019899,0.8741034740692758,-0.24088710237891773,0.9065888601997293,-0.4689892510736371,0.5972781264815194,0.7370658903933003,0.038471017729336576,-0.5571386771979365,-0.0811112796357907,-0.2675698576489021,0.5049798808603657,0.31816956407381916,-0.410212662876949,-0.6505244044713774,0.8947984587367324,-0.19191723636951853,-0.5162809580871142,-0.9622273946440929,-0.5984571392710726,0.09957065518106397,-0.6106612469336953,0.0028360443050452789,0.24995946210748125,0.6940476471893837,-0.8593295205482056,-0.5123116907115157,0.6454149720806718,-0.46117685133233007,-0.8329709889100669,0.41791407495021157,0.5325802060855565,0.4066541090494774,0.8930635892455583,-0.03367921932818828,0.5323456059501122,0.09696787232937788,-0.14422635553175165,-0.09823091183968065,0.9174996433714767,-0.8395058459253382,0.2605969282574065,0.27363707862100719,0.024321823893871287,0.8855306468060676,0.39527237970201209,0.47230258512691755,0.8521345132437895,0.4615935076460932,-0.05462117211137013,0.15495022814351692,0.08526763655464638,0.6670512331073075,0.5740939815430085,-0.5788658253068353,0.09348194281911325,0.48191876944526265,0.1083432265999848,0.31017160617740666,0.15649122728004337,0.4293552714832026,-0.39154493620534167,0.4907850506997209,0.7896782858039156,-0.6706385486794774,0.5420364056964355,0.4382620882671631,-0.5992575986001192,-0.74322903878817,-0.7975412883621318,-0.6348712455505475,-0.9983099800619399,-0.31315348011010715,0.20816139099100909,0.07845120682558868,0.6117686972709588,0.7958518084757323,-0.4646803083831232,-0.03650411461127914,-0.8283902219586505,0.15941260918222714,0.7984509726556999,0.8233416282868966,-0.8421439341724224,0.6844682137024157,0.5795626936341071,-0.5264076489267373,0.552067681282525,0.1031547140597149,0.45185880007644127,0.4191300224767928,-0.7917102840314442,0.22557056893144729,-0.1067887639869585,0.18964797683319938,-0.7003937012259425,-0.48840120074342027,-0.25979659196788426,-0.8296760060579427,-0.10985940310669415,-0.5942190224950632,0.9841626476955728,-0.11270536307802803,-0.10175709122688431,-0.949465167853056,0.9859829314089168,-0.3589332155075174,0.08502114362487318,-0.042176714270119378,-0.13308742572290084,0.42107161221004876,-0.17761523501933675,-0.7246479971817796,0.7092867917169436,0.39665865777496486,-0.5966111732500281,0.6333883186924927,0.6408435827867913,0.22179496052437162,0.6247448112117534,-0.8792000961811295,-0.3185364237929667,0.6719712630249026,0.4346706808578836,0.7754798415892814,-0.4311930398391661,0.9032719065109549,-0.5721189249632908,0.26183778382713276,0.7138049876442142,0.4163002972695808,-0.7637805193200847,0.688485555513259,-0.09609465647914896,0.22851176220743556,0.44651986686756559,0.398892981684934,0.4147884602505352,-0.07503081829778848,-0.9306009277218139,-0.2948704784445517,-0.5073591819592178,0.3342620021860679,0.01548002027691906,0.15510406151259513,0.39424742899769268,0.0621154735290352,0.8497564418997865,0.23483642053959936,-0.5042883292507886,-0.25464488901544377,-0.8769921174109754,0.5528152719343695,0.3525515205014734,0.01050547762649128,-0.435403748091342,-0.9254831919087346,-0.009715493649388188,0.2968193440641392,-0.010465841530065506,0.6126869473241092,0.44174370899945566,-0.2878503405524517,0.7881366665205858,-0.1679219437936745,0.3767717907102492,0.07086667154204193,0.2076212303058483,-0.7333259922334043,0.11898375121147076,0.9616848115050566,0.13978752214454225,0.8260491979482858,0.9305310802300317,-0.055392308352760249,0.6099973912706409,-0.4937402908431115,-0.04542287892882132,0.47119550309608329,-0.23773890812057825,0.2189598528086555,-0.28261258461136448,0.415267218647659,0.5927709552721349,-0.6671778117315885,0.6718533621501261,-0.6150861562048698,-0.2782477540604867,-0.8109639266081464,0.3547621561031081,-0.3498941917881422,0.11047137428791625,0.38876838125711646,-0.3479672426506765,0.3390035739745511,-0.5663970600012819,0.7269805626108028,-0.6042973202456889,0.5795001938540771,0.8509318576723796,0.05518168960157807,0.011939577122514847,0.3168192543612898,0.9234686528168477,-0.8000287772055503,0.7148347655183842,-0.4860111472529761,0.49030824665564368,0.03104809658357308,0.5180694677509294,-0.12747838633013398,0.8138446771649853,0.4535753465063753,0.6509372240824152,0.18473465201751597,0.9240144072969236,-0.22009372248780216,-0.5907351253636803,-0.31826704936148356,0.5447840191512241,-0.7874477353178435,0.04601749348678168,-0.038490103729598639,-0.8433397639800361,0.06210066186385696,0.6015858925719185,-0.5711858559071023,-0.5108604138477276,0.8316992327006411,-0.36891802706529788,-0.9274400942223148,-0.4731992979456152,-0.9650618113339229,0.38344415904898118,-0.39208297016516177,-0.4043276402062295,-0.39189873141163447,-0.38905465193814856,0.6109748384372277,-0.9650007861706869,0.1175593985090964,-0.9927613763088362]},{"row":40,"colmun":9,"elements":[-0.6744771551934169,-0.39665002389493805,-0.6089873836275668,-0.7976449059299409,0.05760401632459562,0.31198326831106956,-0.8936625790424619,-0.09162474709947378,-0.05541047504717079,-0.30630791759917749,-0.2434658235747682,0.07347678885064774,0.7623381850746734,-0.8820817158388133,-0.18586524505357847,0.844625087668985,-0.17137982510110578,-0.29053725395214577,-0.049845839556366167,-0.049302221490216579,0.8517815218635976,1.0100639493432456,0.05539910547551521,-0.8414283482504829,0.14116542382506795,0.8213716840711687,0.3956620780153468,0.37381289774285267,0.7578755308420164,0.4821230402720982,0.35427350182887498,0.9082174182293255,0.8176937873379983,0.8714693733191515,-0.11422261963749417,-0.4371297103295241,-0.43600111168404245,-0.1676149246709288,0.8355893849497559,0.13610489861191744,-0.40931228979164938,0.20945919579285073,0.5647808596597322,-0.4959138222910661,0.9691627967304651,0.5057834798429062,0.3596805520089832,-0.09094759877073241,0.5755392999604856,0.5713302467003019,-0.9061101938164549,0.9752991640428423,0.013339305417319904,0.7148342998101356,0.1001240272070503,0.09803745169120191,0.9795409532667899,-0.391469230577699,-0.7019397919233048,-0.11229171629290592,0.360631675598216,-0.8031705602320888,-0.3553923653997913,0.48873140402430739,-0.07526059481895149,0.6998463449295846,-0.6522296300040174,-0.459257885589585,0.8166922025302752,0.9643689248708336,0.6642236882125366,0.8356118619063737,-0.6331153398999752,0.4699460888661025,0.7004709810412237,0.7466948045907179,-0.0704336951140101,-0.219473702446419,-0.6702388504372112,0.4450304566177244,0.8213042418592983,0.7912209433020268,-0.7901433592114322,-0.14154858258089343,0.523453271005609,-0.7719096828192523,0.16770214591535796,-0.584413106718682,0.5543371645987136,0.12706166687675239,0.1499478250538214,0.9089627011180204,-0.9580535766728572,-0.8836396124330982,-0.7138876644190093,-0.13889342826505664,0.3443538854535248,0.8518556652226905,0.08894026054623637,-0.5124828004572419,-0.906567234747263,-0.7948528265079992,-0.9514605802760289,0.42928664811713038,0.014793103678728725,-0.6177630442801279,0.18767282398953004,-0.8635522797669658,0.3004530864919382,-0.20051047833093403,0.6222883345742022,-0.017488150191401779,-1.0015711387363507,0.6664873565487933,-0.4042850779483326,0.3024238778786012,-0.13868958318310296,0.9915367082782658,-0.6099376398680205,0.1332461577236676,0.3901416598986476,0.5240357337492786,0.05461025725857554,0.1448652149339159,-0.8522225895863415,-0.38009161054220799,0.21278775207602683,0.38454610094230909,-0.34401014945513305,0.6685032487283428,0.01642103618237372,0.8207173302798141,-0.8113376524287732,0.6935913062810168,0.20641128354203393,0.5913517961422519,-0.005588117108458393,0.7637204768434516,-0.494298609118071,0.5393379027241402,0.5760350476925067,-0.07480687104653829,-0.6065409551465483,0.5873656480650006,-0.5301075760073524,0.8664517432941375,0.0016701012383336049,0.8281498815046496,-0.10919992058705427,0.1145667245711086,0.7618398643515004,-0.24257435934121295,0.27413599000810409,0.5747752063139257,0.8028835081235864,-0.599685950351041,0.19484297487163289,-0.7525885623678785,0.12509460733456058,-0.5168499224241481,0.8872465687424311,0.21676898169218185,0.08403628115424398,-0.8481677094231351,0.6487659582205475,0.5648693998664747,0.9905292188258774,-0.9425170373346092,0.6384884931265393,-0.5081569181182228,0.961772374126683,0.423696215696445,-0.053605228557290909,-0.2617197900605787,-0.6265253364148449,0.7887693217895732,-0.9297836765028581,0.69818376156903,0.495833202460143,-0.8568003892638123,-0.05424044881727851,-0.7421513865874782,-0.7802945747680983,0.23901748260847759,0.9481503785763638,0.618050401017181,-0.2943281067271782,0.4626728388792043,0.9081551368018841,0.31606181201486235,-0.7943605761677228,-0.6114513102172076,0.3647916876027658,0.8946093009793221,0.33065357898708816,0.11265200991664198,0.8266707592076303,-0.2947662147153655,-0.0899590532339599,-0.565396347841463,0.9890489759308039,-0.1551072175516394,-0.24382103218582652,0.09979546359136687,0.002508306469761297,-0.6383100731048692,-0.6059432133946796,-0.7539218174514675,-0.20731094955511648,-0.5472898839027922,0.08678086402221617,-0.4737306251355352,0.1632844999721518,-0.10045686171032185,-0.03134453161016848,-0.6735439050501535,-0.2880720503945863,-0.2067665220073798,-0.25814649135149705,0.06767068444877816,0.6679795383847185,-0.8621930782143925,0.0697207269331832,-0.9184799962972554,0.5584342157381266,0.41900002720386106,0.09211126930875632,0.26939324627184599,0.0695826325923657,0.922409089471887,0.5093566379326324,-0.02133889404545606,-0.8678266313295594,-0.9396502374880402,-0.826859731791721,0.0623068077732641,0.79011445982869,0.292729575677636,-0.1726452538093716,-1.0030481391246387,0.792532567186387,-0.43852175111817168,-0.5345856365858648,-0.14285935483812754,-0.5225986953896151,0.19231056917875556,-0.0829966762825525,-0.23276204262510917,-0.4677617368960726,0.44279716438642566,0.059583464105569038,0.15823217157813394,-0.8031532140853858,-0.5056153366870699,0.938392997984589,0.45510584420801539,-0.7179063815720403,0.8280376707655464,-0.9801199667120675,-0.38872331492398079,0.4318523736895502,-0.8332896578276536,-0.5858662286677037,0.3292191487365218,0.9729200348877007,-0.19111117755865127,0.19651562209050689,-0.2494136584419707,0.7248481838703613,-0.3676053314885346,0.8799077224666668,0.2882685369908886,-0.5127293822333766,-0.5189560313951096,0.5355668970158646,0.1288773252392671,-0.2179370060667844,0.39666646133493096,-0.29814975705489857,0.5253782608332552,0.922645338537577,-0.2529646812113519,-0.11163245916306765,0.24351392755006388,0.8994336186849571,0.11243530080300043,-0.7177851352947072,-0.7655867001555187,0.6968528072594604,0.7463780143605018,0.3031709533433167,0.418729409041347,0.475114715913858,0.3555533726176963,0.8122221316742427,0.1985994114540039,0.37771396312726587,0.16350932397106419,-0.29531829601931589,-0.23195497060671706,0.19326350312863523,-0.6476002619708221,-0.6047893905186119,0.9131670328404248,0.5220222929055521,-0.4364995370328765,0.8320408537341389,0.3410783005982991,0.9622270222124884,0.8734441002707997,-0.07850096455941273,-0.7316827835314234,0.6216681978531335,0.25909900491827378,-0.6890797815102473,-0.18195555801154823,0.13915713644012363,-0.7029497912300603,0.3629321432276077,0.26817300712083017,-0.39843075760444249,-0.1078633601719851,0.17353246451799918,0.8344645843281968,0.718469754277976,0.4505550425585919,-0.20843705565213289,0.8118863216373378,-0.6524304944885196,-0.7633549750065131,-0.7566880126307104,-0.45394419530575877,0.2932311163295113,0.6693868129430195,0.11889439918591328,-0.6486757900756903,-0.47176497210730308,-0.18100981098566999,0.6287698138817731,-0.5016401412277961,0.8850067758079153,-0.1970135938711895,-0.4751591689134546,0.9589374855073934,-0.1926376034554124,-0.034856461562211418,-0.9545405033676383,-0.8214429858704545,-0.8082080666373084,-0.017367073381713215,0.39177670539184319,0.14776578205271036,0.16793248630911826,-0.38958052605468038,0.2372074477558925,-0.1885615163314082,0.07277766459943434,0.35090337624334336,-0.042037164528808439,0.8330599750646216]}],"biases":[{"row":1,"colmun":40,"elements":[0.8369733820476738,-0.9164157401754791,0.8179655869421147,0.7304498906601717,-0.7983520449344518,0.5957905047199754,0.37034729990894096,-0.18335348702657473,-0.9549205926695265,0.8150187018130725,0.6030162641759205,0.927332216619691,-0.3047354336438142,0.43155485194595097,-0.4086888896823452,-0.2725545503781661,-0.807548443281828,0.7329621205355947,-0.8971278249876777,0.7594536979828691,-0.3510113907950369,-0.22551594883873458,-0.36976584030009276,-0.9882043183249616,0.2756108370506718,0.3782122571670773,-0.6876792713514788,-0.143793248410256,0.149219451285032,0.9032676806986526,0.23646136722869794,-0.902210958599491,-0.9749953812562843,0.8837523983313526,-0.1977316023337483,0.08413524684222947,0.5174039356730819,-0.944032716138687,1.0197114705019497,0.9244247931360463]},{"row":1,"colmun":9,"elements":[0.6848990258113797,0.13276808484172343,-0.9747353528139733,0.1403286509538211,0.9710352456437538,-0.0472739318468394,0.7640638566477819,-0.43142688071576359,-0.5348201902032902]}],"inputSize":8,"hiddenSize":40,"hiddenLayers":1,"outputSize":9,"v":[{"row":1,"colmun":40,"elements":[0.9544524831495977,-1.80501676854567,0.8438637564300185,1.3016485382699428,-1.699769405897284,1.486372252164181,0.9598482124729739,-0.5939353664852677,-1.5811009326619106,0.8648950864603935,0.26875016055450798,0.8637999193393875,-0.7195091490577912,-0.2178896352986937,-0.4284376938073162,-0.872293448530465,-1.2368971746949467,1.7252248328932925,-0.8326603228130444,1.6346000374214996,-0.484634710046446,-0.28422594768190836,-0.7964974907834352,-0.7695422413929511,0.5441503922597553,-0.45477920798683138,-0.8870293885020375,-0.5719867464155506,0.3735561896882893,0.8213640650758289,-1.1225964793648325,-0.29308429791335469,-0.8976846406705696,1.3239761461162512,0.8681957590690359,0.3875804504239362,0.33324927898789477,-1.4816933498839744,0.18967472899672745,0.7392551472060156]},{"row":1,"colmun":9,"elements":[1.5832280990591637,0.45525768407344388,-4.0161579834218179,-0.028060528652910728,0.37555028684707228,-4.6340150642305339,-0.2678675491439203,1.9906629931051639,-2.533381429315143]}],"y":[{"row":1,"colmun":40,"elements":[0.74179215306313,-0.947323080877076,0.6878501437595467,0.8621469453825779,-0.9353802378454402,0.9026550292262329,0.7442091545911013,-0.5327200604892,-0.9187736523570755,0.6987711582062149,0.2624614747273533,0.6982103115507132,-0.6166051664858016,-0.21450571432011,-0.40401484029733167,-0.702537499865443,-0.8445683302283927,0.9384890956165733,-0.6819018882274706,0.9267138891157584,-0.44994770754042609,-0.27681176280160388,-0.6620741176885768,-0.646663193090239,0.4961232264530996,-0.4258195850069519,-0.7099233875664538,-0.5168168598217356,0.35709835163929345,0.675811625590685,-0.8084701645498827,-0.28497112319041176,-0.7151686107000227,0.86776933784941,0.7004562819448081,0.36927248274072618,0.32143736988430218,-0.901784762330833,0.18743238107109035,0.6286949280545262]},{"row":1,"colmun":9,"elements":[0.9191045346540273,0.426211222876021,-0.9993506206703173,-0.028053166081342515,0.3588369227369201,-0.9998112292680501,-0.26163947270454465,0.9633619406720935,-0.9874733723546679]}],"lastInputs":[-0.19199997186660767,-0.01600036621093759,0.042647380381822589,0.44411274790763857,0.534000039100647,-0.7120000362396239,-0.48779264092445376,0.10981042683124542],"dw":[{"row":8,"colmun":40,"elements":[0.0037681141826260034,-0.006991868542445577,-0.009513370944151742,0.0018428288454406539,-0.0026091722644701967,-0.002073577256246436,0.003043988592019675,0.0023614201703118715,0.00033144176781232834,-0.0076976737605786989,0.016180131021461376,-0.00041623687311435236,-0.0025264945112396396,-0.012296437054841523,0.0007082230269376639,0.004176439867241775,0.0007545737349319513,0.003059681948045392,-0.015975582387462558,0.002443534925429858,-0.013909241538479778,-0.016924794191476745,-0.00627881266781529,-0.0027675772937774615,-0.0029182012426374286,0.001606812934303552,-0.00187089546042633,-0.006827036134313299,-0.011458306362150298,-0.017401439568608558,0.012136164783526244,0.011735210527263392,0.0029613521648280199,-0.005999407474573041,-0.0070375381529201599,-0.0014862688950052594,-0.00012499611008356896,0.0028177820388709717,0.012022500660828002,-0.0005434978431077258,-0.005603867640388464,0.010398173720827959,0.014148104065092538,-0.002740619958215395,0.0038803112943021059,0.0030837845996553308,-0.004526961854601466,-0.003511859098852774,-0.0004929138840538692,0.011447833797624546,-0.024062782668975284,0.0006190195495499691,0.003757354514477069,0.018287026975302074,-0.0010532557959982226,-0.006211121821089309,-0.0011221876860762633,-0.00455030071476847,0.023758581836570357,-0.0036339785986083314,0.020685559083964263,0.025170231551676086,0.009337730605793469,0.00411588823671608,0.004339893304496606,-0.0023896215906138377,0.0027823600934317497,0.010153038103048976,0.01704057497317205,0.025879089477788148,-0.018048673106139506,-0.017452381573280077,-0.004404066534074339,0.008922204524289338,0.010466092695647692,0.0022103507913954734,0.0001858918340907583,-0.004190551777359482,-0.01787963398784561,0.0008082796401593557,-0.000022228462157158474,0.00004124569420432663,0.00005612027549327499,-0.000010871021754561133,0.000015391754105992737,0.000012232228466679993,-0.000017956776770861255,-0.000013930241056641044,-0.000001955206354172545,0.000045409305979663913,-0.00009544812409526641,0.0000024554207048971147,0.000014904030215512443,0.00007253784585448559,-0.000004177874658283571,-0.000024637214012430578,-0.000004451301871120975,-0.000018049353363190887,0.00009424147234593633,-0.000014414643767976201,0.0000820519321305189,0.00009984096260606245,0.00003703931012014983,0.00001632620036446738,0.000017214745293024254,-0.000009478741559500214,0.000011036589372433545,0.00004027333222991103,0.00006759363358216629,0.00010265273879289109,-0.00007159238455870004,-0.00006922711745687373,-0.000017469296666595314,0.0000353910724438248,0.000041515103558439925,0.000008767640864046825,7.373638823355156e-7,-0.00001662236290687823,-0.00007092186914234827,0.0000032061452101745995,-0.005790898484245849,0.010745216037025014,0.014620301485175238,-0.002832089010728899,0.00400981790337547,0.003186706879937447,-0.0046780506293744579,-0.003629068500094296,-0.0005093650398626144,0.011829908848804803,-0.024865885603758968,0.0006396795215810935,0.0038827574023770565,0.018897362248423624,-0.0010884085392399552,-0.00641841996409449,-0.0011596410528154286,-0.004702168431335204,0.024551531972958744,-0.003755263776537744,0.02137594612009837,0.026010295941003706,0.0096493802997169,0.004253257300287027,0.004484738607612071,-0.002469375962285855,0.002875222236077499,0.01049189894095374,0.01760930951894845,0.02674281222320188,-0.01865105324396042,-0.018034860293770589,-0.004551053638897339,0.009219985904637988,0.010815401828977063,0.002284121943796724,0.00019209603248145787,-0.004330412760067003,-0.018476372391962548,0.0008352562272011704,-0.004202895979199247,0.007798621474802286,0.010611066053720699,-0.0020554626450988444,0.0029102301809064898,0.002312835835235661,-0.0033952175528853048,-0.002633891346702015,-0.00036968499513630214,0.00858586564247298,-0.01804706660073272,0.00046426413734299834,0.002818012700283391,0.013715254727300688,-0.0007899409540233837,-0.004658336099880361,-0.0008416398131398204,-0.0034127216782233176,0.017818916234337718,-0.00272548086798287,0.015514151775264832,0.01887765232383685,0.007003290037595282,0.0030869126879892428,0.0032549162989078197,-0.00179221416698243,0.002086767711122832,0.007614769969299849,0.012780416782474786,0.01940929516743431,-0.013536489527510836,-0.01308927138341639,-0.0033030461666835317,0.006691645828760066,0.007849560648333767,0.0016577612195586985,0.00013941871796455604,-0.0031429102801702709,-0.013409710332105795,0.0006062090448408378,0.004734296848617578,-0.008784654498813502,-0.011952695671562642,0.0023153488383494647,-0.0032781904768536247,-0.002605263480304399,0.0038244981176190006,0.002966912234803447,0.0004164267962178915,-0.009671435328161085,0.020328880599828428,-0.0005229642259116489,-0.003174313309761669,-0.015449368139208178,0.0008898185888339292,0.005247321377120284,0.0009480540881190442,0.0038442154091807465,-0.02007188362298662,0.003070082045360823,-0.017475712038108744,-0.021264482953743417,-0.007888763871157997,-0.0034772121610988527,-0.0036664576170094057,0.002018816055592523,-0.0023506120178705925,-0.008577557390671505,-0.014396332242516625,-0.021863345036338447,0.015248000433179718,0.014744237441968516,0.0037206728729811575,-0.007537716354616894,-0.008842034260271985,-0.001867363302912978,-0.00015704637953558302,0.0035402899116558207,0.015105191677443937,-0.0006828561983921025,0.0000740945636039819,-0.00013748507166199455,-0.00018706680168022047,0.00003623658744985208,-0.000051305632189946996,-0.0000407739241579058,0.000059855671938268056,0.000046433942424473734,0.000006517327224163957,-0.0001513637194662767,0.0003181590814360471,-0.000008184701411516377,-0.000049679892695740195,-0.00024179180706975525,0.000013926190548362604,0.00008212370283479422,0.000014837610774800362,0.000060164259287231316,-0.0003141369257800922,0.000048048611367885345,-0.0002735052951972414,-0.00033280181515909856,-0.00012346385009190746,-0.0000544204400090185,-0.00005738224403569745,0.000031595672899032215,-0.00003678847719852084,-0.00013424387865232753,-0.00022531116850407857,-0.0003421743632032305,0.00023864028261338948,0.00023075609195379244,0.000058230745061373135,-0.00011796974750939413,-0.00013838309908209778,-0.00002922534717269136,-0.0000024578693160468274,0.00005540764435003994,0.00023640524058425266,-0.000010687105950889202,-0.003912838206988226,0.007260409065431844,0.009878756190341065,-0.0019136073818110927,0.0027093841720895316,0.0021532182731597889,-0.0031609007283824785,-0.0024521165276126719,-0.0003441716332449361,0.00799332253098885,-0.016801570171827579,0.0004322235105795356,0.0026235309691266057,0.012768713044804552,-0.0007354241364679976,-0.004336846679721334,-0.0007835550614800975,-0.003177196827724803,0.016589165326457407,-0.002537385109086289,0.014443461393216804,0.01757483402789855,0.0065199664634440269,0.002873873150080269,0.0030302821954070189,-0.0016685266783620249,0.0019427519666443069,0.007089245848758728,0.011898391807743136,0.018069786184981518,-0.012602285108619729,-0.012185931182723969,-0.003075090438690256,0.006229830001977431,0.0073078327336389158,0.0015433528381514973,0.00012979690411585348,-0.0029260061363044528,-0.012484255425732697,0.0005643722623197045]},{"row":40,"colmun":9,"elements":[0.00007158280271431743,-0.07382447118852029,-0.0000023510560697646067,0.054495339965709859,-0.0036116355020595397,-0.0000086377773567804,0.015503965921167214,0.0015178747760297078,-0.0006471619821640793,-0.00008444140971955748,0.08708575499395283,0.0000027733824512704916,-0.0642844811234346,0.00426040308039114,0.000010189404007567923,-0.018288984071386267,-0.001790534611745095,0.000763413390069845,0.00006370520173261546,-0.06570017729869755,-0.0000020923251888695275,0.04849819362142185,-0.0032141793771559067,-0.000007687200391289687,0.013797773197081094,0.0013508344902019403,-0.0005759425876628319,0.00009073733505018346,-0.09357884188845224,-0.000002980164987048353,0.06907751210687446,-0.004578057413278231,-0.000010949122811508858,0.019652605053897967,0.0019240363173050573,-0.0008203332557642067,-0.00008476725590897439,0.08742180529808105,0.000002784084500259767,-0.06453254487891051,0.0042768433093467689,0.000010228723323521104,-0.018359558399642509,-0.001797444004686235,0.0007663592829076156,0.00007636426149810694,-0.07875566489480365,-0.0000025080976673229148,0.05813542127119529,-0.003852879008046413,-0.000009214748009631564,0.01653957183804075,0.001619263034177473,-0.0006903899395339875,0.00006823546956715056,-0.07037231382514321,-0.0000022411167042360077,0.0519470455302244,-0.0034427493063097535,-0.000008233860251444493,0.014778974204265796,0.001446896379565825,-0.0006168995913056287,-0.000051240788566946615,0.05284543180482369,0.000001682945657501466,-0.03900914866676914,0.002585300437040531,0.00000618314045335105,-0.01109813264627564,-0.001086533322536187,0.0004632549863824072,-0.00008758504081948509,0.09032783122963957,0.0000028766314538009179,-0.06667769903362224,0.0044190117022299469,0.00001056874072677121,-0.018969856398172805,-0.0018571936160141226,0.00079183416233188,0.00008380659368881887,-0.08643105922912912,-0.0000027525326378284509,0.06380120142357641,-0.004228374100986098,-0.000010112801816425461,0.018151490626961334,0.00177707367973433,-0.0007576741791814151,0.0000643601944053107,-0.06637568155196157,-0.0000021138376812615506,0.04899683361622658,-0.0032472263479449085,-0.000007766237264149266,0.013939636657172324,0.0013647232570379658,-0.0005818642104589676,0.00008600600734410097,-0.08869934915169646,-0.000002824769887951376,0.06547559513721972,-0.004339343218426685,-0.000010378201392153301,0.018627856919772376,0.0018237110616587498,-0.0007775585207659676,-0.0000322553337126564,0.033265433373005307,0.0000010593898985776373,-0.02455569368237461,0.0016274091534572936,0.00000389219729619294,-0.006986113643142916,-0.0006839569781900885,0.0002916122994534751,0.00004918955947624037,-0.05072996695620287,-0.0000016155753615460372,0.03744756652124031,-0.0024818078169426837,-0.0000059356220617621749,0.010653861330918837,0.00104303811448926,-0.00044471034390016243,-0.00004654956391095159,0.04800729797486525,0.0000015288676976579008,-0.03543776178626026,0.002348609599670735,0.000005617058202131528,-0.010082070345874281,-0.0009870584304669042,0.00042084281289896374,-0.00007077898643061149,0.07299548280266258,0.0000023246556344488139,-0.0538834019025224,0.0035710797915077749,0.00000854078218711491,-0.015329869073923154,-0.001500830284680738,0.0006398948828087357,-0.00008087693481114493,0.08340965591428276,0.000002656311310561009,-0.06157087862999196,0.004080561224005594,0.00000975928476823644,-0.017516962085499,-0.0017149518411896743,0.0007311878755659123,0.00009399027038359251,-0.09693364530063191,-0.0000030870039633131566,0.07155394234093597,-0.004742180865986994,-0.00001134164909017567,0.02035715135050235,0.001993013058972226,-0.0008497422199063653,-0.000060400411002061524,0.062291894599212378,0.0000019837830808246769,-0.04598228634274467,0.00304743961457661,0.00000728841680837799,-0.013081995651074928,-0.001280758182768377,0.0005460648120138631,0.00007678017261207548,-0.0791846005732891,-0.0000025217577967380868,0.058452050638750068,-0.003873863368646329,-0.000009264935309743412,0.016629653135401203,0.0016280822053334663,-0.0006941500865345759,-0.00001379793407102827,0.014230026593859415,4.531775149593932e-7,-0.01050424235309723,0.0006961603437753547,0.000001664973680406602,-0.002988464987512247,-0.0002925777602103549,0.00012474362590709137,-0.000031763530853294876,0.0327582293429219,0.000001043237190751373,-0.02418128861578375,0.0016025957541556033,0.000003832852265801398,-0.006879595115195579,-0.0006735285634494228,0.00028716603441173615,-0.0000493805423185706,0.050926930567663838,0.000001621847976666646,-0.03759296003093481,0.0024914436566624124,0.000005958667642662343,-0.010695225895684939,-0.001047087802794766,0.0004464369713877034,-0.000070804952479866,0.07302226199797742,0.000002325508459923548,-0.05390316962085747,0.003572389881386626,0.000008543915466950162,-0.015335493004916132,-0.0015013808807694922,0.0006401296352809403,0.00005083409745327341,-0.052426004857770259,-0.0000016695883485520436,0.03869953840200898,-0.002564781261919989,-0.000006134065715289871,0.011010048289031417,0.0010779096565204316,-0.0004595781950683864,-0.000029663832081663757,0.03059277694942615,9.742749630299756e-7,-0.02258280694076078,0.001496657646960801,0.0000035794851186943285,-0.006424825855461435,-0.0006290055819249516,0.00026818318982517616,-0.00008846111175616909,0.09123133697643805,0.0000029054050113473496,-0.06734464391030173,0.004463212945786698,0.000010674454744843723,-0.01915960272594766,-0.0018757702283620963,0.0007997544976973931,-0.00005993448304399007,0.06181137576211335,0.0000019684802048215019,-0.04562757960436833,0.0030239317063784807,0.000007232194059148927,-0.012981081312578174,-0.001270878431372973,0.0005418524753986767,-0.0000022220753972234329,0.0022916613337386189,7.298154936691019e-8,-0.0016916458927209724,0.00011211249194717604,2.6813413031334679e-7,-0.00048127455096034664,-0.00004711791195634527,0.000020089220651561953,0.00005060895445690237,-0.052193811341749028,-0.000001662193781866863,0.03852813907615268,-0.002553421907327813,-0.000006106898085602992,0.01096128504966711,0.0010731356205476405,-0.00045754273428343583,-0.00002367378833920816,0.024415150551536568,7.775387615283405e-7,-0.018022640842524159,0.001194436249937809,0.000002856676535588119,-0.005127455110982922,-0.0005019899306899181,0.00021402872206721348,-0.00006191139400292151,0.06385019515163013,0.0000020334096059226176,-0.04713258402866923,0.0031236746828051259,0.000007470744605787605,-0.013409256222951232,-0.0013127977634644305,0.0005597252264817811,-0.00006943250605688603,0.07160683639896259,0.000002280432011798831,-0.05285833857807886,0.0035031445314149119,0.000008378304647224052,-0.015038237773720032,-0.0014722788935895907,0.0006277216949121558,0.00007584692234174583,-0.07822212487967045,-0.0000024911062487479277,0.05774157565277229,-0.0038267772015667738,-0.000009152321556892265,0.01642752245822087,0.0016082931360131483,-0.000685712807301293,0.0000347400470510422,-0.03582795734951769,-0.0000011409974936190175,0.026447283463136099,-0.001752772768251328,-0.0000041920235086151369,0.0075242723832518458,0.0007366439862282082,-0.0003140759631856255,-0.000022065633039147177,0.02275663467741206,7.247207223350207e-7,-0.016798366764513615,0.0011132984549047604,0.0000026626231189806296,-0.004779148198949942,-0.00046788986372770587,0.00019948979746309237,0.0000633426018839784,-0.06532622236729453,-0.000002080416007575856,0.04822214963775929,-0.003195884780734396,-0.00000764344607260746,0.013719238472494722,0.0013431457557130866,-0.0005726644143044503,-0.00009072513696985893,0.09356626181620966,0.0000029797643549174638,-0.06906822581870177,0.004577441971883279,0.000010947650889510444,-0.01964996309780678,-0.001923777663581837,0.0008202229760106614,0.00006664818104737347,-0.06873531818997908,-0.000002188984010804276,0.050738657143224018,-0.0033626643228687254,-0.000008042324794394474,0.014435186783481252,0.0014132387814403845,-0.0006025493179749677,0.00008533678371628429,-0.0880091682904133,-0.0000028027899959584966,0.06496612124505454,-0.004305578239669343,-0.000010297447293685719,0.01848291120759178,0.0018095205350843708,-0.0007715082395103238]}],"db":[{"row":1,"colmun":40,"elements":[-0.024154575288138717,0.04481966493795945,0.06098313999454301,-0.011813004047379752,0.01672546129107681,0.013292160355096086,-0.019512745118284628,-0.015137307025812269,-0.0021246264699647189,0.049344056836369647,-0.10371877655190155,0.002668184774149653,0.01619547575500425,0.07882330529857723,-0.0045398906709980669,-0.026772047321393014,-0.0048370105595271109,-0.019613343542662144,0.10240756751190183,-0.015663683600043947,0.08916179437746683,0.10849225785652196,0.040248794477658337,0.01774087802766722,0.018706416049235169,-0.010300081715820562,0.011992918225108373,0.04376304705984047,0.07345067327716606,0.11154767658580529,-0.07779591906332574,-0.07522569977043496,-0.01898302449268708,0.03845773575465448,0.04511241881725392,0.00952736360494373,0.0008012570228521944,-0.018062703279347334,-0.07706730297681384,0.003483960128070661]},{"row":1,"colmun":9,"elements":[0.00010825769258555186,-0.11164786239389939,-0.000003555601284120515,0.08241560175979218,-0.0054620287427614888,-0.000013063275119929619,0.023447301766725705,0.002295546062125913,-0.000978730369049414]}],"learningRate":0.0025}