{"weights":[{"row":8,"colmun":40,"elements":[0.6846443567597937,0.8818309259478221,-0.9330290147877991,0.8719117370683135,0.35487994375926498,0.3724602512167482,0.8075639359086808,0.3501686013348059,0.9661203854488008,-0.3316163168404739,0.4244956327026007,-0.14273694123125847,1.0039496747192889,0.9634374519733309,-0.8358053334708644,0.5539626386229238,-0.6471543908017652,-0.06299145912659866,0.6296949923778366,0.9309937935255114,-0.194352375703996,0.8979486414358926,-0.09174079471905053,-0.1696166181730142,0.5684477238986407,-0.40397429834085299,0.9506199989290899,0.3752186896063155,-0.9648241919174073,0.8593586246469188,0.500447707182059,0.7489675741080022,-0.7459261946110473,0.49141223135721909,-0.09942928099534354,0.17826056162825602,0.942997640979017,-0.9383776099135058,0.44262071959387908,-0.09982219977352917,0.3172284335950911,-0.6696584495126073,0.2401603671025591,0.7750166321506196,0.9889908261585116,-0.6233860398884557,0.8990995845766139,-0.724538292435733,0.7763654421724465,0.3764323831817661,-0.6360309375909532,-0.3329356456708583,-0.22896531205343094,0.4692470932295854,-0.6280599989988704,0.592367205175849,0.0005396157703467993,-0.7884101857817893,0.23758463084193286,0.10074059437612336,0.2211650293895278,-0.924730086497885,0.92783715423383,-0.26210276281500358,0.5693705245061852,0.7491056604485272,0.6588128649992516,0.4070563459667515,-0.11325954025562557,-0.6639514323229586,-0.6403894456171225,0.30907570935375186,-0.27042702730989617,0.5307613365071798,0.7949965442354333,0.5344062424725452,0.3697171274703186,0.9730775128569585,-0.6108777548592006,0.30662061441097079,0.731119348277525,0.7528412743163947,0.8892581551479222,-0.4197899138809998,0.1804163332177,-0.5371981627279706,-0.7910148497659542,-0.6140775535713587,-0.5740129360860744,-0.24338217763802534,-0.2611513466269187,-0.10485966933659867,0.6335661601483088,0.18832728914122613,0.4663567136881554,0.4034651071559655,0.6051739171145932,0.9000493564344217,-0.8572774412689777,-0.18222037489342386,0.956117573887221,0.7733508424226465,-0.8184462988015655,0.5796974425565371,-0.03323681363255853,-1.0132096015775563,0.3420581827569394,0.6806051339807855,0.8589134951335667,0.2790434303851526,-0.513216999450172,-0.43490551763360488,-0.9889889914203058,-0.19442783114754753,0.17292430868803958,0.6754919983333214,-0.9627913819958418,-0.2643208815697261,-0.10775859617657957,-0.2853799282609555,-1.0379577515469525,0.9373746316053495,0.5067475587663579,0.7264640728580547,-0.16699308430904145,-0.17026355578631595,0.13437068933086974,-0.7572638377695206,0.030559882273149015,-1.0012054613950348,-0.5152506440713134,0.6878253872710285,-0.8093715539395516,-0.204770226019508,-0.5219606474963353,0.26409752626836349,0.46722589426278096,0.2278985004329858,-0.5168236703017674,0.4478901129134304,0.3215790418287128,-0.7550466696463724,0.781415747076166,0.4194251469565938,-0.7771605900996997,-0.5152772446528281,-0.9931862247259058,0.06432360341478226,-0.6316182726945583,-0.9701284871318131,0.8193968935122091,-0.2764193661387509,0.9893158472335542,-0.6823213501201715,-0.925827374610164,-0.2877440709285269,0.13767576003672575,0.52094240812805,0.9228122525088872,0.5351379614028845,0.39223697660421838,0.25778967194079668,0.35768192609013046,0.9712965444443532,0.748096470067427,0.7629961347647535,-0.6488188089286181,0.718481834190762,0.8172579892982698,-0.9108603921012248,-0.13825886221810225,-0.8711317249511276,-0.8875636495076311,-0.9015142840575773,0.8447562706642039,-0.4720409718236374,0.23857220090220858,0.7752060488858411,0.16288251588147033,0.6062271746689152,-0.16790964490148453,0.4615708828058393,-0.3276499117412965,-0.191367689730766,-0.46459476810872959,-0.0042967086160280239,-0.35232802612986499,-0.41440839699590606,-0.018136279724475427,-0.5434418672467816,-0.8460901854534916,0.32227791261019358,0.3470170652912593,0.9148338335611246,-0.2907288883805422,0.25217011763436639,0.546432692989189,-0.2270618445843897,-0.165602684949154,0.07904533106945036,0.8270893948865375,-0.7228291863306613,-0.9334747875462376,-0.19522684370572508,0.7052366417427882,0.2711249023690186,-0.28651439734413788,0.1754092666468867,0.6579084039773369,0.9698016718921456,0.7668547129735633,0.3717568874925423,-0.8503570396074587,-0.697923176268088,-0.8605034739886615,-0.3106401724534867,0.24033174903115174,-0.43173704262268555,0.24702859330452374,-0.9015604684073221,-0.8959899983669263,0.29410844553962658,0.1515113309553805,-0.9901211722439087,0.23959323657137228,-0.2184639536472538,0.6846572875945914,0.23977556828064046,-0.6251871672963414,-0.09804966668506611,-0.6648983071587967,0.3642809696531555,-0.11747727519423339,-0.5383759961289606,-0.5360013109921247,-0.4821841113860565,-0.06474120825977625,0.08509166812068775,0.6233260751904458,-0.6167332755666244,-0.16204826465467324,-0.40655341739311709,-0.06486225465211648,1.0270326105377477,0.9672276733401647,-0.7164040625218734,0.6992613842206197,-0.6767086237782011,0.5022468698633611,0.6417475729373919,-0.1441677219025274,-0.4355121847878117,-0.6261061197961275,0.13875167077662763,-0.8865665516003668,0.48504247297793109,-0.3758448823374649,-0.22286864108501837,-0.3000838273885728,0.6185187938104204,0.6290382828048944,0.048360767392425559,-0.9411238012051089,0.6969953398531035,-0.2047518730020452,-0.6961608164529121,0.3202690174555362,-0.9024811797033442,-0.7838223917652716,0.38813210372415166,0.019754129350723357,-0.6442882667212859,-0.48342481415621987,-0.5706081913433835,0.06013239204313971,-0.8278650769341058,-0.3938871067633143,-0.7634321411350049,-0.34612852551815789,0.5277685763457772,0.5862443668868456,-0.7599574043308637,0.7951805099983137,0.789269503030464,0.3949668495718254,0.5304369923979642,0.8000172618675139,0.43822738789298368,-0.44939917141200888,-0.11268256845664639,0.1518926783701029,-0.7926966613243895,0.40281711886755597,-0.90253687080859,0.4916015697599574,-0.7104168850213535,0.8830479669939243,-0.30994552215843199,0.962894629399487,-0.21962199252933213,0.9297384042965424,-0.9547247924317791,0.7069706678922028,0.539991828189017,-0.05979907541101919,-0.05086224144455835,0.6547651113001075,-0.6479487678162383,0.2081865727800446,0.4086518985920356,0.29370449924034189,0.15247673492672307,0.48561156457224727,0.5092974228727082,0.8451396240813129,-0.6757818307094421,-0.9960923211697896,0.5634251787161221,-0.1110373437247584,-0.4966089268981165]},{"row":40,"colmun":9,"elements":[0.877373730869425,-0.8844139910450662,0.009105184144459131,0.4666051435079404,0.9296499910657711,-0.8445433127021261,0.4528670432411866,0.26593946122386838,-0.5843913366909544,0.5459040074427609,-0.6053732474977095,-0.3001037378904622,-0.456442936328477,0.2612678436399524,0.6706150797121585,-0.4223753294494639,0.8369357260394633,0.4641291382669446,-0.8053168196251281,-0.05684729894246804,0.2591869022082995,-0.3409867797248468,-0.3322185378157161,0.8394879502882513,-0.7211533038595562,0.5127916082066768,0.5462683185800292,0.7793298516805785,0.41672714318382778,-0.3344728389882314,0.41286843440456619,0.7821637195412998,0.005665205219838866,0.7961388109545146,0.597896695405237,0.871697102268126,-0.6477049753869888,-0.007551088076249713,-0.04072297092868015,0.27640373374382207,0.9053722946256851,-0.021242345391101117,-0.7370235288707883,1.0475871173855823,-0.2865923601609361,-0.7362280599824672,0.5522421745135223,0.6974806590790519,-0.6182882095274264,-0.5272227097073511,0.9773653058531293,0.019145413425762114,-0.059027563923282,-0.7935915088939273,-0.28443043784071317,0.9261221880631684,0.2234551399957385,0.32335759223504048,0.4405545687792378,-0.6703174701174336,-0.6514977067649729,-0.946359654958354,-0.7707294199405552,-0.8844559377938811,0.21134329233806255,-0.7602831111328735,-0.591021516115931,0.9045292182668484,0.41264679291901709,-0.5348917746921452,-0.28957084737942348,0.48343952154494149,-0.7052481477151896,-0.20894533279734757,0.7485080613722425,0.058803000796683848,-0.47926159641573887,-0.6528663980728667,-0.37153212580976216,-0.9681078753135183,0.3133132622385824,-0.5814555316642008,-0.9644765982855681,-0.4605673714405563,0.26259308973554287,-0.8988901869326936,0.6734291581615081,-0.8844951796182689,-0.8069172694611728,-0.9188784338542698,-0.056406227955300296,-0.644267241391248,-0.5889490138908714,-0.5797322005433563,-0.033002825515632498,0.9050161769242487,-0.6961105142033536,0.12065717479369638,-0.5736602957851436,-0.03280339311861763,0.9934360663903415,-0.30070254268557597,-0.0035558330286115959,-0.521899072758059,-0.2501474605974155,0.10382770567165616,0.8501886940782445,0.6056785110905038,-0.9133264168608376,0.9337242169568079,-0.029859511438515054,0.7778848773272875,-0.783725787056958,0.1348186858421091,-0.3649208679627141,0.7179697628487713,0.6733071258235734,-0.4487634240599735,-0.669110909316191,-0.1969262980180334,0.3205963419968898,-0.08557557481570488,0.1285007091028588,0.5413754363371485,-0.33765685021257088,0.12904281971591534,0.21263614931703299,0.9791884461890652,0.7064972760438976,-0.5145397950712174,0.003436692075244984,-0.06866575777440476,-0.29952659516510907,0.581656021960647,-0.10810380536539183,0.396182608144985,0.2152585933611017,-0.6890462030621544,0.7554264737421332,0.4859634370495458,0.9176509153279678,-0.9219031763165598,-0.3745753757138146,0.04277018312530662,-0.8493892869413077,-0.23708642609529805,0.024421528402444955,0.15380404607201965,0.9246395874365629,-0.4358902580550757,-0.49909423000466565,0.5829544289226988,-0.1717631994143412,-0.7992082992835362,0.12126512718355244,-0.4077151138462152,0.993120500830544,0.6146179969107916,-0.10197871036102806,0.5404440850463486,-0.3547267215364488,-0.10381257603035246,0.44285882835857878,-0.6853784294125184,0.833990883848759,-0.6578769154424727,-0.8373611773363302,-0.8690326469410158,-0.1467214349028952,0.050622288331949708,0.1368767466549758,-0.7982989260273097,-0.39482188813618399,0.4927520688642164,-0.3651937186629873,0.7836903825089444,-0.3313885884350268,0.6440856620159478,0.3578087695820222,-0.22573418170360033,-0.8162980839080988,-0.19839583832503233,-0.7638280163459554,-0.9133001439262738,0.28020093612040727,0.3522965065535843,-0.30120106004236477,0.14622173699480416,0.4108179410776631,0.7505982179921993,0.46884322353012228,-0.9419666479948878,0.16560218429437438,-0.05225792011001516,0.07904100110970677,0.8704126678560816,-0.7777755333214897,-0.4158592198103035,0.09113361620265778,0.45815854940683656,-0.9034131046426769,0.9686831840432757,0.6600843200164832,0.06044129181549583,0.09600922639501183,0.7702277361463378,-0.4102116448022836,0.7024390590474946,-0.631498555557951,0.5621740360837866,-0.3219025382744829,0.9435956456284744,-0.2205826864470593,-0.2002195032750888,0.16825112587275205,-0.837466998712297,0.6020331051892163,-0.6115307062634571,0.467880206661775,0.05442295171065774,-0.9539953000161368,0.8276854058124589,-0.5480941663442246,0.7836189697350653,0.6243167003713721,0.22382063049084437,-0.182973240630961,-0.6964520055173079,-0.544639187821075,-0.2653762190997116,0.20265432505770837,-0.09838888967660507,0.5733185225766602,0.6256304936657101,0.8268823477280383,0.686292683338822,0.7242094553336234,-0.343771816875079,-0.09500633179695471,0.36178514636124778,-0.8127234466820456,0.6608892333646003,0.24705768078612889,0.8751880785532404,0.7845909672341691,0.6874817790879847,0.19369885309538074,0.2643628631845155,-0.4415912822951904,0.22088799310229244,-0.37171319741070177,0.2261285731687757,-0.16457232094108055,-0.7703355273884764,-0.28406062507048826,0.250541131312902,0.7810889253368315,0.8351186809386663,0.8875553076662335,0.672120297246005,-0.041373435098682197,0.4798136549701612,0.5476292270725729,0.24101672110803458,0.07412920038353015,0.44679658666597168,-0.8197809066088799,0.13479892907329436,0.6141074232159328,-0.8723289665578139,-0.7497526164658741,-0.8064634768802336,-0.2525113622917962,-0.040291732238727017,-0.6117465706026286,0.7138704205982556,0.29527400023856029,0.43069596111038807,-0.7128084693801708,0.5531199959557636,-0.15331882778782178,-0.29461114843364347,-0.486433417511803,-0.8435618241774545,0.6405707868770311,0.651744910952088,-0.6398279250037201,0.41599956808278995,0.8408554687748445,0.8264684925238758,-0.4148663410456135,0.479259844983481,-0.5921778531160448,-0.1512577233144693,0.162768811957717,-0.8371140438396147,-0.3231352465962007,0.7314524254940463,0.7871673596554087,-0.5325218125592652,0.9150815007732507,-0.9555907059974077,-0.7276639654877819,0.19950927631618468,0.03126177880531209,0.7579401513194557,0.6327899735087361,-0.10953318930366046,-0.30998819285170767,0.8499165730202136,-0.5792979502776269,0.19612340110282446,0.130532604114145,-0.8476896327231659,0.317325550536099,0.9278016312420551,0.7114867128061028,-0.7070087829975089,0.07863981199837704,0.5214462324135121,-0.23750435897981959,0.36413520170518107,0.5052941550532093,0.6541446496272786,0.3018535993160955,0.46719776816373179,-0.4767949881494436,0.08198184409138139,0.5627669360467692,-0.2558334221944442,-0.6454088274273849,0.3383754752026048,-0.16896145016356862,-0.7012068038662075,0.628138161824401,-0.19693446130598137,-0.231218709912404,0.32662620101459458,0.2689352019581994,-0.828711463930754,-0.31021576683375576,-0.20517481061742105,-0.16667357096447414,-0.18279057863799778,0.42072211971231557,0.4690798134321559,-0.17284575976988918,-0.8132001268733806,-0.5234762608173393,0.8717089562434883,-0.43168046724208539,-0.303739640178613,0.9186566652517383,-0.21561655820228849,0.8858324407839266,0.5519447227933972,0.20989751326253829,-0.6717331397318832,0.23683410614782095,-0.6123346395580914]}],"biases":[{"row":1,"colmun":40,"elements":[-0.12110123221852051,0.7983295816693742,0.5431088582716638,0.5053023010094618,-0.4712825633597124,0.5615080657440251,-0.055792634510491687,0.5868770733687088,0.980296609938247,0.9179774572913284,-0.2807567625162906,-0.563200862130197,0.6571840773434847,0.7609635048532829,0.6930828436345328,0.36489745777310658,-0.24690619946639429,0.8895356490408091,0.1319803239375736,0.9131819311240477,-0.7567713824855885,-0.8462214941028459,-0.7783845920148752,0.46037217493998186,0.23482817882986116,-0.10384643134613156,1.0174089499011865,-0.2140144075527509,0.1412753177330427,0.49601767477799615,0.877707891729639,-0.13326749181805687,0.8843004741592311,0.9461226955723749,-0.15632755313809353,0.34947905502507539,-0.7342892598673311,-0.8254573749785512,-0.13477837822322315,0.16123938237548739]},{"row":1,"colmun":9,"elements":[0.5843572279911815,0.458147985632011,-0.25383828604794136,0.23693961171479864,0.4937854733864581,0.1095956515078905,-0.13889950079624117,0.8274828580392031,0.2891604682179574]}],"inputSize":8,"hiddenSize":40,"hiddenLayers":1,"outputSize":9,"v":[{"row":1,"colmun":40,"elements":[2.0807697442409469,-0.6382127093388428,0.051261560136410758,1.488545644502866,1.1944372347432229,1.995608942807877,-0.03539798651717611,2.420481343166477,2.4628245817720018,1.3013273971928264,0.417551278463634,-2.3795270549437066,0.4668406485885638,-0.3395542053590064,1.542724082639294,-0.6612454777711099,-0.16291876613411633,0.6523825136579368,1.8565619355572148,0.795201054617382,-1.5300671979872128,-0.2802472069207331,-0.7439472826242992,-0.766206393544901,1.0026358750175335,0.8569285106265762,2.5593096313749479,-0.601024737925723,0.24235795931919186,0.8048686710890226,-0.9740352414056425,1.2456796024272015,0.49473256464378986,3.052096545780454,0.8241949134013357,0.6551649648942481,-0.09029506886480732,-0.8867148874317538,-1.0124854887874096,-0.7178113035157685]},{"row":1,"colmun":9,"elements":[2.942221714459874,0.40876153535857837,1.967735973293384,-0.26371338166654748,-2.3489935985469114,-0.4362471307413362,0.5876166246390747,0.2522824454809278,2.4821286131764639]}],"y":[{"row":1,"colmun":40,"elements":[0.9693111437868853,-0.5636813785774926,0.051216706468488717,0.9030567828912559,0.8319499648074347,0.9637160314490096,-0.03538320915871974,0.984324932938046,0.9855885721073021,0.8620644847907076,0.3948655128566369,-0.9829983367100156,0.4356430873793242,-0.32707934974548649,0.9125769786721167,-0.5791916761650943,-0.16149248198888609,0.5732716740985151,0.9523601134448487,0.6613453389931431,-0.9104360925908447,-0.27313386076969839,-0.6315240960506114,-0.64471811905551,0.7626989354638074,0.6946717772700763,0.9881026373254573,-0.5377783463905153,0.23772170039255784,0.6667498332940649,-0.7504721902922391,0.8470676874440489,0.4579645248490518,0.9955429889391714,0.6773466243006349,0.575136719665099,-0.0900504686413362,-0.7097673574411213,-0.7667880826017322,-0.6155517432810909]},{"row":1,"colmun":9,"elements":[0.9944506516862296,0.38742060791668705,0.9616757665489273,-0.2577654913261854,-0.9819374101874904,-0.4105288734932185,0.5281792942455257,0.2470629926141795,0.986130580691953]}],"lastInputs":[0.24600011110305787,0.4040007829666137,-0.23025989532470704,-0.9655698537826538,1.0399999618530274,0.4400006294250489,-0.21481360495090486,0.451503187417984],"dw":[{"row":8,"colmun":40,"elements":[0.0017637983698376534,0.03303332135046466,0.01301971692662932,0.011886866839760233,0.007520102862428929,0.0007668491643476846,-0.10696319102957003,-0.0010625365996994232,-0.0023247689677276244,-0.01613380116764697,0.0005094263934294132,0.0012299697206335234,0.011108793518761215,0.013441899730649099,0.0012992236037005008,-0.033583787916994328,0.004195917031323588,-0.0006645739322261147,-0.0009592345969143884,0.027500179109010347,0.0009202134389276935,-0.007902031058672739,0.024765668751642376,0.002492468468448981,0.01741145577186558,0.018133977499211964,-0.000003950316536411045,-0.020322510289002065,0.09644472769967666,0.010569844180094098,0.026364485963671567,0.0024285539901556655,-0.04208835902443064,-0.0001226442916658538,-0.02101836815922321,0.02161626996625975,-0.020639826494509223,-0.028373129323346195,0.004583984244337412,-0.016326214464424429,0.0028966487828581768,0.054249925456271847,0.021382005921771049,0.019521550168207698,0.012350105984862685,0.001259380174360852,-0.17566338783664316,-0.0017449813997417923,-0.0038179189390080399,-0.026496200651008649,0.0008366201986108894,0.0020199532753584755,0.01824373679861394,0.022075347817489038,0.0021336874637581544,-0.05515394506373357,0.006890865854965087,-0.0010914157223533637,-0.0015753307039756855,0.045162962902516309,0.0015112470809716117,-0.012977338589058072,0.04067213433966188,0.004093328284519087,0.028594465802803543,0.029781047964288995,-0.0000064875213532218019,-0.03337522910778002,0.158389137829893,0.01735863169104089,0.043297838054119529,0.003988362887724674,-0.06912082243949261,-0.00020141612797334532,-0.034518021780280277,0.03549994328062757,-0.03389635080523804,-0.04659659058870385,0.007528180436646621,-0.026812196941427864,-0.0016509424576745997,-0.03091969789070089,-0.012186655702066139,-0.011126290561369995,-0.007038932178402544,-0.0007177826364418338,0.10011919531104344,0.0009945506330400114,0.0021760195829295138,0.015101486545653225,-0.0004768309554850507,-0.0011512706146989778,-0.010398001941316789,-0.012581825313273183,-0.0012160933165844708,0.031434943080715347,-0.003927443008426005,0.0006220514429190921,0.0008978583663517666,-0.025740591476394283,-0.0008613339610855386,0.007396422856330781,-0.023181047637862864,-0.0023329889001747745,-0.01629739094630311,-0.016973682418541134,0.000003697557160014468,0.01902218283926104,-0.09027375152462432,-0.009893537054084191,-0.024677565189153536,-0.0022731639634478689,0.03939535270898348,0.00011479694718235965,0.019673516530288806,-0.020233161836485479,0.019319195698065413,0.026557686330845159,-0.004290679900664966,0.015281588356893868,-0.006923047824774159,-0.12965839374341285,-0.05110341663167139,-0.04665689062064206,-0.0295169973247047,-0.003009943500319582,0.4198389677933125,0.004170540023783498,0.009124901700986715,0.06332644308390985,-0.001999538805129218,-0.004827728239568426,-0.04360289141950159,-0.052760517461906988,-0.005099555197072719,0.13181901846741396,-0.01646930554727259,0.002608505141278192,0.0037650715088411838,-0.10794037369422084,-0.0036119103836583647,0.031016095641973809,-0.09720720469648488,-0.009783135478462969,-0.06834133825549485,-0.07117729306665495,0.000015505304218580894,0.07976745701560897,-0.37855316896207327,-0.04148747272395858,-0.1034826884542848,-0.009532266106154363,0.16520013136151047,0.0004813885255582862,0.08249875408287517,-0.08484556587010561,0.08101294816917214,0.11136677219069422,-0.017992499989939418,0.06408168046165809,0.007456704914166153,0.13965299767677628,0.0550426788277308,0.050253396246327918,0.03179228925949746,0.003241962363726365,-0.4522018875992619,-0.004492022455599247,-0.009828286771549257,-0.06820790658857798,0.0021536715059106714,0.005199869450479051,0.04696398218659671,0.05682751582681505,0.005492649951369382,-0.14198017226879254,0.017738827567792743,-0.002809579479718716,-0.004055298754646243,0.11626086303814953,0.0038903313380233199,-0.03340694426003018,0.10470033709124054,0.010537259924329329,0.07360937057040537,0.0766639324789706,-0.000016700517039416092,-0.08591626170634352,0.4077336090574739,0.044685498290222776,0.11145956102843514,0.010267052505768215,-0.17793443906830937,-0.0005184959392174601,-0.0888580984203194,0.0913858121425679,-0.08725776045666133,-0.1199513824673401,0.01937943612248445,-0.06902136077935572,0.0031547644000141097,0.05908404724303268,0.023287321363253057,0.021261083452092927,0.013450603652059534,0.00137160147397535,-0.1913164639125138,-0.0019004738272619668,-0.004158127427184162,-0.028857233588033994,0.0009111700508979494,0.0021999479952502134,0.01986940623112215,0.024042445816929878,0.002323816850442856,-0.06006862255344394,0.0075048995974811689,-0.001188669985423171,-0.0017157058365384112,0.0491873603756097,0.0016459118271046219,-0.01413372792378821,0.04429636145281992,0.004458078047290797,0.03114247170245293,0.032434788252149519,-0.0000070656137294217388,-0.03634924097620373,0.17250293384951929,0.018905430860629736,0.04715603731424152,0.004343759356326258,-0.07528006544053435,-0.00021936398844046772,-0.03759386602744775,0.038663284940515799,-0.03691679897251466,-0.05074873627110104,0.008199004235156613,-0.02920138778907158,-0.001540193963866246,-0.028845543243768078,-0.011369150671959979,-0.010379916927559978,-0.006566746649977007,-0.0006696323538573694,0.0934030011575414,0.0009278342044247654,0.0020300478743538144,0.014088448882575657,-0.0004448441894559369,-0.001074041098945098,-0.0097004833523048,-0.011737811522042997,-0.001134515365447496,0.02932622476472741,-0.0036639823434710427,0.0005803229986269525,0.0008376282467225542,-0.024013861557677337,-0.0008035539709879018,0.006900256144341254,-0.021626016995299415,-0.0021764873785348906,-0.015204129644603208,-0.015835054143826745,0.000003449517693624654,0.01774613709423696,-0.08421800926340478,-0.009229858970039834,-0.023022145181719884,-0.00212067561719389,0.03675263432998307,0.0001070961403279821,0.01835377802970402,-0.018875881219008567,0.01802322574150907,0.024776144069027868,-0.004002852584695555,0.014256469107184169,0.0032372366921847525,0.060628630669557228,0.023896101775296907,0.021816893669273513,0.013802231213933633,0.00140745807154025,-0.19631788566964299,-0.001950156279854594,-0.004266829775941477,-0.02961162342446621,0.0009349899858048029,0.002257459343426858,0.020388835027752088,0.024670966798053485,0.00238456639555625,-0.061638944885435999,0.007701093732394076,-0.0012197443624295348,-0.0017605580584758847,0.050473223229895069,0.0016889394842860844,-0.014503213815915628,0.045454363129210407,0.004574621747110046,0.03195660255328578,0.03328270302296798,-0.000007250323991733298,-0.03729948791760993,0.17701252967248058,0.019399659278302625,0.04838879703695567,0.004457314520937695,-0.07724804743995374,-0.00022509863250653453,-0.03857665013101688,0.039674025942879328,-0.03788188309443911,-0.052075416832420427,0.008413343750585135,-0.029964774552760748]},{"row":40,"colmun":9,"elements":[0.00009616285456951822,-0.04574304744582152,0.00020906299171966736,-0.00926763280358334,-0.00013273370489662266,0.07308499665194439,0.17990810269792685,0.222114096352159,0.00024222523298177026,-0.00005592137341981351,0.02660085382270748,-0.00012157594198461688,0.005389386130922691,0.00007718833961561914,-0.042500957437828678,-0.1046215634639654,-0.1291655221708728,-0.00014086070724411075,0.000005081077141461024,-0.0024169826675611686,0.000011046523037482448,-0.000489685517391745,-0.00000701341694639589,0.0038616834695094539,0.009506029664720657,0.011736120592752917,0.000012798757897718156,0.0000895899305788666,-0.04261641840274545,0.00019477311690279409,-0.008634171512693875,-0.00012366108993330154,0.06808949053889552,0.16761102302376899,0.20693215235610605,0.00022566865245871525,0.00008253560684584752,-0.039260795624467808,0.00017943665428647422,-0.007954315633540852,-0.00011392399832120831,0.06272811447828036,0.15441330749935165,0.19063828557823912,0.00020789947102781153,0.00009560777792823951,-0.04547900685289461,0.0002078562265526086,-0.00921413765192373,-0.00013196753193484524,0.07266313132098024,0.17886962702214294,0.2208319968644126,0.0002408270468592974,-0.0000035102767757727367,0.0016697794363629004,-0.000007631522252457536,0.00033830064989689046,0.000004845239294805397,-0.0026678551458690746,-0.006567267969539364,-0.008107932709433897,-0.000008842058751774722,0.00009765233380632963,-0.04645156758807432,0.00021230119618797382,-0.009411180399972031,-0.00013478963489530678,0.07421701987986142,0.18269472321478115,0.22555445111492765,0.00024597709181305453,0.00009777769618397318,-0.046511200355988099,0.00021257374044465774,-0.009423262117893006,-0.00013496267273734847,0.07431229688667839,0.1829292597997496,0.2258440093996885,0.0002462928679125453,0.00008552319057904251,-0.04068193879942532,0.00018593181498101482,-0.008242242080121053,-0.00011804776377483445,0.06499871624146025,0.16000268526373297,0.19753891747135017,0.00021542491491220194,0.00003917358748090434,-0.018634214622514458,0.00008516539397475377,-0.0037753291122365406,-0.000054071350353617514,0.029772426397937456,0.07328865008334236,0.0904819852025417,0.00009867460150565862,-0.000097520725621521,0.046388963795072239,-0.00021201507322527626,0.009398496746432289,0.00013460797595805322,-0.07411699597989334,-0.18244850154286394,-0.22525046645086817,-0.000245645583109717,0.000043219025309260744,-0.020558561142280577,0.00009396038388014068,-0.004165205561836205,-0.000059655273098948536,0.03284701077321031,0.080857134271339,0.09982601696633092,0.0001088646808754271,-0.000032448697349530414,0.0154352978502904,-0.00007054513695196826,0.003127222182996418,0.00004478897634178218,-0.02466142407862871,-0.06070726166882873,-0.07494903434241672,-0.00008173523249315429,0.00009053440460892019,-0.043065688763546317,0.0001968264520206882,-0.008725194585399454,-0.0001249647485835034,0.06880730285461057,0.1693780101993792,0.2091136703305104,0.00022804769416872998,-0.000057460109975982126,0.027332804840702237,-0.00012492123439862763,0.005537680869549776,0.00007931225955200661,-0.04367041685705285,-0.10750033797218374,-0.13271965002229123,-0.00014473664065399157,-0.00001602125195723754,0.007621039243293017,-0.00003483102576632919,0.0015440377769363079,0.000022114153525143836,-0.012176355942181234,-0.02997366348342266,-0.03700541042424572,-0.00004035603461829459,0.00005687280186400104,-0.027053432280976017,0.00012364439635652032,-0.005481079430784543,-0.0000785015974520922,0.04322405519703404,0.10640156143732918,0.13136310324383983,0.00014325726647262453,0.00009448118663860342,-0.0449431063844178,0.00020540695914565604,-0.009105563146322767,-0.0001304124966101653,0.07180690756389907,0.17676192231285815,0.21822982986993309,0.00023798926881257713,0.00006561036263894318,-0.031209742520289766,0.0001426403028748866,-0.006323156189254907,-0.00009056206319647227,0.049864712890084959,0.12274839294794399,0.15154486078978855,0.00016526636451653402,-0.00009032201283131309,0.042964657578441877,-0.00019636470137235343,0.008704725465444825,0.00012467158395504502,-0.06864588239319847,-0.16898065300871563,-0.20862309413071876,-0.0002275126991538191,-0.00002709690474473931,0.012889540404371614,-0.00005891006457366266,0.002611446638227404,0.00003740189051272401,-0.0205939934022619,-0.050694758838385898,-0.06258762323831935,-0.00006825456767336685,-0.00006265187416334237,0.029802439468470618,-0.0001362083967667944,0.006038033779274033,0.00008647845796222277,-0.04761622389397482,-0.11721344859878009,-0.1447114322557874,-0.00015781420886366466,-0.00006396081910175515,0.03042508249097468,-0.00013905411038507164,0.006164182499625808,0.0000882851962496725,-0.04861103875122637,-0.11966231309495264,-0.14773479427505968,-0.00016111131868935244,0.00007566539111971448,-0.035992749918770248,0.0001645004519462396,-0.007292203044264752,-0.00010444103121451287,0.057506662852386879,0.1415600339360079,0.17476966598925559,0.00019059404043980256,0.00006891659248875637,-0.03278246027668148,0.00014982821661568678,-0.00664179194886793,-0.00009512565627167841,0.05237748976828662,0.12893391585100148,0.15918149198913493,0.0001735944481538945,0.00009802711009972292,-0.04662984234756438,0.0002131159791254517,-0.009447299222423857,-0.00013530693906802716,0.07450185464553569,0.1833958805606439,0.22642009823110269,0.0002469211182293836,-0.00005335160051142167,0.02537845620774716,-0.00011598912351220805,0.005141725931876133,0.00007364127895065901,-0.040547897233378298,-0.09981385501580274,-0.1232299372723912,-0.00013438768973405478,0.000023583755793376256,-0.01121839472254014,0.00005127229806374891,-0.002272869184268928,-0.00003255268675046469,0.017923955366291008,0.04412211740459796,0.05447305646328221,0.000059405274180021234,0.00006614652855719615,-0.03146478760133765,0.0001438059551574637,-0.006374828832235492,-0.00009130213366430108,0.05027220583022097,0.12375148913842209,0.1527832808529273,0.00016661691629712644,-0.00007445240731639343,0.03541575398915986,-0.00016186336277116244,0.007175302516132587,0.0001027667481983197,-0.05658477968240992,-0.13929070015181745,-0.17196795214069583,-0.00018753864773460633,0.0000840353970552611,-0.03997422052241931,0.00018269727533953581,-0.008098856943233424,-0.00011599416056789195,0.06386797417695818,0.15721921849511417,0.19410245631831309,0.00021167730223431295,0.000045433477458029124,-0.021611938666908704,0.00009877471674613189,-0.0043786219528924338,-0.0000627118840880683,0.03453002266593266,0.0850000841284718,0.10494089256086946,0.00011444267863832246,0.00009876524816278121,-0.04698096217019436,0.00021472072923874586,-0.009518436799998856,-0.00013632579193250942,0.07506284899318464,0.18477684017387936,0.22812502753663614,0.00024878041894479394,0.00006719780881844157,-0.03196486388426704,0.00014609149251526866,-0.006476145286270603,-0.00009275321708507157,0.05107119224464601,0.12571829678001215,0.155211496677891,0.00016926499290996467,0.000057057828216720214,-0.027141446195174478,0.00012404665316367953,-0.005498911225646124,-0.00007875698955135826,0.04336467758630834,0.10674772150314503,0.13179047160056685,0.00014372333054274599,-0.000008933674368008371,0.0042495981666798589,-0.000019422267556283255,0.0008609770789367785,0.000012331161574956207,-0.006789706526478422,-0.01671373435059145,-0.020634734880089636,-0.00002250308983506435,-0.00007041418600136109,0.03349484024302399,-0.00015308406193690453,0.006786121553328825,0.00009719278641509015,-0.05351567994935664,-0.1317357171148217,-0.16264058886436945,-0.00017736674608667295,-0.00007607106484384126,0.03618572206475453,-0.00016538240748726084,0.007331299586584545,0.0001050009831483818,-0.057814980059715147,-0.14231899632693083,-0.17570667907036265,-0.0001916158945931665,-0.00006106729830619517,0.029048683468407323,-0.00013276344735483134,0.0058853213077152,0.00008429126598304914,-0.04641192602103017,-0.11424891476379283,-0.1410514261527316,-0.0001538228105436689]}],"db":[{"row":1,"colmun":40,"elements":[0.0071699088343042979,0.13428173346078643,0.052925654660273369,0.048320575086164978,0.030569510024645888,0.003117271617923885,-0.4348095232557008,-0.00431925251958236,-0.009450276088508347,-0.06558452797156651,0.002070838062410456,0.004999874655008781,0.04515767683579363,0.05464184414541921,0.005281394377729413,-0.13651940141980233,0.01705656559466258,-0.0027015188295898856,-0.003899325868647808,0.11178929548324301,0.0037407033468459885,-0.03212206296672081,0.10067340474194822,0.010131981068109359,0.07077824352921258,0.0737153223951798,-0.00001605819004998791,-0.0826117931324359,0.39205156155101358,0.04296682685507418,0.10717265876610349,0.009872166233039874,-0.17109081307202493,-0.0004985538059959409,-0.08544048238424533,0.08787097643709581,-0.0839016958242856,-0.11533787198762573,0.01863407387819034,-0.0663666954913887]},{"row":1,"colmun":9,"elements":[0.00009920741671640245,-0.04719129429082338,0.00021568202641610438,-0.009561050507865554,-0.00013693611772383146,0.07539890273665626,0.1856040796096344,0.22914633528756116,0.00024989420015893924]}],"learningRate":0.0025}