{"weights":[{"row":8,"colmun":40,"elements":[0.700454207177476,0.8779722137102816,-0.9409433061638914,0.8757209128144772,0.3562707701403545,0.36579969008915205,0.8151291653869537,0.33575077012679896,0.963136295549844,-0.3447124325055509,0.4280549302011382,-0.14831617304959228,0.996697879952855,0.9610013803824935,-0.8402210079418343,0.5509225721677316,-0.649716327036263,-0.06391428569656542,0.6357103045362595,0.9343348726325077,-0.1982162275182981,0.9051989706184955,-0.08872541170784273,-0.16354657291553269,0.5711054042712014,-0.406133240381315,0.9553775430606214,0.3813776271421542,-0.9668113354215679,0.8616863871478832,0.5040708631071189,0.7550816513811455,-0.7529153806410852,0.4943738782457591,-0.10189089341276127,0.17881684004143015,0.9386291495648931,-0.945792878466203,0.44313692097624565,-0.10552610182801155,0.30442936634459069,-0.6711458022725678,0.23681036350526397,0.7730702290624375,0.9922812915974686,-0.626690317159846,0.9012037268457575,-0.721184525266415,0.7833593174926299,0.37417616024891306,-0.6454411762809226,-0.3322843081800742,-0.21432576407878888,0.4736445858077887,-0.6347670738975877,0.607596680678967,-0.000894650755130336,-0.7899996075104514,0.22135007985950354,0.08883843665049214,0.21276193239611897,-0.9269414775694612,0.9349358171002044,-0.26024146453808558,0.577319253338165,0.7475776704925433,0.6586633030490402,0.40722923649715467,-0.11699132084646979,-0.6716784777772372,-0.655621916470319,0.29946698778469196,-0.2612082203408789,0.5223583538202495,0.8174619213512824,0.5415586101249464,0.3812944680141469,0.9750881175921187,-0.6202614886910666,0.3160977216968759,0.7414800186552263,0.7396741135361944,0.8806335543426782,-0.4314188501891626,0.18100082079074757,-0.5469700190794022,-0.781460523389241,-0.6086081760484762,-0.576574715578159,-0.25282242229628457,-0.2678667269715492,-0.11437099642827302,0.6345663117451045,0.18198394637399355,0.46579683354061537,0.40461938610824207,0.6051482476753943,0.9002307828434719,-0.8605991609631856,-0.17813664014013506,0.9571556346849477,0.7844248382621891,-0.8227208574168268,0.5799746998053593,-0.04169545184539166,-1.0058516961102564,0.34439048475170577,0.677402174269308,0.8462714522155711,0.2776542919004149,-0.5136397701489489,-0.44368236856407386,-0.9994751130377759,-0.20381428639835284,0.16804153608846435,0.6679692200536048,-0.9620732643643902,-0.26862897631197427,-0.106723230872768,-0.27968760469710537,-1.0303719061083363,0.9468859274038652,0.5058673932221275,0.7243502037247482,-0.16606036534616923,-0.17039264728310994,0.13562012911297537,-0.746803375219129,0.03758022364833415,-0.9979283376280758,-0.5167735207634763,0.692861168291583,-0.806329047315097,-0.20707711230344087,-0.5206735528419212,0.26348324485721039,0.46667272956216318,0.23283212853671438,-0.5277778157897741,0.4500854472058046,0.3186078565565558,-0.7514354633273779,0.781076044537608,0.43125027868975737,-0.7785508450853236,-0.5204686722824914,-0.9927849507791849,0.06319108312403979,-0.6230767413244959,-0.9735625027743849,0.8275405843262783,-0.28021786587980437,0.9927959831191745,-0.6769224113950579,-0.9324982665892107,-0.29054117644229029,0.14983043971575214,0.5259249275185757,0.9241548158127568,0.5376960196427583,0.4068216279770282,0.25371813877905166,0.35271106674613786,0.9734493712435188,0.7377472429486296,0.7590347707499719,-0.6359036262159,0.7142014425978899,0.8158883628369869,-0.9078040541113166,-0.13696523703518424,-0.8698883709194257,-0.8941063010860825,-0.9076784546923367,0.8438263971566843,-0.47443569846713559,0.22788041884338176,0.776248060885178,0.16779130368660839,0.605473189412435,-0.17667719503227342,0.47084252415306918,-0.3331567514811038,-0.18221101333071308,-0.46640865127872729,-0.010877247130926528,-0.34898879817150249,-0.413327852835287,-0.024050142469066117,-0.5471356329554801,-0.8498517776528679,0.32122169518022367,0.3450803088172838,0.919660905745173,-0.2950648178589498,0.24760645449204073,0.5537821076174126,-0.2300005567598978,-0.17022083195243407,0.08518526493219056,0.8314525991340405,-0.7285914126304162,-0.9419129256735019,-0.20352989675981734,0.7087193616987818,0.2683181179182825,-0.2893622666355722,0.17382016174549734,0.6615465699542824,0.9673454771256878,0.7724573490403034,0.36088358014153268,-0.868683540445184,-0.7039638275431243,-0.8591787610606855,-0.3084030929916234,0.2441163976799442,-0.432015091484845,0.2583397631441181,-0.9045533951929433,-0.9051136104322413,0.2861495284085442,0.1508417544282046,-0.988746011199165,0.24220125791723708,-0.21812305353180154,0.6960605112981644,0.2487447016528752,-0.6401074409096642,-0.10095794634782536,-0.6723123501384059,0.3676294830975325,-0.11660938344799066,-0.5566882930957985,-0.5245788631493134,-0.48833156514519279,-0.06809849015681369,0.08599579487418382,0.6288276543563741,-0.627499423137945,-0.1743299408683656,-0.4174171300527126,-0.07495277427054863,1.0102570410876313,0.9653155831872116,-0.7065415729695174,0.711819265600384,-0.679853713020134,0.5053793222487528,0.6580460802338365,-0.14130338892918588,-0.44094323443971308,-0.6342450387577473,0.1405738266856435,-0.8894767800476365,0.4828874163945628,-0.3832162744156572,-0.2238570763536984,-0.2916867238401422,0.6106000509573228,0.6220102739983878,0.04996539271027236,-0.9357338276894975,0.6903389333485777,-0.21726343404399119,-0.7002108180802241,0.3129758200489199,-0.9027731189201165,-0.8096874111409438,0.38964898150916718,0.021086803788839736,-0.641725848185242,-0.4645544352984006,-0.574232488755442,0.06481125911185212,-0.8415887394053281,-0.38773484218204126,-0.754789684556602,-0.34500210662683458,0.5360685984684687,0.5732169535534938,-0.7606399291564878,0.7913714128148004,0.7905804824692324,0.4047531072370158,0.5374233615743254,0.8085108689743211,0.4478723033457658,-0.4508168720700793,-0.10839471877784185,0.15239313522494939,-0.7916701160208438,0.41719242867601166,-0.9007876553936561,0.48705437834688838,-0.7219464642173301,0.8923484410463147,-0.30702097410638165,0.9656312999704154,-0.2152575863852818,0.9394647919760816,-0.9562971502685732,0.7058730231575562,0.5441818533380003,-0.07337592617930849,-0.05282860664269576,0.6494046623515929,-0.6546267501097731,0.20466637271790154,0.4119379805232257,0.29401820443990425,0.13551338196608662,0.4840606648850492,0.504767238338954,0.8316594601505871,-0.6728463996821058,-0.9940330344337367,0.5736759572993553,-0.10552995136795682,-0.49627723414192817]},{"row":40,"colmun":9,"elements":[0.8756119177428779,-0.8900658680874807,0.01574398694782755,0.4637896696830794,0.9407556561225965,-0.8479322400638079,0.44386666548912709,0.26317196079228885,-0.5851969607712099,0.5465064365967415,-0.6100297695014179,-0.29391976904734276,-0.46056432628693685,0.27073822757670026,0.6810378856939471,-0.4188797332861276,0.8426612296022429,0.4524816700714976,-0.8083746542050007,-0.04816641224952164,0.26163569687700596,-0.3382053307454127,-0.3163605724392755,0.835043693867324,-0.7254472250120675,0.513032556040759,0.55598276732082,0.7871858095049957,0.4177488884818796,-0.33537594660983136,0.4134190498238129,0.7745153614281325,-0.004928667523740445,0.7900336397398766,0.5946122004945952,0.8613326981846484,-0.6454713434935687,-0.005736697936919833,-0.04312422705018293,0.2716182020587023,0.9034369889313676,-0.03003287075576134,-0.7568064288062224,1.029330902457041,-0.298329448129381,-0.7318479924034168,0.5447758501893684,0.7039108704076504,-0.6227348786008238,-0.5237783880628466,0.9743019660379255,0.022411402544785999,-0.05364969330771686,-0.7941540397785434,-0.2898048034282323,0.9259247746224217,0.21977359163870467,0.3277607065594138,0.43680559696084539,-0.6751119347754054,-0.6555475337625978,-0.9504592677234193,-0.7777028432339848,-0.8794709483512578,0.20583916293600364,-0.7523762483523833,-0.593053829968069,0.9012464623791162,0.4078787707219899,-0.5279289587728061,-0.28628153944788506,0.4828815180697012,-0.6972952566244078,-0.2097191632866747,0.7499035058393233,0.06562541886781477,-0.4899507924226655,-0.6519892489698668,-0.3743900461790847,-0.9688542743125248,0.31854323393044967,-0.5925466889626586,-0.9645307016569517,-0.45570709273434298,0.2667593866186244,-0.902989158083397,0.6853737872912653,-0.8871347141338924,-0.8072225990076705,-0.9211346011239381,-0.05463904901593509,-0.6520915336741117,-0.5915051407750626,-0.5871001801911672,-0.04127048119620833,0.9049893690281238,-0.6924252194696441,0.11967357232023444,-0.5797294041825338,-0.031934553533709549,0.9925165050529867,-0.30263573225857556,0.00401950504094133,-0.5200678140113079,-0.24424060577668256,0.10480611810450036,0.8561956920962862,0.6067020403949848,-0.9179455137494802,0.9378701510447107,-0.029080425625048944,0.7902434368477475,-0.7842565593664156,0.14149558488446838,-0.3537165189070719,0.7278750394658967,0.6766273512704734,-0.43760555863438618,-0.6710138165030649,-0.20008276039358237,0.3333810474023805,-0.09038963701594852,0.1394913361229042,0.5465702565485776,-0.33663823729065525,0.13445351863431355,0.21006618767955918,0.980403101013996,0.7149067378621685,-0.5126584736159209,0.009857856381665241,-0.07158510840940338,-0.2954342056683118,0.5884791001637185,-0.0965291036478378,0.4023059906222623,0.21590145648129267,-0.6886725360646985,0.7676928304742162,0.48145552350956186,0.9236929184483551,-0.9250534105993706,-0.37986225239093837,0.04346563406137002,-0.8541775370879459,-0.23372860189335488,0.02594826059226457,0.14504048728109354,0.940941420051255,-0.43867804589848999,-0.5053061149569745,0.583902348196621,-0.17306412420607462,-0.7997254701256487,0.11882062961932517,-0.4044575035690254,0.9904274139436323,0.6169347301500365,-0.10626178584284873,0.5398512936788045,-0.3545317013080374,-0.10468704447295618,0.44088837243561099,-0.6907768132186415,0.8369557419409685,-0.6635647922303125,-0.8401308890065183,-0.8786809665030211,-0.14633796571890565,0.05464304999729893,0.13757316413703114,-0.7930291073613279,-0.3973695717244745,0.49102300491507858,-0.36184091287177069,0.7789946506623482,-0.3286901757452206,0.6445284395157181,0.35627235312858349,-0.2322831565563302,-0.8284351461204331,-0.19265998651979072,-0.768239057175631,-0.9232692753587719,0.28764025473833967,0.34520130207188778,-0.3120921559128112,0.14144618710007576,0.40091613411848228,0.7596364676587882,0.4730309319512469,-0.9466513385732495,0.1575718010528372,-0.05135323045340308,0.08346740275889136,0.8687803634513711,-0.7894269260472937,-0.4169584585340594,0.08407779943621847,0.45593649108952397,-0.9078462525648525,0.9695748530984849,0.6704575276615672,0.061020946033458377,0.08641220877624405,0.7740146192897793,-0.4057963199138654,0.69773555452092,-0.6263304789870949,0.5608679860582965,-0.3188659691730875,0.9452984935791923,-0.2251318832061869,-0.20531178938337739,0.16320546269490203,-0.8392568145730942,0.6032297347525266,-0.6136976129746404,0.47056401718536136,0.05854770568477053,-0.9545394386162109,0.8326600977016336,-0.5517824268180144,0.787373207283169,0.6319029032012772,0.22254244537815152,-0.18296292626335648,-0.6966904970899411,-0.5344127174144867,-0.2632414647492517,0.20998866459140856,-0.09924474037268495,0.5803805383608521,0.6371142357717534,0.8193690094043513,0.6868455695123501,0.729964046798701,-0.34723045705572178,-0.08697198316957863,0.37044683470639136,-0.8186530306904635,0.6624044966133014,0.24665187061629735,0.8845612333581143,0.7770355855846445,0.695215112926787,0.20022618274507096,0.2719307061150327,-0.4364700604972937,0.22156927903740285,-0.3643333307978451,0.23844334264237833,-0.17715307371927198,-0.7716798232183613,-0.27640743716094087,0.24839164749226287,0.7922065983833005,0.8404842410576934,0.8910036498412668,0.6771276454570466,-0.03101302761977182,0.48608565216212076,0.5485401780336259,0.24246156301276246,0.07304056646355957,0.43868172146169517,-0.8237446911034536,0.1388378017535038,0.6120478610313475,-0.8783651809636063,-0.7515550379331333,-0.8121433519467013,-0.2540042737205044,-0.03387290017917564,-0.6111576589979579,0.721663643016427,0.30989225687585966,0.44467412082788396,-0.7166231557920901,0.5606415104719418,-0.16002793995895296,-0.29153833896285577,-0.4890831366533919,-0.8434789371127679,0.640460430581497,0.652570272326573,-0.6343340091354048,0.4189599493814698,0.8406236711801172,0.8285004643647118,-0.41634649604451626,0.4848448805400229,-0.5840120978532732,-0.1432730250126001,0.16625432936591648,-0.8226422379657415,-0.3186479588662223,0.7347864640310399,0.7852614166980111,-0.5311640981759553,0.9189229937983043,-0.9547277845936838,-0.7272819223742252,0.20395231559646077,0.03603235321768639,0.7670832358882359,0.6258283389544023,-0.10367798935547867,-0.30909367786962996,0.8533734538042177,-0.5819034326472832,0.19776603165007579,0.12482387804050493,-0.8508231064880437,0.3251274528162964,0.9330231554093169,0.7096353355922482,-0.704257562003914,0.08921967755967761,0.5301287665196541,-0.22844145100707517,0.3655815986062371,0.5104275398194269,0.6669036522114763,0.3156827677712187,0.463549969462391,-0.4799419563712201,0.08481531884319282,0.5657806999298062,-0.25461382610593,-0.6424804244454676,0.34161710482027815,-0.1708534565716687,-0.7092383415211933,0.6312883279122992,-0.20229445103070735,-0.23012621313077936,0.3332002599245561,0.2739207339442016,-0.8419196464846407,-0.3085507931270953,-0.19266430993615084,-0.1585905365308174,-0.18778756612595008,0.42060538649499276,0.4707952914629688,-0.16663162424319667,-0.8169521134490032,-0.5194544364292378,0.879819872747495,-0.43701332333122308,-0.30218766971205515,0.9271335017109198,-0.21918070014352765,0.8936647477242619,0.5510642634569846,0.21432778012525056,-0.6733686760381835,0.23710607215400038,-0.6136064268617939]}],"biases":[{"row":1,"colmun":40,"elements":[-0.12134005887782713,0.7975667387479041,0.5473233973610233,0.5082741137441721,-0.4706336095023566,0.5628505209712182,-0.06166503717450568,0.5764060633488946,0.9734213613427147,0.9087075033416078,-0.2793570715926613,-0.5577682150061707,0.6736289292283186,0.7542494964392252,0.6904163788027619,0.3623855184750366,-0.25016928379889988,0.8858842223310902,0.1388316470909099,0.9126764292596479,-0.7597751972305785,-0.8379622658449166,-0.7740838817806407,0.4472313930716269,0.2364182078123076,-0.10002609371877193,1.0105241056256922,-0.21682158783738285,0.1280895061738015,0.4808887830064747,0.8695541686123089,-0.1330806443400152,0.8720824384607814,0.9446526360626417,-0.1640183528876045,0.33993776182300847,-0.7419769985634029,-0.8348447009619795,-0.13625593806245574,0.1677282147872009]},{"row":1,"colmun":9,"elements":[0.5879801236155037,0.4565749032722553,-0.25383391830826038,0.2397650417705998,0.4924322377070618,0.1083450359512039,-0.13918376543430836,0.8299292447123543,0.2893551707543279]}],"inputSize":8,"hiddenSize":40,"hiddenLayers":1,"outputSize":9,"v":[{"row":1,"colmun":40,"elements":[2.1380911729125855,-0.8475971236564083,-0.012709912358565112,1.4632259054124322,1.2878600576780058,1.9271350872311526,0.030257413716235958,2.330248168465399,2.506686698365754,1.4757400829306065,0.4348233653140884,-2.345164887185815,0.3855725543105931,-0.3715573613159022,1.4090418201248967,-0.652791716678621,-0.15136220732779649,0.49333276947388596,1.9100945536460175,0.6499166796365169,-1.6066674037912754,-0.3832784921966751,-0.634383422321418,-0.8833768363896708,1.0857586960055695,0.9441927537124094,2.6605873150816086,-0.5538661911766215,0.18415962071125237,0.7211607144507497,-1.1066792064074387,1.2647671440339008,0.46342313627351386,2.994063533209952,0.8819905524500658,0.6294138384611722,-0.12226996246012245,-0.7661107600234867,-1.0450726958113948,-0.7422505338998874]},{"row":1,"colmun":9,"elements":[3.040818060232215,0.4814700696545255,2.0673875383481357,-0.25543863014099968,-2.554661413140076,-0.5577061215760962,0.28064060761210388,0.0030507761482092556,2.5119413296559678]}],"y":[{"row":1,"colmun":40,"elements":[0.9725896641525705,-0.6898120664271858,-0.01270922800843975,0.8982773217063128,0.8585650524909805,0.9585011967408028,0.03024818343050796,0.9812538417192295,0.986790944348495,0.9006667972114717,0.40934436934726989,-0.9817998298778323,0.3675371033078767,-0.35535316897798038,0.8872904862527089,-0.5735463320239351,-0.15021677432031953,0.45685760195107785,0.9570933611703083,0.5716138726904824,-0.9226660347688636,-0.365551260298965,-0.5610631579410614,-0.7081069877298811,0.79532489054238,0.737142675067172,0.9902735135891785,-0.5034122315128446,0.18210557112067286,0.6176277612234458,-0.8028854067260307,0.8523730425941106,0.43287004954956806,0.9949958369492346,0.7074151293425829,0.5576484657570558,-0.12166427451689949,-0.6446622332570045,-0.7798833337990768,-0.6305029559962301]},{"row":1,"colmun":9,"elements":[0.9954415415441088,0.4474201673142226,0.9684917988012283,-0.25002420446064446,-0.9879921856919689,-0.5062734868074097,0.2734978738086689,0.0030507666834808688,0.986928132346229]}],"lastInputs":[0.20400011539459229,0.48800077438354486,-0.2474449723958969,-0.9836300015449524,0.9979999661445618,0.5240007400512696,-0.21481312811374665,0.4515033960342407],"dw":[{"row":8,"colmun":40,"elements":[0.007031133285749137,0.008791085223471648,0.003395079063466201,-0.000259831083891315,0.00320612824993949,0.00012141552676862128,-0.007938119037752129,0.00009270523333098137,-0.00016053401273163922,0.0012227211626092772,0.008437892825973612,-0.00820614260468272,-0.004735213724909368,0.003224989604954829,-0.002493648411751292,0.0006056594778254936,0.0055449522763525139,-0.0005722303109945223,0.00012838933751525624,0.004837951798112351,0.0005737483362747415,-0.0011527582322806438,0.0012088564794710358,0.006998424763935257,0.004833765129228921,0.0012985363806456597,-0.0002675061252175891,-0.006953214045613239,0.005680825857418494,-0.0011827726264602554,0.00983263787404448,-0.0020608696961167598,-0.004442454040850114,-0.009073041743476715,-0.00309847797633051,-0.004888220792597472,-0.0016595396851255284,-0.003378900340095914,0.0019553299715796437,-0.002547259918604512,0.05025958399994898,0.06283998159092043,0.024268528904521713,-0.0018573111411643443,0.022917880453076149,0.0008678962008718914,-0.056742852733019859,0.000662670763371384,-0.0011475209429023148,0.008740192296628983,0.060315309927225089,-0.05865872495854242,-0.033848010312527727,0.02305270421735717,-0.01782496885257098,0.00432934381472081,0.03963614162654215,-0.004090387170022459,0.0009177460348567841,0.034582397303968188,0.00410123823996873,-0.008240086889601435,0.008641085484327264,0.05002577863276147,0.03455247037357516,0.009282130724548862,-0.0019121734753804784,-0.0497026057098688,0.04060738614480504,-0.008454634232706884,0.07028515448188735,-0.014731402377887618,-0.03175532065144602,-0.06485544863237874,-0.02214838032426561,-0.034941727535417316,-0.011862635910325891,-0.02415288098928606,0.01397698876700419,-0.018208191858386348,-0.0022916579849143654,-0.00286527929846874,-0.0011065584634808899,0.00008468677152449178,-0.0010449737056649359,-0.00003957297495353187,0.0025872719430502426,-0.0000302154261016341,0.00005232286705081404,-0.0003985216325363371,-0.0027501632645318028,0.002674628891402598,0.0015433486896001105,-0.0010511211890179842,0.0008127550797453001,-0.0001974026550330109,-0.0018072668577948078,0.00018650708329744146,-0.000041845949797459164,-0.0015768341202187459,-0.00018700185343097984,0.00037571860755875877,-0.0003940027149549485,-0.0022809972930823037,-0.001575469558804962,-0.00042323209424003494,0.00008718829852235892,0.0022662617590743846,-0.0018515521478517988,0.0003855012020977479,-0.0032047526595031185,0.0006716994690665744,0.001447929496083298,0.002957177415629725,0.0010098872410697834,0.00159321829868951,0.0005408939378817344,0.0011012853305319829,-0.0006373008959444642,0.0008302286836111927,0.03250729699515024,0.040644147487330927,0.015696593842389866,-0.0012012866019402796,0.01482301060009273,0.0005613448683286711,-0.03670059756456045,0.0004286075132444068,-0.0007422028025364924,0.005653051700179831,0.0390112200920889,-0.03793976077450434,-0.021892487688027097,0.014910212996107226,-0.011528976372355478,0.0028001677287935557,0.02563618170013407,-0.002645613432876944,0.0005935871439214711,0.02236748039867417,0.0026526317749598984,-0.005329589512447805,0.0055889506009399749,0.03235607448383315,0.022348124018517096,0.006003570984810085,-0.0012367709026502273,-0.032147050107800247,0.026264371022395776,-0.005468356164433153,0.045459596145782796,-0.009528094626758976,-0.020538961078424995,-0.04194772743142057,-0.014325307132728657,-0.02259989088884187,-0.007672610833442028,-0.015621794155877556,0.009040148938505842,-0.011776840422830448,0.007421752071099502,0.009279479183925233,0.003583694697111997,-0.0002742661540657926,0.003384246608925401,0.00012816083846469738,-0.008379125955197156,0.00009785552762461483,-0.00016945257514713915,0.001290650162949616,0.008906664973029732,-0.008662039730562836,-0.004998281335552935,0.003404155817720029,-0.002632184530198003,0.0006393072498060988,0.005853005393110317,-0.0006040209057588664,0.0001355220834089794,0.005106727083426958,0.0006056232658350554,-0.0012168004004768799,0.0012760152191056498,0.007387226407931263,0.005102307821667325,0.0013706773404492715,-0.0002823675868710136,-0.0073395039813030529,0.005996427511665237,-0.0012484822621501356,0.010378895910559575,-0.0021753625359970856,-0.004689257213381184,-0.009577099965847965,-0.0032706157604345598,-0.005159788801754531,-0.0017517363979027339,-0.003566617155156628,0.002063959489385211,-0.0026887744561533406,0.059634420102663159,0.07456141820514017,0.028795296991860114,-0.0022037522804339898,0.027192714344845008,0.001029783426945043,-0.06732700210387514,0.0007862776319971474,-0.0013615661042023398,0.010370485740505975,0.07156582376062089,-0.06960023876974075,-0.040161623037281848,0.02735268656027292,-0.021149830465611944,0.005136889072066119,0.04702940479985407,-0.004853360244285157,0.0010889316670479877,0.04103299400536498,0.004866235346151102,-0.009777096508746227,0.010252892700343871,0.059357003411567358,0.040997484854723337,0.011013511036544709,-0.0022688479940487498,-0.05897354958414199,0.04818181393289736,-0.010031663008752945,0.08339532673723889,-0.017479226212958965,-0.037678587475475918,-0.07695282694130319,-0.026279680644633969,-0.041459349503608789,-0.014075353536591753,-0.028658077464512514,0.016584093093619278,-0.021604535417444057,-0.0015839172730553577,-0.0019803851197901,-0.0007648161617007052,0.000058532661112582005,-0.0007222508389938504,-0.00002735151536036404,0.0017882357435819166,-0.00002088389089041764,0.000036163813903783846,-0.00027544480965998593,-0.0019008207712884387,0.0018486139415187574,0.0010667109419891528,-0.0007264997736659575,0.0005617490995804815,-0.00013643810599663192,-0.001249122343702891,0.00012890745160344286,-0.00002892251947189217,-0.0010898549505199613,-0.0001292494201545365,0.00025968412225477145,-0.00027232148512386747,-0.0015765489597875495,-0.0010889118113571086,-0.00029252385346814066,0.00006026163282084682,0.0015663642520360089,-0.0012797308534915609,0.0002664455240728446,-0.002215017741160344,0.0004642561841078639,0.0010007603901235618,0.002043902021566343,0.0006980002493820747,0.001101179146126591,0.0003738477804024605,0.000761171548754152,-0.0004404810420512258,0.0005738262695455924,-0.0037476272540411354,-0.004685689950275268,-0.0018095931780526267,0.00013849119506975633,-0.0017088815019020443,-0.00006471504929427116,0.004231054944157986,-0.000049412327274124746,0.00008556538709528637,-0.0006517161553991455,-0.004497436734045312,0.004373912771386243,0.002523891282952582,-0.0017189346932199926,0.0013291263826297718,-0.0003228193626150704,-0.0029554857558075789,0.00030500145878588884,-0.00006843212336419181,-0.0025786511612702846,-0.00030581057343089256,0.0006144255830523533,-0.0006443262137943078,-0.0037301934574101504,-0.0025764196469789839,-0.0006921260247384302,0.00014258202835100488,0.0037060959309841076,-0.003027907016337386,0.000630423396928109,-0.005240842432979149,0.0010984532828937474,0.0023678489884495508,0.00483597410730686,0.0016515033975643432,0.002605444772784877,0.0008845424912858312,0.0018009698420733513,-0.001042200111180882,0.0013577015690254787]},{"row":40,"colmun":9,"elements":[-0.001066867425976903,-0.02826814417837245,0.0031806224438590336,0.00003323800615817082,0.010884816371342567,0.013202600740264846,-0.00004277169055692016,0.012779547079493895,-0.008111937140547823,-0.0006145377356661114,-0.01628303657219005,0.0018321044087255318,0.000019145780014602087,0.006269879689935434,0.007604971495307175,-0.000024637379701974667,0.007361283823882226,-0.004672643817626515,0.000042224722088860433,0.001118803051660006,-0.0001258833998409539,-0.0000013155013815624534,-0.00043080174263204876,-0.0005225355405311017,0.0000016928277151052403,-0.0005057918263452726,0.00032105609658884875,-0.0023552167620655487,-0.06240476124802952,0.007021542800146248,0.00007337622963760503,0.024029322993264315,0.029146064271160876,-0.00009442279339375008,0.028212130917456149,-0.017907914199129298,-0.0019309393874522019,-0.05116293896986853,0.005756656360407847,0.00006015796685555599,0.01970059273050196,0.02389558549211428,-0.0000774131255236792,0.023129894313718363,-0.01468191693909613,-0.0009378040586892533,-0.024848429801684277,0.002795849385201596,0.00002921706701217234,0.009568035092818816,0.011605427495489176,-0.00003759742215819505,0.011233552386685418,-0.007130602536929026,-0.0010379904049576384,-0.027503007129720877,0.003094532177224863,0.00003233834929444281,0.010590195818223437,0.012845244456060662,-0.000041613984381655964,0.012433641636469132,-0.007892370422499367,0.00016918798348578224,0.0044828721863401708,-0.0005043954707056362,-0.000005271012217698619,-0.0017261564910880945,-0.0020937197458887116,0.000006782900948519409,-0.0020266302518903587,0.0012864225240694727,-0.002600471073577795,-0.06890311715372923,0.007752712717471978,0.00008101707058735812,0.026531553429859014,0.03218111312154618,-0.00010425526298119384,0.031149927071040717,-0.019772707808901343,-0.002362103628046149,-0.06258723839161508,0.0070420744238254419,0.00007359078834312001,0.02409958689836409,0.02923128998869586,-0.00009469889414765539,0.02829462572973206,-0.0179602785534715,0.0007520060888861073,0.019925452803267676,-0.002241935020220203,-0.00002342857453960687,-0.007672413636738032,-0.009306157357574377,0.00003014861167150558,-0.009007958236409906,0.005717885815819619,0.0005037855326619157,0.013348502096429653,-0.0015019219193132038,-0.000015695320926760245,-0.005139919806383396,-0.006234400905404459,0.00002019722262148732,-0.00603463071030181,0.0038305383347221409,0.0016220113285505425,0.04297745809647845,-0.0048356576554556399,-0.00005053338513697664,-0.01654872483086973,-0.020072567074048969,0.00006502791718573353,-0.019429377663961836,0.012332979354403232,-0.001035311155178052,-0.02743201666060062,0.0030865446037230727,0.00003225487789161914,0.010562860517553766,0.012812088447861301,-0.000041506570808322584,0.01240154805308449,-0.007871998720011656,0.001844240871880234,0.048865740575236588,-0.005498184466184476,-0.00005745689479700416,-0.018816042880454067,-0.022822681907283015,0.0000739373027649208,-0.022091369999922149,0.014022703909084814,-0.0015985720372354369,-0.04235640129954085,0.004765778742471948,0.00004980313947560849,0.016309583232178863,0.0197825032879279,-0.00006408821456608967,0.019148608451613749,-0.012154758468529788,-0.0002594920642754522,-0.006875605072828213,0.000773616537108222,0.000008084414820788297,0.0026474924631545257,0.003211242593482377,-0.00001040327411346643,0.00310834408420207,-0.00197305050526403,-0.0001832952813699725,-0.004856664769043105,0.0005464531689539208,0.000005710521797364066,0.001870087539338662,0.002268299095631628,-0.000007348475419165908,0.002195615519493193,-0.0013936875045845045,-0.0008939559838198161,-0.023686613748280698,0.0026651263284712437,0.000027850990452847487,0.009120670939064029,0.011062802787268912,-0.00003583951274586584,0.010708315113998007,-0.00679720326124188,-0.0013246663166650739,-0.035098886249557838,0.003949191169231767,0.00004126967055022672,0.013515034069954076,0.01639289012596101,-0.000053107083793183836,0.015867609363871956,-0.01007211358351167,0.0023436404985658686,0.062098031960314947,-0.006987030804928668,-0.00007301557384465247,-0.02391121506402005,-0.0290028067479401,0.00009395869040573329,-0.028073463824622829,0.01781989396386358,0.002385028034458537,0.06319465259312715,-0.00711041832464388,-0.00007430499288527261,-0.024333475334870046,-0.029514982017996677,0.00009561795456078395,-0.02856922735677893,0.018134584506839029,-0.0010911860700019802,-0.02891250065489897,0.00325312294683348,0.00003399564784839651,0.011132929649682308,0.013503546612066795,-0.00004374664723070936,0.013070849680605134,-0.008296844193543792,0.0013228833318487182,0.035051643573823839,-0.003943875605755107,-0.000041214122073571624,-0.013496842997805488,-0.016370825494420924,0.00005303560230169203,-0.01584625175387484,0.010058556640633239,-0.0012918700663544425,-0.03422990374084359,0.0038514166123631884,0.000040247911010805486,0.013180427207275771,0.0159870329518772,-0.00005179225213223106,0.015474757154993423,-0.009822746966359679,-0.00007361892409514306,-0.0019506363301631212,0.0002194780687538171,0.0000022935804326312329,0.0007511040741521216,0.0009110422139527199,-0.000002951449977627325,0.000881849500235783,-0.0005597622254402685,-0.0024590224856597087,-0.06515523903903814,0.007331015942005733,0.00007661027277742321,0.0250884107600336,0.030430671420838399,-0.00009858445976344082,0.029455575135070884,-0.018697202056384714,-0.0009724667274782353,-0.02576686567766661,0.0028991882440230997,0.000030296974384554483,0.009921684267516653,0.012034381801778847,-0.00003898708024243339,0.011648761621594882,-0.0073941604856426449,0.0019981694730405567,0.0529442940907222,-0.005957087561059684,-0.00006225250451261673,-0.02038651407221769,-0.02472756513283123,0.00008010844112417878,-0.023935214659072485,0.015193101567070882,0.0014711379616804898,0.038979857285436857,-0.004385863046338146,-0.00004583296053404257,-0.015009424957501702,-0.018205492706021604,0.000058979265962609316,-0.01762213034530639,0.011185812200891156,-0.0003143408354086242,-0.008328899955254052,0.0009371356663238433,0.000009793215509892796,0.0032070922666930935,0.0038900021176119586,-0.000012602211497075476,0.0037653539767919794,-0.0023900936849835486,-0.0010844657512426785,-0.028734436412813214,0.00323308784579349,0.000033786277882768396,0.011064364958446276,0.013420381934557659,-0.00004347722350718203,0.012990349866024086,-0.008245746182663968,-0.002049734823239864,-0.05431059014452434,0.006110817917968078,0.00006385901098731148,0.02091261446142911,0.025365691964841315,-0.0000821757431604786,0.024552893861283788,-0.015585179222890298,-0.0015091876422115047,-0.03998803677334918,0.004499299509887303,0.00004701838946833425,0.015397630441598384,0.01867636165197862,-0.00006050471244437065,0.018077911140432416,-0.011475123327250545,0.0013788413624136649,0.036534329835895478,-0.0041107017395327388,-0.00004295748148190085,-0.014067760126185979,-0.01706331222498544,0.00005527901091012994,-0.016516548989190355,0.010484034085533247,-0.0006432076756386837,-0.017042686718962368,0.0019175773103443583,0.00002003898531655436,0.006562387478982524,0.00795976512897598,-0.000025786783808740304,0.007704708731911692,-0.004890635992865934,0.0004453339279629827,0.011799745101085373,-0.0013276617617169894,-0.000013874274797097864,-0.0045435617507649989,-0.005511055923003141,0.000017853844346113568,-0.005334464020482793,0.0033861009739622296,-0.00032973718773759823,-0.008736847837867426,0.0009830363870495282,0.000010272885280534837,0.0033641750155040995,0.004080533656682767,-0.00001321946533901108,0.003949780274427257,-0.002507160003858175,-0.0011553928704293813,-0.03061374960816212,0.0034445409107860048,0.00003599599576046089,0.011788005637032615,0.01429811276922229,-0.00004632075656488092,0.013839955390374366,-0.00878504124256875,-0.00033871567902413484,-0.008974745518509117,0.0010098037155878439,0.000010552608085268259,0.003455778926698747,0.004191643465474188,-0.00001357942126382911,0.004057329768680542,-0.002575428052127293]}],"db":[{"row":1,"colmun":40,"elements":[0.06510307979918921,0.08139892952749919,0.03143591427023373,-0.002405843140987164,0.029686369866619063,0.0011242177337327992,-0.07350109522424983,0.0008583817086190096,-0.0014864259027111342,0.011321491171679278,0.07812862986110171,-0.075982794682474,-0.04384456736495289,0.02986101202610895,-0.02308933495406903,0.005607957595673319,0.05134214583326751,-0.005298428302546678,0.0011887900493313146,0.04479584573023509,0.005312484090844078,-0.010673686322722439,0.011193114488141096,0.0648002231444763,0.044757080281290589,0.012023483864638113,-0.002476908331706737,-0.06438160542197306,0.052600234427416198,-0.010951597353560106,0.0910429346358557,-0.019082125004507734,-0.04113382980690867,-0.08400963779824075,-0.02868960816856184,-0.04526129933869149,-0.015366106736964992,-0.031286111290284589,0.018104905425631234,-0.02358573774818106]},{"row":1,"colmun":9,"elements":[-0.002640778709447605,-0.0699711243254861,0.007872880761021554,0.00008227284559429986,0.026942795918028604,0.03267992451105486,-0.00010587123295696276,0.03163275494423186,-0.020079187321255553]}],"learningRate":0.0025}