{"weights":[{"row":8,"colmun":40,"elements":[-0.37644680478254868,-0.019786887841282208,-0.5016454362517299,-0.15381994819503903,-0.32191399632127978,-0.13477732019595793,-1.2601529197323299,0.2772937549499694,0.17137121543654328,-0.4223455695592089,-0.7041718162853943,-0.2015643840857887,0.09224592349330402,-0.43049343961426175,-0.18857382386826128,-0.5359070672072388,0.9818551883304652,-0.86548926430623,-0.6251486450785982,0.3891187773433201,-0.864821807312732,0.38978394172589228,-0.176531897238006,0.7215191566935223,0.20553128106990974,-0.14572219978592458,-1.0752377253772668,0.9891103279200741,0.4200889414160453,-1.3356194089140028,0.10424113081436476,0.5037692229993127,0.25734226331125617,0.18434493815495685,-1.281012836391354,-0.5346527669305169,0.4919856725388213,-0.40153887086916809,-0.06562282208641678,-0.3638913325797746,0.40969962925725197,-0.6771289935977339,-0.14555909417268965,-0.53941534985129,0.242585931728092,0.4802463551432701,-1.0917120013599918,0.7396185219688365,-0.24636668458169498,0.477963198027386,1.0022177888109694,-0.368311123683091,-0.3162432205694352,-0.22655383274309724,0.2702941184144431,-0.16128360366134524,-0.423061325028643,-1.4481077600524824,-0.15424149750264488,-0.10164656578243545,0.09980110477473706,-0.220476199010644,-0.18395315787723483,-0.40080674299239196,0.07050953141602334,-0.3452351833507326,1.1330584768290757,-0.5756067243318174,-1.08814118361989,0.48731652572176,0.22432740432073357,-0.6275847439705794,0.019541840236940307,0.27232525829216899,1.5285586816951742,0.08084980342415872,-0.1251416474761714,0.19794779313778916,-0.03722086407021896,0.06317237354731817,0.2884837944113151,0.11706430372149565,0.4068866955001087,0.13918067171480134,0.21445124413758885,-0.08580409218241966,0.4722127322955289,-0.029020517692029795,0.035664829350558247,0.7265894365741011,0.15995683839881245,-0.184987715339394,0.019227536574288243,-0.47006223547413758,-0.21344070435786895,0.04569554819582428,0.3909274903950008,0.26120266445829906,0.021995412228357524,-0.999806679658462,0.1943658180510221,0.15137513818096955,0.449964208878959,0.27770587609117317,-0.1274072862377869,0.1894494391980546,0.03133867763951026,0.27035600951372809,-0.47265154181794485,-0.36709869559009808,-0.052288232385542778,0.12953958709515549,0.10932543121027252,-0.5410797083525447,-0.06292014046552666,-0.2496625214819077,0.9637886310482935,-0.031907326354619649,-0.0018178808670951167,-0.5871315298941632,0.34552805347867496,-0.19671576091146684,0.23985296813544527,-0.033725718970167437,0.2571945957321938,0.22838212075520307,-0.7369368828041658,-0.3643336723785156,-0.02692704101023735,-0.15188683817283248,0.593041704246399,0.07803593110720021,-0.5112363128474281,1.7762644015282827,0.38569091214462078,0.1516720519136326,-0.44143243884050317,0.18131185946997314,0.10012560499794195,0.8000590807486997,-1.6619227636095018,-0.4219094810164695,0.15940842609597859,-0.45042258695200079,-0.759379416441129,0.4351521774840634,0.44553772574987329,-0.2825675756564661,-0.8857069826805168,-0.3460979810762979,-0.20858152191479577,0.25895351373589206,0.29906416510393776,0.1566143253589302,-0.2600527077589694,-0.4940599357063312,-1.1210909361346904,-0.4235328307844804,0.08979861016356158,0.5997437909659121,-0.3002828549302427,0.08544060962095758,-0.5926048735206222,0.5391006426385648,-0.15400299216266465,-0.03921425886679015,-0.6354535136948444,0.23998164076800608,0.21651785071968072,-0.12414720201870804,-0.05243673654290686,-0.01632980045795637,0.2442766181120959,-0.09797635876146271,0.8743983835791142,0.09646491985009664,-0.5055803923753933,-0.3955762555067636,-0.033913768126315847,0.17264377769400086,0.42402177848335928,0.32353500417392686,-0.21855307831466368,-0.4743685018143622,0.5478892920688305,-0.44184998105737219,-0.0194296047769626,-0.14458323352607423,-0.0712700946021674,-0.06241349355538988,-0.614995848910264,0.6678870765066203,0.0899219397878547,-0.14466178618892759,-0.09257758586706913,-0.20964782413944303,-0.5210885624144155,-0.1606660055364314,0.28527659136008806,-0.36421574731968806,0.3695236710892881,-0.42443044455641246,-0.22233300547527244,-0.3757428492309535,0.26004470821116018,0.22873584821636687,-0.19609829498650253,0.0617624621232968,-0.000785288940198059,0.24721869323111166,-0.05564716316777543,-0.138506494840323,-0.19911356948733206,-0.06573565219841099,0.34551344736485287,-0.03460197001289054,-0.10025097152482668,-0.10561143555395473,-0.04621355465236359,-0.1589400951658466,-0.20420031448937746,0.20339801766343705,-0.14648174731362335,-0.2681125464711498,-0.0812088514047208,0.0752098295144499,-0.02024360176959221,0.08754958987043699,0.03622983729129925,-0.014889351794459225,0.2191128193102346,-0.3152257040187142,-0.054186710487898529,-0.49632721540685678,-0.014774239723455147,0.06189292639065814,0.09713672887654383,0.11791109928474361,-0.015709929639768025,-0.06249303477025283,0.23621576762180553,-0.1544833096195104,0.22318684203895212,0.4258229554912951,0.256103455041385,0.43469101791002748,0.25622426708899956,-0.01746790899483103,0.07902874335321894,0.4126826943537009,0.05769273692983211,0.08809315402161995,-0.018958360277499317,-0.5229790804976832,-0.13411590041562705,0.25427779591546847,0.2734967658498033,-0.0389959423094683,0.20310189436186294,-0.906772444923594,-0.023922743584160474,0.1040434698921676,0.14406192041940955,0.21533468956995872,-0.008678057598503155,0.07256341542941412,-0.005900395951057016,-0.039280515527784078,-0.3746557039038282,-0.40600347975257997,-0.38965249231594986,0.2288208254481939,-0.03275972568802541,-0.23954120246241143,-0.1491894549264799,0.008525115579761348,0.8503023199838987,-0.02907058846518081,0.09622905840408429,-0.5723056039493287,-1.0682721829045663,0.501864075619973,-0.2658819987834888,0.7515987912450475,-0.8420635266794554,-0.47879055201841927,0.12367878910088465,0.1510863908011199,-0.44475143415911519,-0.18247494042394547,-0.1453259123537708,0.283256906338304,0.21758021986337365,-1.933615144711387,-0.03643677669546047,0.148695187315541,0.5502978675378922,-0.3650840250706837,0.22379691435815086,-0.2772985296545882,1.225161801713755,-0.011386950057209415,-0.12284484978457437,0.477836105142285,0.27504513824443208,-0.14904745052690034,-0.3111124020386775,0.5918196189331644,-0.1926695002562034,0.6311502240202609,-0.16833889408719608,-0.9194420382332719,-0.30060491309141737,0.7126511274987555,0.28989909534957927,0.24985009113887894,0.41793485817664879,0.851003337348189,0.2298019498293183,0.06679949240585917]},{"row":40,"colmun":9,"elements":[-0.24763534750192169,0.4654744295331681,0.46390200340053586,0.09278558781294773,-0.07358042136236739,0.7355363268355508,-0.029662161410005568,0.1639149559481459,0.14286699944907606,-0.32369880210077325,-0.44281609058106155,-0.7436408885373621,0.15868552122704278,-0.8064409205898137,-0.5284380307957239,-0.06097809164497382,-0.058217087855985619,-0.12432043147034161,0.32546197902208137,0.8087744856697561,0.5808554461783055,-0.28606675186286836,0.6066820738884878,0.2546335976855475,0.5640201735831721,0.3423911005478707,0.3961075065678629,-0.11790895075900089,0.17399829163459983,-0.1721160746287569,0.5486870087677707,-0.32563354323558765,0.1665489568309244,0.13527427153002537,0.17968324585771543,0.2287763613923723,0.767329076369293,-0.372248340110114,-0.26239133177843496,0.8124833067843966,0.2002265534922798,-0.4372660328335859,0.916085743842144,0.5528058678138068,0.414485700252286,-0.033315865196462037,-0.018014945706042588,-0.02719569244474723,0.8005482775366121,-0.545659238317561,0.11561677016505477,0.4933168076048034,0.5795988995910872,0.3867479451190795,0.39357784041131668,0.5073995825100551,0.442988100646081,0.5094568624182334,0.5568604024276329,0.45864190715526217,0.47252330592568528,0.475973529932307,0.5574151846329454,0.4804701817501432,0.7366462222301496,0.6863529951603077,-0.5393402314342733,-0.6673021095320663,0.4261842733363883,0.41267866835266117,0.04815739532325783,-0.3443369675592587,-0.5877486773884402,-0.587974387512714,0.5211965547304311,-0.8627382152456607,0.9177951850309697,0.44978634141668685,0.5476990105259443,-0.2454361928243915,0.1665839817538954,0.3970128350324871,0.5596146416476026,0.4890055684963334,0.3902465922958861,0.5632992438019983,0.558132563818665,0.46587650618157,0.521517928604166,0.48620471074662349,-0.6483383611374379,-0.6168500855930649,-0.08934737337333541,0.1753419190828421,0.032667765729529,-0.28746845207222646,-0.19818414332069723,0.32097738253087945,0.08232985021630959,0.1285892933614206,0.2683068972837456,-0.09973910572574818,-0.12886813884653174,-0.62240275036603,0.07936873643035568,0.3490130364664672,-0.10934447195033984,-0.37783001517468658,-0.4923013300472156,0.6080158641494539,0.530949120463173,-0.3825781797629513,-0.3287785464572642,0.3377027261240254,0.1551345710197321,0.08316478832040383,0.14564877223958179,0.6770490197711027,0.6907214748811095,0.689685986681209,0.7334618361580796,0.6408970791541806,0.700151397159766,0.6482550265955605,0.6571661571226094,0.6816297052242035,0.4080771519985573,0.7231451752468777,0.4508765149858787,0.5158097494259757,0.06431762627465884,0.5573445076618963,0.38954468770795616,-0.07109257010108984,0.47875420830559659,-0.2213199004537323,0.8862389773927405,-0.5153904338792086,0.5134787531841522,0.7130088896997845,0.7824898962799988,-0.09046673292216523,-0.61051978002065,0.5146749167798154,0.779945980521602,0.4193890766091129,0.2548189219878978,-0.0059748385916241959,0.34798726561408996,0.11943345049753372,0.7211231869415322,0.4607811086836693,0.74878528193128,-0.4411409187612395,-0.39589314097130209,-0.3612668919621568,-0.8142630854959776,-0.8323053184236208,-0.45729204350206878,-0.3918162577030471,-0.5857750158322208,-0.7374212823720207,0.5732349700582488,-0.36379448363430685,0.9188817122820497,0.25308799022303288,-0.0627944998480784,-0.7314686401207859,-0.08808198233705718,0.5467884412333152,-0.4989335407259252,0.6130123174971933,0.5452909170659247,0.5362022732237932,0.5759074990246307,0.43762704190103227,0.47692403916584277,0.5328638274492824,0.6218045501334366,0.5383698616324434,0.5454318889013062,0.5785761608088152,0.5288910932725512,0.6172012583720823,0.5215748406543813,0.50928153572383,0.6636363041840042,0.6004978299672891,0.6421877235841752,0.04568307994967341,0.09730094473159305,-0.025857656152071818,0.7368443114033983,-0.4797235249819026,-0.07445509122217668,0.08733757408728184,0.23004529836642449,-0.05605620237892313,0.36934298229168396,-0.1650119273806543,0.2547190684199511,0.886545375368009,-0.32867082928420968,0.8296197727671073,0.11293468966106393,0.15179911873842209,0.2910402223285762,-0.15633933282157642,0.45221707434502536,0.30651418521987108,0.5215259160148719,0.030515898927192574,0.47837475697137696,-0.2282641250545561,-0.4305030312431482,-0.13666760548754437,0.39193415265995976,-0.7383782121102243,-0.4666589652561485,-0.3628732198230094,0.3835619399241656,-0.5676914439129702,-1.0356474217166399,-0.19655737648916833,-0.44847159133862826,0.9125686045261059,0.34386640135111559,0.3508449333381366,-0.5644734503183031,0.2381420883796319,0.061838139949868798,-0.37088399573869948,0.4464221375039402,-0.03906341315679801,-0.18187672094636973,-0.20526666439466649,-0.4016185492188203,-0.6902939277179951,-0.5173682444873996,-0.32677533792308158,-0.41122333449834999,-0.7300236757140427,-0.6250416748850407,0.23525679980023388,0.1285933358565435,0.5050354662813703,0.5175554075109228,0.6318190773072515,0.501176397165724,0.2555695551623077,0.53414887603201,0.21553914067378536,0.06149142914327897,0.07706814297534394,0.33301521749553839,0.2859779789111004,0.27415806313617849,0.22823369780818129,0.3002612205058649,0.3933623147228903,0.3115130627221994,-0.5067620336250489,-0.49902600346919587,-0.5538356182555578,-0.5556783846201922,-0.5430127951067947,-0.5570164443308762,-0.6018007797240489,-0.5423711853034293,-0.6053907613797724,-0.650869433688042,0.09996929024484644,-0.7769148265384644,0.4542119246213038,-0.6680935036667051,-0.05654298183743933,-0.2824267315899187,-0.37847504090209857,-0.29590627626530927,0.25823068204561469,-0.0901851137416293,0.002523270285141287,0.05573045034613207,0.13682267873432928,-0.09314247521509937,0.24606239628927946,0.2028433564647327,0.10858483239487094,1.0524396962936942,0.7901513797451831,-0.7768265267105994,0.13896717737490339,0.0022757384228873037,-0.37050564198642368,-0.022570891819303209,0.3656152694998905,-0.2171641528981525,0.07915227128545333,0.0029502324283805817,0.06885569259365651,0.4646127644834213,-0.08274917885893349,0.23260134316719698,0.36142956485090896,0.18319469621640126,0.20939682654550716,0.6410010683253222,0.5863821256866846,0.6315894503248531,0.719063705097397,0.6616344052975085,0.6063426177289663,0.6646215736121575,0.6727013582351065,0.6598320829282585,0.46863196190875219,0.3701057899109162,-0.2659835871938223,0.04164275745211728,0.0541210646411409,0.4602817881114054,-0.36050563433385998,0.17765736647131456,0.051349269058827588,-0.482551465178073,-0.5237142100889641,-0.47213989600709457,-0.5338728427467181,-0.43346284599412146,-0.46140301653024975,-0.40024368233133669,-0.5399119146924508,-0.45871591219103566,0.18454252151438506,-0.6050451691585999,-0.5509447991078952,-0.4019273209298932,-0.3371667545966773,-0.8011448211967729,0.2710871694347338,-0.002432867065115291,-0.16825494688175963,-0.6089095548811776,-0.05491202223487898,-0.04657990260987916,-0.7445212996734506,0.2743096821101284,0.5759624344131257,-0.22928281893788617,0.4122951749682619,-0.2558189229086172,0.22197608210186624,0.19890525605388907,0.41903559243582935,0.3547118739282849,0.42448148021338719,0.5352446435289685,0.47584336614658448,0.28390037426576705,0.5059276461625675]}],"biases":[{"row":1,"colmun":40,"elements":[-0.9338890058853308,-0.8526407109575748,-0.9759975532065343,0.6358396989982026,-0.7842887740445015,0.8932389822557783,0.5531170333097765,-0.6534052744552358,-1.3985988026622936,0.18836845984140947,-0.1514402861634468,0.460476054673326,-1.1785522988495696,1.5135784809107634,0.5531269355969057,-0.000882283050789719,-0.3467282728157595,0.6732006754655392,-0.03570416739251348,0.2946503873173712,-1.117947446021523,-0.6886282778967865,-0.5239794738747261,-0.3826820028647862,-1.0924228065778348,0.8634569459837646,-0.3135035752749603,-0.05910149011532176,0.15917174239641339,-1.3017910334185659,-0.4620031948737209,-0.4959251996756047,-0.0069783525676050069,1.219277103149027,-0.30987302130668195,-0.08270426161231616,1.523107995185844,0.19639723489575112,0.2730470550555265,-0.5485182621582959]},{"row":1,"colmun":9,"elements":[-0.6876557678468213,-0.4488753229508809,0.4572492858244604,-0.7114260684670919,0.5620734378032629,0.1301229224911176,0.16778484035086206,-0.5704369548603027,-0.11778862131655708]}],"inputSize":8,"hiddenSize":40,"hiddenLayers":1,"outputSize":9,"v":[{"row":1,"colmun":40,"elements":[-0.6590064808412519,-0.04406850338508017,0.1183061327120617,1.291823013364124,-0.481509808840901,0.5037492522636816,2.70306134134502,-1.530245024779469,-1.2126645574656956,0.5248513873693944,0.16039925378632359,0.760737553230445,-0.9578824122477236,2.795610721860001,0.2535787817547582,0.5862800984925658,-0.979480446105709,2.820862078287612,0.5870399520066024,-0.17086270792245096,-0.6043432660271708,-1.0350984858688393,0.25417514492059226,-0.6626807929879525,-1.4707805351530224,1.3246546683560204,0.1880784154271672,-0.7530147721657217,0.09203310767792672,-0.8035805160157828,-0.9055562272650262,0.2314116296289696,0.04401309012817566,0.7585685733318557,-0.22099281718027426,-0.07023434708270264,1.2205699354174529,-0.06549521796801589,0.31317521783554716,-0.48964597638875709]},{"row":1,"colmun":9,"elements":[0.05942960818149434,0.0343911123284425,-0.01115356486823954,-0.021127113638648388,0.033271010610521848,-0.028477053345216636,0.013023695025036975,0.0317427402315924,0.011863468366228134]}],"y":[{"row":1,"colmun":40,"elements":[-0.577701850328169,-0.04403999803240279,0.1177572544290231,0.8596032411755907,-0.4474519507541483,0.46506063456054916,0.9910620986743738,-0.910466514917839,-0.8374769897188741,0.4814356393786934,0.15903768445462233,0.6415111896381404,-0.7433308236082439,0.992566792300521,0.24827980996340408,0.5272149431122302,-0.7528409062663788,0.9929315739605986,0.5277633712804825,-0.16921917218865904,-0.5401329270430494,-0.7759451143121565,0.24883932868425794,-0.5801447033091132,-0.8997262443174506,0.8679368181751681,0.18589168776179927,-0.6369440798751533,0.09177414203686017,-0.6660337197801737,-0.7189925414281557,0.22736743527279558,0.043984692115785439,0.6402330479325979,-0.21746413165266707,-0.07011908901565955,0.839822215263661,-0.06540172843498338,0.3033229493777257,-0.4539354034125797]},{"row":1,"colmun":9,"elements":[0.059359740836614448,0.034377560059908388,-0.011153102382626472,-0.021123970802660639,0.03325873948302026,-0.0284693580897888,0.013022958729896192,0.031732083181964448,0.011862911835271974]}],"lastInputs":[-0.9359999299049377,-0.6319993495941163,0.7790231704711914,0.12727445363998414,0.12599991261959077,-1.0000000238418579,-0.2558877170085907,-0.3562292456626892],"dw":[{"row":8,"colmun":40,"elements":[0.00013940399023471204,-0.0008376822235391103,0.0006037738685633546,0.0001586289367395868,0.0004707911901087354,0.0005420890134242705,0.0011167520490196002,0.00016673670102383106,0.00003770241479410909,0.0018257477385378997,-0.0003627064528287155,-0.0002221922094284506,0.00007654769457517751,0.0010984162478725375,0.0011419825548634946,0.0009002837514176549,0.001581585160417287,-0.0014780906134197348,0.00007664345427588911,0.001925586489568456,0.001675569452742139,0.00014727864092593546,0.0007343952341222967,0.00021310188937576047,-0.0006572337609335296,0.00026063748839349387,-0.0015178038674730519,0.0014508216690442863,0.0009283327884672526,-0.0007187779676707587,-0.0006817721530488073,0.00031262246863863346,0.0003978370293790515,0.00011890060129738519,0.0023181641042161846,0.000355061451284093,-0.00025438017931571984,-0.0007844802497521398,-0.0002825087580573303,0.0009999995144179444,0.00009293857162696515,-0.0005584703077863505,0.00040252707856846295,0.00010575555817634277,0.0003138695002172888,0.00036140270100946806,0.0007445220192235526,0.00011116088431081778,0.000025135640464467484,0.0012171989244008223,-0.00024181100977832898,-0.00014813224884130844,0.000051033212056384304,0.0007322978126899024,0.0007613428230657473,0.0006002058174579298,0.0010544193567781115,-0.0009854210780851014,0.00005109705362783845,0.0012837599381722175,0.0011170772898066878,0.00009818848438822384,0.0004896104046524024,0.00014207186735648485,-0.0004381679955024044,0.00017376314582492742,-0.0010118973152441653,0.0009672412775229917,0.0006189056942298382,-0.0004791986048590113,-0.00045452737739223805,0.00020842076073182295,0.0002652320438500423,0.0000792692664791073,0.001545485608267104,0.00023671420069526847,-0.00016959149071708133,-0.0005230013413444912,-0.00018834439675470882,0.0006666848369346065,-0.000053108990703313034,0.0003191333142427614,-0.0002300208245004027,-0.000060433153401095316,-0.000179358172578769,-0.00020652063349008046,-0.0004254510512176104,-0.00006352198304845044,-0.000014363557265624116,-0.0006955584234665606,0.00013818093441141227,0.00008464896854828928,-0.000029162513875738816,-0.0004184656278375652,-0.0004350631627364212,-0.0003429827317272758,-0.0006025393637562045,0.0005631108586963261,-0.000029198995622396726,-0.0007335941733140704,-0.0006383447298646931,-0.00005610901064282754,-0.00027978388277042726,-0.00008118581284983607,0.00025038753654435086,-0.00009929553612288333,0.0005782404890373574,-0.0005527221595573237,-0.000353668624185561,0.0002738341444782204,0.0002597359722421407,-0.00011910034822261308,-0.0001515646938021764,-0.000045297777476019346,-0.0008831551783581243,-0.00013526840432330958,0.00009691167774781288,0.00029886486190870075,0.00010762787334860149,-0.0003809716266020903,0.0005671433779399817,-0.003407979392113182,0.0024563597552148569,0.0006453570724198343,0.0019153404820988186,0.002205404549037355,0.004543331423555363,0.0006783422460577296,0.00015338639049587992,0.007427769735696088,-0.001475614596910475,-0.0009039543272400623,0.00031142234882796125,0.004468735078197728,0.004645977798937792,0.003662663938269029,0.006434432392276358,-0.00601338097987608,0.0003118119322253996,0.007833948112752898,0.006816792817775446,0.0005991801653059564,0.0029877723953373,0.0008669717788025465,-0.002673852984010393,0.0010603629446789792,-0.006174948156072868,0.005902441535460533,0.0037767770679828116,-0.0029242359841154888,-0.0027736836027038964,0.0012718557236785745,0.0016185378648900418,0.00048372853994607407,0.0094310888696284,0.0014445121012568465,-0.001034906059254048,-0.0031915354648208947,-0.0011493427919279697,0.004068341957719041,-0.0005854968178420998,0.003518265692533365,-0.002535850502879177,-0.0006662416012793385,-0.0019773231972245424,-0.0022767740852517026,-0.004690359077374593,-0.0007002942146962594,-0.00015835015805320271,-0.007668141272689149,0.0015233672550151255,0.000933207373408955,-0.0003215003495341518,-0.004613348704815561,-0.004796327212571258,-0.003781192136053593,-0.006642658341497232,0.006207981200412156,-0.00032190254031757025,-0.008087464069169368,-0.0070373924089417419,-0.0006185703540699126,-0.0030844602933750226,-0.0008950280253497271,0.0027603820734046575,-0.0010946775612937184,0.006374776884203008,-0.0060934516225223359,-0.0038989981035041957,0.0030188677676849589,0.0028634433306489236,-0.0013130145002713428,-0.001670915691358652,-0.0004993825756488045,-0.009736290216435939,-0.0014912582452999942,0.0010683968605252339,0.003294817380166237,0.0011865369031158727,-0.004199998382754764,0.0020260048911949614,-0.012174316382908765,0.008774847899443179,0.002305407479214562,0.006842166083523549,0.00787836123493651,0.016230131646564048,0.0024232403337037195,0.0005479418247219304,0.026534203519842059,-0.00527133438764347,-0.003229193815252529,0.0011124932891654828,0.01596365130589818,0.01659681504035348,0.01308412535942849,0.022985706976190343,-0.021481586053424704,0.001113884996975958,0.027985193535107319,0.0243516121818093,0.002140449827742393,0.010673211963996945,0.0030970811486188884,-0.009551798424620908,0.0037879319338342848,-0.02205875207874306,0.021085277349567924,0.013491771411454076,-0.010446240998785417,-0.009908423097730397,0.004543447066995092,0.005781898825588497,0.001728022271019192,0.03369065552447224,0.005160227019077333,-0.0036969923647735697,-0.011401114274904909,-0.004105794422856087,0.014533327948448206,-0.000004882882248698037,0.000029341367147972237,-0.000021148294966822592,-0.0000055562715101013138,-0.000016490331023917522,-0.000018987668978534748,-0.00003911630325053034,-0.0000058402609298697768,-0.0000013205967176495133,-0.00006395018684972659,0.000012704463459214305,0.000007782692542663136,-0.0000026812243924336575,-0.00003847405794760962,-0.000040000048320548765,-0.000031534101292130235,-0.00005539794156252805,0.000051772853890930265,-0.0000026845785528271878,-0.0000674472235150221,-0.00005868991499798568,-0.0000051587064342908119,-0.000025723549564015884,-0.000007464287292242895,0.00002302082644194127,-0.00000912930945003133,0.00005316388396782036,-0.00005081770874617919,-0.00003251657062368923,0.00002517652596016488,0.000023880328950223463,-0.000010950179403685672,-0.00001393497679197721,-0.000004164713179708965,-0.0000811979795914597,-0.00001243668315916224,0.000008910135641813666,0.000027477869747627304,0.000009895391068055508,-0.000035026830074496565,-0.0008340373873085838,0.005011752475227473,-0.003612306785579988,-0.0009490579410752036,-0.0028166873380387326,-0.003243253680786581,-0.006681393837203737,-0.000997565724311247,-0.00022556903484010374,-0.01092323018280102,0.0021700292923315467,0.0013293493932276422,-0.00045797569409945945,-0.006571692933684707,-0.006832344933647142,-0.005386289923297922,-0.009462434703479536,0.008843239216799483,-0.00045854861292665,-0.011520553479799037,-0.01002473147480357,-0.0008811504798206253,-0.004393798780708921,-0.0012749630964381503,0.00393215092263193,-0.0015593628954836926,0.009080838862235623,-0.00868009238661715,-0.00555410395457479,0.004300362544872255,0.0040789611854810899,-0.0018703828098343828,-0.0023802113268009629,-0.0007113680654945681,-0.01386929835779965,-0.002124290163175261,0.0015219261642536748,0.004693451434186715,0.001690216083952938,-0.005982877397632173]},{"row":40,"colmun":9,"elements":[0.01019542730988061,0.010310570128392783,0.0079929057562684,0.012993258887742582,0.013941494826406057,0.010030752500041363,0.014258380887040724,0.012959828639576838,0.01624069317403884,0.005623461478188511,0.005686970459687084,0.004408623224218045,0.007166653109334614,0.007689668782070592,0.005532632283745471,0.00786445268281274,0.00714821408691285,0.008957830767404685,0.008897973064964505,0.008998462987221368,0.006975740983524191,0.011339756941545787,0.012167321847362151,0.00875425451566861,0.012443881480076849,0.011310580974841028,0.01417392778416491,-0.008975031230538437,-0.009076391414933796,-0.007036152247953145,-0.01143796142717302,-0.012272693204935384,-0.00883006805084337,-0.012551647897492722,-0.011408532790960642,-0.01429667673676915,0.00927896190935089,0.009383754557528995,0.007274424681108776,0.01182529683487196,0.0126882959901314,0.009129089692965496,0.012976697211273326,0.011794871626597516,0.014780819750175444,-0.0067949048368117748,-0.0068716436012257269,-0.005326999284357098,-0.008659564231967784,-0.009291531168735504,-0.006685154688253179,-0.00950272492851426,-0.008637284110884767,-0.010823868509611762,-0.007290597166485148,-0.0073729340691839118,-0.0057156070351420729,-0.009291284568188768,-0.009969353867047833,-0.0071728406796293209,-0.01019595433660567,-0.009267379099085392,-0.011613476123914299,0.006263861258119071,0.006334602642281564,0.004910677226639247,0.007982791548596222,0.008565368244915179,0.0061626884352261519,0.008760056535863398,0.00796225269034437,0.009977948514161102,0.010413290368629837,0.010530893639840226,0.00816370378595641,0.013270907978689543,0.014239406489556633,0.010245096671677759,0.014563063994324687,0.013236763369477541,0.0165877357239548,-0.0007267511288598491,-0.000734958746921402,-0.000569750840713558,-0.0009261863458222984,-0.0009937785631863816,-0.00071501276809203,-0.001016366856475767,-0.0009238033686449737,-0.0011576701730059598,0.002621424119236223,0.0026510293679845649,0.002055116994650947,0.0033407959471006898,0.0035846041254916098,0.002579083322208041,0.0036660811187700008,0.003332200440881072,0.004175768558349817,-0.006008167010232059,-0.0060760206923410509,-0.00471022069218873,-0.007656929624625379,-0.008215725221066254,-0.005911124117391897,-0.008402466229328113,-0.007637229173818511,-0.009570643189912928,0.008636122301184369,0.008733654992316454,0.00677045792735712,0.011006049029131838,0.011809260242137096,0.008496633120940027,0.012077681240296666,0.01097773165675074,0.01375681550601453,-0.008748135178976515,-0.00884693289589581,-0.0068582726258949009,-0.011148800507385619,-0.011962429590391547,-0.0086068367857596,-0.012234332082607724,-0.011120115850908568,-0.013935245180855167,-0.00497189095355051,-0.005028041374746901,-0.0038978116967848814,-0.006336278446956393,-0.006798694149798338,-0.0048915858155281,-0.006953226460243912,-0.006319975888625254,-0.00791991870641259,-0.0006347545621896265,-0.000641923210166072,-0.0004976283229469179,-0.0008089440595307521,-0.0008679800439779652,-0.0006245021143376496,-0.0008877089740726576,-0.0008068627340606786,-0.0010111252595908899,0.0026330393535061739,0.002662775779768794,0.0020642229859973539,0.0033555986367108626,0.0036004871016102346,0.0025905109491873399,0.003682325110245734,0.003346965044773762,0.004194270917318139,-0.0065686263284769458,-0.006642809599685316,-0.005149603797457152,-0.008371190321766165,-0.008982111999004417,-0.006462530991943211,-0.009186272752423253,-0.008349652155528029,-0.01046342066235148,-0.0003538075494646903,-0.00035780330140504975,-0.00027737438684761274,-0.0004508995010123164,-0.00048380572686983794,-0.00034809291003301844,-0.0004948024881790982,-0.00044973938542107916,-0.0005635938228842998,-0.002477069661194565,-0.002505044632107704,-0.0019419474782044918,-0.003156827704483009,-0.003387210051777205,-0.002437060452848734,-0.0034642003360483588,-0.003148705528630966,-0.003945820720941648,0.005616401537650014,0.005679830787183714,0.0044030884449828108,0.0071576557782409119,0.007680014834128968,0.005525686374167159,0.007854579303485108,0.007139239904977792,0.008946584713205312,0.006975319483407522,0.00705409577408482,0.005468438894827645,0.00888948830862589,0.009538234890479947,0.006862655308127204,0.00975503615300507,0.008866616617790559,0.011111258025559229,0.0055111654511627639,0.005573406209107142,0.004320586545269795,0.007023540779967462,0.007536112248124419,0.0054221500430706149,0.007707405854193519,0.007005469970072491,0.008778950053123952,0.0022406563736022875,0.002265961393424635,0.0017566066317817654,0.002855537826498996,0.0030639323189579827,0.0022044656725141175,0.003133574595822502,0.002848190836878356,0.0035692287891516945,0.00806934135263881,0.008160473060868364,0.006326118855684987,0.01028373191840556,0.0110342291010494,0.007939006721986695,0.011285033870230188,0.01025727298973551,0.012853968062504395,-0.007094155069565094,-0.007174273438795241,-0.005561602389772861,-0.00904093478449116,-0.009700733789177713,-0.006979571482085773,-0.009921228603686106,-0.009017673438272547,-0.011300555858232883,0.004493231928184108,0.004543976577987909,0.0035225575399107308,0.005726265698445802,0.006144163238740682,0.004420658009421499,0.0062838182548536698,0.005711532636862413,0.0071574441058211558,-0.00011740940689692634,-0.00011873537878795763,-0.0000920454136647158,-0.0001496289241540321,-0.00016054870375453346,-0.000115513030103052,-0.00016419792838261383,-0.0001492439451344913,-0.0001870260161936449,-0.002421794310708374,-0.002449145025329375,-0.0018986132800730743,-0.0030863836792206489,-0.0033116250871250429,-0.002382677900433036,-0.003386897347469059,-0.0030784427482176974,-0.0038577704627181699,0.00940231010759687,0.00950849579784891,0.0073711259270516659,0.011982494274904061,0.01285696555300752,0.009250445592068654,0.01314920058350736,0.011951664614638265,0.014977305898366805,0.006637709692754889,0.006712673162088703,0.00520376305956718,0.008459231559236383,0.009076578404030747,0.006530498533457698,0.009282886350940944,0.00843746687242763,0.010573466243430864,0.005114593162774122,0.005172355202010493,0.00400968590027513,0.00651814103024393,0.006993828895124769,0.005031983122911574,0.007152796560710477,0.006501370559178665,0.008147234612339568,0.0008057906857905692,0.0008148909429816401,0.0006317154558653141,0.0010269159566918738,0.0011018593272915953,0.0007927756915269935,0.0011269042644340357,0.001024273813133112,0.001283575361058233,-0.010548068314603305,-0.010667193710595814,-0.008269365607422723,-0.013442671720528429,-0.014423705389386144,-0.010377697707164877,-0.01475155195372589,-0.013408085181807812,-0.01680242876237811,0.0025671274038682027,0.0025961194486130818,0.0020125500167675455,0.0032715991142374847,0.003510357372178926,0.0025256635981623419,0.0035901467586787669,0.003263181643975966,0.0040892772061143349,0.00022549031310370132,0.00022803690476767114,0.00017677756574681946,0.00028736941824842785,0.00030834137089019633,0.00022184823187430954,0.00031534987920072696,0.0002866300478525718,0.00035919230038412647,-0.010767283282859778,-0.010888884399441324,-0.008441223493157369,-0.013722043712309907,-0.014723465689070353,-0.010593371952495832,-0.015058125716506013,-0.013686738379705747,-0.017151624821591814,-0.00377713123952678,-0.0038197885528095697,-0.002961156321259509,-0.004813652489149686,-0.005164948366949413,-0.00371612365743121,-0.005282346118177928,-0.0048012674825330839,-0.006016739433744221,-0.003901977461758616,-0.003946044735160924,-0.003059031972568222,-0.004972759041264752,-0.0053356663671311889,-0.0038389533846913,-0.005456944488092695,-0.004959964670718134,-0.006215611842676032,0.006460075689773617,0.006533033036250075,0.005064503389345998,0.008232851191072222,0.008833677007327422,0.006355733644714882,0.009034463877216655,0.00821166895643755,0.010290506122975753]}],"db":[{"row":1,"colmun":40,"elements":[-0.004646800066865796,0.02792274314243102,-0.020125797318199073,-0.005287631671140053,-0.015693040995410205,-0.01806963530660746,-0.03722507144393515,-0.005557890503435495,-0.0012567472659232667,-0.06085826309012979,0.012090216115187319,0.00740640760634477,-0.0025515900346286255,-0.03661387802075727,-0.03806608837641369,-0.030009460914584779,-0.05271950979887374,0.04926969127431963,-0.002554782024921877,-0.06418622173882754,-0.05585231980756968,-0.004909288445404406,-0.02447984320448573,-0.00710339691233557,0.021907793881009876,-0.00868791701339009,0.05059346652120966,-0.04836072638505176,-0.03094442889518665,0.023959267612143774,0.022725740353919795,-0.01042074983454833,-0.013261235432412621,-0.003963353711244751,-0.07727214333205924,-0.011835382708848458,0.008479340026518732,0.02614934386645299,0.009416959397078246,-0.03333331996192746]},{"row":1,"colmun":9,"elements":[-0.01163306926272701,-0.01176444819782663,-0.009119973439760471,-0.014825418885892951,-0.015907364155728664,-0.011445173904301979,-0.016268933845719318,-0.014787274688444222,-0.018530769022814403]}],"learningRate":0.00025}