{"weights":[{"row":8,"colmun":40,"elements":[0.09064342058271857,0.1081232345498422,-0.08678403029777193,-0.2909519866647814,-0.45620814572815995,1.3540553218707579,0.3624240404881437,-0.16895631510426255,0.03898252839526842,0.05985427632012252,-0.31101787292256896,-1.1290310966069728,-0.7212905723503659,0.3252466540170472,0.5388299822608454,0.2998990304925664,-0.40396870886738647,0.11566233097028432,0.3284314763926101,-0.058810632610847689,-0.8568360625503096,-0.12893445671562829,-0.499783283445462,-0.32709839185207059,-1.4900388760347126,0.3275948548902992,-0.9451815164629452,-0.008990391783840472,-0.08940153870793062,-0.6890988219854862,0.3124739675653302,0.11951794159708793,0.007540558851447866,0.09492253212641365,-0.7843700484224807,0.13183172417668727,0.05886425074562507,0.1699359756596309,0.07225832605711297,0.0622682391405226,-0.23428388130033077,0.1258139184167966,-0.03636227884493342,0.05778629041496124,-0.23267540076201796,0.5242249428466727,-0.18587740840595316,-0.6731975675370006,0.5666382252671476,-0.12378083542577199,0.10136158525003629,-0.654256120942659,-0.0020135328218878736,-0.2524013458716332,0.17372617942670963,-0.04728631281557765,-0.0012415767010579623,-0.06437499853074388,-0.033683084943417849,0.05786520811523408,-0.6304968555354761,0.2364853777621928,-0.6989386008269388,0.15523933604615035,-0.3614507691124296,0.03839073325278873,-0.012946854707821729,0.4712536049091231,0.040539507545043877,0.17701372606418495,-0.2721740478987135,0.15913724505826819,-0.5249007969292353,0.13878932391807734,-0.9036647071632611,0.21285486379285166,-0.08462811810823455,0.07247347426002619,0.13767340806266485,0.12984291121301379,0.2193376176962124,-0.35075175758231866,1.0603467085348136,0.20161501137083413,-0.05706798894984046,-0.06987751963268084,-0.2852523653350011,-0.13993600442080346,0.1122928985140647,0.7804904954086211,0.10171381930507069,-0.02797015627680038,0.14020416971797407,-0.6187204860232858,0.05935056552115236,-0.31286492784826766,0.18404957266114545,1.098303425782298,0.06422115686247644,-0.7025816306922147,-0.08457238196659453,0.19336514903767847,0.1364620725804819,0.2503706651424218,-0.0023384732094468136,0.3477332101879449,0.28575919939807617,0.10240682310776275,0.09942244079341066,-0.10096942971989341,-0.4569207724337725,-0.20510846434106259,-0.08601407992510114,-0.05870483268403108,-0.07302097120853589,0.24501026204635535,0.8466099239837654,0.2415839405571114,-0.24692667282967729,-0.10564236312990502,0.9734962450168495,-0.8633643102581627,0.7586192539192397,0.46435118181312187,-0.19905661390201288,0.08155986707333181,-1.2361966397894573,-0.39245046239900158,0.43791762488609578,-0.034505939666117087,0.4027893722149106,0.5201028388822789,-0.3409153890695997,0.6128315047692038,-0.6993418699533796,0.4592671603301224,0.7080870327674332,0.5517810559535972,-0.12022455769613708,0.10584987878822896,0.284679816012828,-0.2928334712711799,0.8767799132066331,0.5930779868084274,0.4166426522350619,-0.6036894052151206,0.29420257665626567,-0.5859396736307339,1.2172442295923527,0.21906786425909106,0.8777080070390378,0.30985240346382306,0.3543970375313995,-0.016508771928041629,-0.23127164749590838,-0.5702092366323508,-0.05347769294314306,1.436302193105689,-0.1002167776149298,-0.4024179828410524,0.4679441923672646,-0.45704837319101718,0.3907829384274142,-0.349828123201335,0.43766414808173295,-1.3254314144366173,-0.7920009149400782,-0.4263335688918449,0.24529590677371553,-0.7276219194002062,-0.029795115940867,-1.5103909875767204,-0.42959885917448939,0.7658840116755074,-0.07159008388687514,-0.6590487867707591,0.5543275540502048,-1.0036386108541922,0.17206262770329629,0.5854565415600016,-1.3048568559624013,-0.4733784375443934,0.9097558940450051,-0.03937379592515019,1.2724816607609067,-0.47672733622905819,0.004416544790034975,-0.4759683376625308,-0.2748581977147152,-0.28421486501360029,0.41959318422265759,-0.27492793335930379,0.22675889668972455,0.38389804227608018,-1.2981278582612884,0.0629569325183862,0.3635483042267312,-0.27192646163346148,0.2307994719022504,-0.012830423580759495,-0.028733230813536006,0.14567246487922215,-0.11332139241016494,-0.004457059894986011,0.15120377142322168,-0.31589436227101527,0.20329473773214658,-0.7536417900931749,0.6232696313802673,-0.009225605054447459,-0.0035994615045933295,-1.0381997763246227,0.4891426661693137,0.6951693562072384,-0.04794749543232473,-0.24219809446354249,-0.038806363691832868,-0.10005682197635066,-0.29004713048139837,-0.05338108281850909,-0.7447253229242252,-0.04480371446584404,0.7352568021848635,0.45682762089146636,0.1383441969396313,-0.5128700793468242,0.5095991246958256,-0.17348964831544978,-0.16603523142526639,0.2820885794555084,0.25604724205178688,0.10594125137052628,0.1512563990578948,-0.16296133197041377,-0.6524320826084836,0.05235937759034696,0.044908531166755059,-0.25072790925834517,-0.1283707349166037,-0.17032964740623239,-0.009335399838672073,-0.06715910569737992,1.1083170512232439,0.34850843554307328,-0.09171261451629898,-0.21868020235253153,-0.6069898904170283,-0.1626699179234442,0.0017492564202351623,0.6788485588963892,0.27035474418848928,-0.10844199207427384,-0.034371522143378008,-0.49890573309477606,-0.16642568933928168,-0.19575178531146965,0.33700850754486336,0.9306127859352817,0.12220263632085259,-0.5347390671991087,-0.2150975853241688,0.2628927183328781,-0.041109070530605657,-0.1749151335512586,0.2660816254517903,0.3232384766174169,0.0765345477939981,0.223645209862945,-0.08447677124354008,0.042490300156750777,-0.49674089628486348,-0.27741667144539108,-0.3317121917804266,0.1026423140775328,-0.20126121470679937,0.12397739532854704,0.5982919635726615,-0.08655735422041358,-0.25498365387177737,0.24656593896949684,0.7318028477626999,-0.62589321356183,-0.2235263790786421,-0.08486275663194419,0.09113490928448236,0.7758030262149862,-1.3746066618883004,-0.8480550388066896,0.7850408301738888,-0.6174062327296659,0.006546607040008398,-0.04398899571038713,-0.08663902703005903,0.4325094848233859,-0.4273483706735019,0.5366452709972284,0.6527358762394787,-0.0023675464695109666,-0.4672050817948486,0.5421986563046855,-0.2077005149698782,-0.3304952310136487,-0.22893417335901779,0.6973479452573302,0.24895294678368863,-0.8339782099512301,0.7897301968535291,-0.3548812090471881,0.44166509981330295,0.2296123774425711,0.24454746577496873,0.24419224883319014,0.389480079004552,-0.04991967193924222,-0.6588839365416105,-0.45945386196372586,-0.9078431763615349,1.175275303519168,0.4901826170742418,-0.5411781957120002]},{"row":40,"colmun":9,"elements":[-0.0985989541347068,0.4857412641564901,0.6964253693454319,0.8087754310630244,1.0962038360268183,0.5821945267368461,-0.21522157911128479,0.8746093338180339,0.8303726462272881,-1.1921524602339857,-0.6024426731865029,-0.4944471197392463,-0.364618222464339,0.18262101146055269,-0.5217453311535594,-1.0280938554816035,-0.24809162512109435,-0.12342655009635262,0.41910264577452085,0.3751491652987894,0.41378326487910468,0.44178238329702276,0.43725838534465708,0.44937295847106908,0.3658836535842966,0.3585461556065866,0.44319798890507186,1.2529859152829302,0.10409935837531384,-0.43354390010736396,-0.45548289506102976,0.8678681957966411,0.8023507155587213,0.49573838262558286,-0.2221354830607427,0.3443409471909238,-0.6267732747554686,0.4676641310196837,-0.46453587559684209,-0.11909724385022015,0.054381163440384617,-0.2138076587956374,0.08005240964128198,-0.3617253695665676,-0.12544156928827975,-0.4940273417480537,-0.5514848981643628,-0.38742280051722779,-0.5919540518383258,-0.6132922883826663,-0.3983800508046049,-0.6448683289055119,-0.5534911076041302,-0.5891358594649783,-0.5370216816016841,-0.32383019438065538,-0.543659079636341,-0.5138383676428828,-0.30525278302430788,-0.7075681416039495,-0.30900089644178166,-0.6195750122318554,-0.4660138210198269,-0.014876836007880815,0.29201699868371247,0.7817896343730301,0.08327002980881504,-0.051777846109805947,0.5630258822355614,0.5959933477791587,0.6488028010217274,0.6823446516312149,-0.22982209518502756,0.18435472759804023,0.8468323138527958,-0.19967209638308568,-0.4199724253232786,0.620425155991604,0.525439365198424,0.7877436982869132,0.7242210783261525,-0.7774701010584827,-0.04722322495091439,-0.22823700506107587,-0.2325024239445729,-0.8230259777434176,-0.5646448881029454,-0.7905856216374417,-0.7651349005243763,-0.0965553979210492,-0.8684067467261369,0.23304940420498863,0.674608389982684,0.515210400995278,-0.679948739093713,-0.06920897149275872,-0.5990786216425625,0.4722769729212687,-0.06926776180437656,-0.5853088811762751,-0.6204378774586502,-0.4359131193166409,-0.5308050595389185,-0.5438997309274403,-0.3235596879726546,-0.35289351188939307,-0.3911198188473916,-0.5847273047858415,0.2123885289280869,0.594208106114127,0.42368448376191805,0.1945134979032265,0.23483436869987293,0.01509143948694701,0.24567672699798386,0.1401480186492783,0.28917349829355346,-0.10746317950727641,-0.4100330873607584,-0.39152501151280369,-0.3143109350298316,-0.3721220396948427,-0.2511524036809919,-0.2587610121117518,-0.2599393622426407,-0.32403361489725637,0.048005312079482009,-0.2481754065721442,-0.21335034359337755,-0.6160592044716641,-0.19976133531156788,-0.4733996853474857,0.14267570906692804,-0.6998521340063629,-0.547312898490682,0.04845556407914534,0.10749342048748348,-0.2956061044356262,0.17476198811634745,0.2726204419421479,-0.17925176583097097,0.4394898673693557,0.15071294133211877,0.1314272093760636,0.023256486903061016,0.3907357648962472,-0.28552491490910417,-0.11506369429703202,0.46947327843504185,-0.8534983704737758,0.6718723256324956,-0.6994894850462342,-0.05201824979371066,0.4665954965397038,0.5214964624973645,0.7100783985090855,0.5812175071610499,0.46498306493573779,0.5257655938716421,0.497549655424813,0.5849326252120544,0.4947662626803917,0.26279214680762066,-0.28670459082081686,-0.24604123212859423,-0.5471033507863083,-0.24275266366877502,0.2702963781171054,-0.2491059149405974,0.6358723749627054,-0.011379997184993867,-0.18135129077894139,0.5847083544379786,0.8834743814421278,0.7509756067104142,-0.34800147956708207,0.21124794832767333,-0.3841993589354741,0.05014576460997359,0.6520633360570582,-0.16920517429085628,0.08271771605454256,-0.30267721423172108,-0.10359141388813495,-0.05772616256726657,-0.5536449157464473,-0.5602671999371764,-0.446275405583781,0.061064905032634519,-0.7059273469493685,-0.5146788591954454,0.49918636025050597,0.517793208161755,-0.560641541999893,-0.3131596401245051,-0.43403765368435057,0.5805820681098759,-0.15376100154506254,-0.0796542321329062,-0.32009281705182326,-0.19249616570777268,-0.2102869160301005,-0.23214266872937515,-0.10920518924679426,-0.22338360133772193,-0.2576845398632539,-0.230956971442377,0.4518246724069801,0.06237186117206441,0.16929400941018755,0.793337770695356,1.0504250046117259,-0.34031035982984056,0.33662608046040756,-0.42047778287941808,0.010866864087086224,-0.42682208201776086,-0.5973056010477948,-0.34338101563876996,-0.5404423768222432,-0.6076945293544032,-0.3124886267179014,-0.6349586803893894,-0.4787520535750321,-0.5580345274214159,-0.623486121902244,-0.2812544392076677,-0.6201119253001358,-0.21392957312797659,-0.45909195400623278,-0.5877912664400957,-0.3711469292392132,-0.8052553640291886,-0.12428675962846118,-0.48691972788057238,-0.10100288962727619,-0.3233555498625927,-0.6508780520103996,-0.6839649514740323,-0.1817750592824317,-0.5442846038270264,0.05287878010112258,-0.5421392607112298,0.7639673912644156,-0.6009548325409774,0.04089335278843832,-0.42810508609039696,-0.16691623852470229,0.3628546056443608,0.045101962229099758,-0.5867692443744977,-0.4819396258348902,-0.33824393147623285,0.031085028546429376,0.17079893302588754,-0.06883526964357827,-0.15231547525030993,-0.41848946193956995,0.2705704885379178,0.12193229246081283,-0.012231176995230454,0.09900431136290101,-0.7178668053904181,-0.6702939509700794,-0.40065015209192297,0.05069642558814175,0.03088857285726853,0.1520765953915145,-0.07553054354951093,0.050819291023714689,0.38233703970705376,0.7080943757242754,0.31750031834592398,0.3750500000695347,0.7542383224204032,0.4863546103793911,0.3891545459591708,0.18507817181193088,0.5412426387328795,-0.039462838255096398,0.7564705064393001,0.38005402456263179,-0.1343118077819209,-0.16651192154572065,0.4832501103081778,-0.19230754194392003,0.21778875085849923,-0.3393241815746057,-0.08198263257321072,-0.6002634221679201,0.522815474980613,-0.23651598935769134,-0.19112578848816717,0.1870807410114234,-0.21682136698709937,-0.16547792919534039,-0.5753556180810643,0.3422612217750066,-0.6983480546226849,-0.5195648494693406,-0.23770929844253534,0.4772319848926803,-0.37354380137369877,0.2721627696824855,0.06026828280338476,-0.5699454868366546,0.7228459780570982,0.4851634484408148,0.5700991522029418,0.574330245805734,0.5548614959146966,0.7304296309418944,0.727511426106824,0.6892801741296106,0.3986794287447407,-0.4517015539512526,-0.022280527402014674,-0.44234236921320815,0.23935687103519349,0.18809808128468079,0.0338932305361769,-0.2570918406599702,0.3378737404825204,0.4392546277320623,-0.4706740364362137,-0.34885123513879709,-0.559594638006745,-0.6566417709889614,-0.6110492337429323,-0.4915658055453173,-0.4132451139338588,-0.6357067341785727,-0.6622499022628314,-0.3623992096953365,-0.48736887022894256,-0.4646643961948518,-0.4585206863506889,-0.4346861752175994,-0.16876347948799193,-0.7118256643954597,-0.4729624541056097,-0.48147952403663865,0.44627416491646579,0.5298915426974068,-0.04218083254771652,-0.21999975426652877,0.4966779965944382,0.23147135854891347,0.5256937286796022,0.04293761819271544,0.27373952631969686,-0.7156982754343401,0.2105094657722561,0.3904004884254123,-0.27047412655728828,0.1457707127025027,-0.7510504369650671,-0.32500323948531548,-0.949800880648841,-1.0513241377299565]}],"biases":[{"row":1,"colmun":40,"elements":[1.853004787554184,-1.6576971983781768,0.5250980206772042,-0.5339473874630812,-1.1508925672777409,-0.427513821003108,0.7235518862355932,-0.07111601748026522,0.05975607180211563,-0.8322310367154646,-0.2629320870582213,0.14447778523473715,0.08700325967446278,0.053944485329381678,0.7851306133058054,-0.005103913486394832,-0.4082247538211851,-1.0392816761643063,0.17666115319003715,0.6843866108880674,0.17182557102147626,-0.5224196276272901,0.4307078673845382,0.08229620825409355,0.2186307169433047,1.534404839935681,0.20494975467979863,-0.2713054102371087,-0.3004022183694525,-0.02007581570483735,-1.3017966111586206,-0.24890056130251168,0.2742781102820446,-1.1646821151102134,0.44843385949216066,0.06266723505687194,0.4240534934652992,-0.415554759547711,0.8586176541360339,-0.052312393068712808]},{"row":1,"colmun":9,"elements":[-0.5757382912442668,-0.32571315938441089,-0.7042397505225404,-0.23021760949690443,0.563498562612001,-0.3812473685314048,-0.018450213237967945,-0.07382910511630925,-0.6791170206886974]}],"inputSize":8,"hiddenSize":40,"hiddenLayers":1,"outputSize":9,"v":[{"row":1,"colmun":40,"elements":[1.1902821510128852,-1.2266417184998027,1.4454001865985103,0.010023414349716542,-1.940719145368563,1.000036181083282,1.3511088640904179,-0.2910687945947089,0.2313251190711918,0.6627250471971298,-0.057234751108464907,0.28646518808456397,0.3390663343995137,-1.4786543493046996,1.312934614401958,0.0001952090859291787,-0.9335690212600323,0.8196265744378497,0.37828169332221897,-0.6354946738620126,0.2428291270933267,0.38746044669168669,-0.8662040178155699,0.05414979436637711,-1.4938089982328622,2.70988352033884,-0.13053407413829469,0.8277847822906614,-0.1801940845172147,0.02671204989820203,-2.388990955156335,-0.1915327134226903,-0.7320320884938214,-1.280385762230125,0.4465810666212593,0.669231875077789,1.299784400247105,-0.37965645626769986,0.37396497964741806,0.3040204812845018]},{"row":1,"colmun":9,"elements":[-0.12651044749491309,-0.15248986119955766,-0.10568313501492899,-0.09836084237517498,-0.12863184195204958,-0.10295509607702286,-0.15472277513970948,-0.09293489190583793,-0.10780385555141858]}],"y":[{"row":1,"colmun":40,"elements":[0.8306663539946178,-0.8416024617786172,0.8947795767103786,0.010023078682951254,-0.9595909907429252,0.7616093506636937,0.8743147604916667,-0.2831182342389759,0.22728539534704626,0.5801740622192939,-0.05717233603949594,0.2788781376714425,0.32664360216206037,-0.9012155667678299,0.8650160718197623,0.00019520908344959474,-0.7322535553940667,0.6748665752856556,0.36121428652391848,-0.5618241217735523,0.23816619189972072,0.36916883838498906,-0.6994403506235197,0.05409693035549368,-0.9040232083978901,0.9911826884001336,-0.12979769631302377,0.679284745875722,-0.17826879117442816,0.026705698395870674,-0.9833144549125228,-0.18922446668707552,-0.624306986343438,-0.8565876615358415,0.4190845891362443,0.5844743843908788,0.8616676464669886,-0.36240908215905739,0.3574549609394255,0.2949875794948081]},{"row":1,"colmun":9,"elements":[-0.1258398118100693,-0.15131879545180028,-0.10529142922442618,-0.09804485619428723,-0.12792705225741064,-0.10259286566525404,-0.15349984095722975,-0.09266825675356538,-0.10738816751672685]}],"lastInputs":[0.26399993896484377,1.0000000238418579,0.7926794290542603,0.02110435627400875,-0.7379999160766602,-0.003998661041259677,0.2884644567966461,-0.40838488936424258],"dw":[{"row":8,"colmun":40,"elements":[0.00012109506400608763,-0.0001353559135503033,0.0008321373882403346,0.00028730938058697667,-0.00011153560141615395,-0.0013289153210658243,-0.0012229360747872205,0.0010939472456553172,0.0009664845848722228,-0.0004932427029336956,0.00024486401920125297,-0.0011776646074669836,0.0006842328095274716,-0.0007668621923139278,-0.00046798017783751024,0.00016083531898307104,-0.0002516983063432211,0.0006110393826427492,-0.00018816533817043877,0.0004432345825281183,-0.0006990389470587818,0.000037756358908327065,-0.000510035788114353,0.0005412275492830404,-0.0012720438300834209,-0.00019498389319458063,-0.0009375846018345119,-0.00034743029919840084,-0.000001073702054359188,-0.0006056573928160275,0.0002130217737325437,0.0003725233720844985,-0.00018308229380505363,-0.00018521944357847205,0.0015993703370639444,-0.00007845463513943604,-0.0013835552081370453,-0.0012065827910385308,0.0001812235079649551,-0.0007638527412542861,0.001395476445946654,-0.0015598157590431947,0.009589392718951588,0.003310898562211365,-0.0012853150203786389,-0.015314166968124864,-0.01409288232572576,0.012606439634430266,0.011137584216412944,-0.0056840349334505708,0.0028217663045126256,-0.013571182561682048,0.00788496853341181,-0.00883717379766447,-0.005392914407389403,0.0018534355727819704,-0.0029005233274328426,0.007041501427183483,-0.0021683815068402284,0.0051077508817031,-0.008055591641380531,0.00043509708652228663,-0.005877555247566802,0.006237003160458682,-0.014658790741495,-0.00224695723583198,-0.010804546318060986,-0.004003720573740263,-0.000012373137907152498,-0.006979480401824951,0.0024548223344809359,0.004292888364817293,-0.002109805472021499,-0.0021344335788295169,0.01843083904399518,-0.0009040962677629692,-0.015943826616459008,-0.013904430199518276,0.0020883851781457205,-0.00880249345702938,0.000028489912479007712,-0.000031845048039038274,0.0001957761165251573,0.00006759498559668286,-0.000026240867443448976,-0.0003126525552459715,-0.00028771892582143244,0.0002573718552541889,0.00022738384476129843,-0.00011604470878172004,0.00005760890861704371,-0.0002770679537745044,0.00016097875680319424,-0.00018041888760540612,-0.00011010122021018855,0.00003783956182665404,-0.0000592168043981739,0.00014375861374369214,-0.00004426946762907853,0.00010427934918355381,-0.0001644621817130483,0.000008882900138441361,-0.00011999560084306286,0.0001273340547516164,-0.0002992724574365522,-0.000045873662130857195,-0.0002205845751614426,-0.00008173957293767401,-2.526087897000183e-7,-0.00014249239847402185,0.00005011741592917493,0.00008764319466017746,-0.00004307358495388167,-0.00004357639000625078,0.0003762822316373042,-0.00001845794217163675,-0.00032550762587414916,-0.00028387150539543453,0.00004263627030083385,-0.0001797108571171053,0.00002595126422128389,-0.000029007433996488868,0.00017833111042039174,0.00006157180484657259,-0.000023902624654336915,-0.00028479305005328545,-0.0002620811794686157,0.00023443824279014143,0.00020712237144988868,-0.0001057043225841896,0.00005247555639640106,-0.0002523792827005226,0.00014663443613214635,-0.00016434231681855592,-0.0001002904399536394,0.000034467795143444706,-0.00005394017754211862,0.00013094872692560785,-0.00004032475186521896,0.00009498733790354502,-0.0001498074637887681,0.000008091372295854802,-0.0001093031628357779,0.00011598770974328105,-0.00027260521150465134,-0.0000417860015411758,-0.00020092896379980847,-0.0000744560116217797,-2.3009959932148718e-7,-0.0001297953401944815,0.0000456516075233412,0.0000798335798152968,-0.00003923543060792984,-0.00003969343225238704,0.00034275288217151237,-0.000016813211856311302,-0.0002965026449739759,-0.000258576590813982,0.00003883708371523772,-0.0001636973767439889,0.0,0.0,0.0,0.0,0.0,0.0,0.0,0.0,0.0,0.0,0.0,0.0,0.0,0.0,0.0,0.0,0.0,0.0,0.0,0.0,0.0,0.0,0.0,0.0,0.0,0.0,0.0,0.0,0.0,0.0,0.0,0.0,0.0,0.0,0.0,0.0,0.0,0.0,0.0,0.0,-0.0011532863394161108,0.0012891039559540204,-0.007925118090087747,-0.002736279852004596,0.0010622438373321644,0.012656336561735853,0.011647010393093793,-0.010418545337180162,-0.009204615218117817,0.004697549615081859,-0.002332038309547718,0.011215853555659633,-0.006516503035736194,0.007303449549073963,0.0044569541347316229,-0.001531764963347174,0.0023971267593963657,-0.00581942277029318,0.001792050863878899,-0.004221281795274364,0.006657513871268827,-0.0003595843754034134,0.004857483761815782,-0.005154548157903542,0.012114703306982092,0.0018569894840319436,0.008929377280714574,0.0033088600369757827,0.00001022573398890326,0.005768165723633355,-0.002028778824804799,-0.003547841686731997,0.0017436409168892348,0.0017639947245295346,-0.01523209865358724,0.0007471870114015397,0.013176716445620388,0.011491264831482702,-0.0017259381943639139,0.007274788110024295,-0.0000042780777651423259,0.000004781888749082036,-0.000029397965040058268,-0.000010150140163798656,0.000003940358596418411,0.00004694826443564103,0.00004320420219171468,-0.000038647251449005644,-0.00003414421757675284,0.000017425405878915638,-0.000008650619450315515,0.00004160484007627506,-0.000024172753800049075,0.000027091906022706155,0.000016532924853430507,-0.000005682031779234698,0.00000889206291543629,-0.000021586957469867025,0.000006647553771117978,-0.00001565870605725399,0.0000246958288591378,-0.0000013338664202723188,0.000018018676338856928,-0.000019120626951019644,0.00004493909368174407,0.000006888441447908127,0.00003312323149559923,0.000012274107538047167,3.79320240906827e-8,0.000021396821140208184,-0.000007525688360431943,-0.000013160602111993744,0.000006467978664095507,0.0000065434804444651899,-0.00005650296924470414,0.0000027716656572021987,0.00004887859650894112,0.00004262646915059902,-0.000006402310996813154,0.000026985587356712553,0.0006487815921060772,-0.0007251858349050764,0.004458277668249276,0.0015392950893098248,-0.0005975656039922771,-0.007119826103992987,-0.006552029351126346,0.005860955948465705,0.005178059179091393,-0.002642608009918065,0.0013118888827615275,-0.006309481936943345,0.0036658608274415789,-0.004108557835440555,-0.0025072609469552105,0.0008616948607540266,-0.0013485044106467373,0.003273718105393199,-0.0010081187757682562,0.0023746833984464377,-0.00374518651721554,0.00020228430321025698,-0.0027325790143458937,0.002899692683575188,-0.006815130146582574,-0.0010446500169111924,-0.005023223991043579,-0.0018614002520242919,-0.0000057524898639939679,-0.003244883437711751,0.001141290164465436,0.001995839454080107,-0.0009808857448995942,-0.0009923357857740748,0.008568821876962842,-0.00042033028770938096,-0.0074125659709522299,-0.006464414636573621,0.000970927072788378,-0.004092434333910043]},{"row":40,"colmun":9,"elements":[0.003972677833963141,0.0055062233046383368,0.011954988223750718,0.008589107555790146,0.004195605331203677,0.006351830619359587,0.007699303571508275,0.007855348366771296,0.0038152994773437357,-0.003924154164107383,-0.0054389683766141818,-0.011808965836347599,-0.008484197206446018,-0.004144358747301028,-0.006274247149258257,-0.00760526159774711,-0.007759400407565422,-0.003768698081515274,0.0019618797433615428,0.0027192106723183714,0.005903889066409489,0.004241671948124702,0.0020719709612638476,0.0031368080539653428,0.003802248343874493,0.0038793099974186757,0.0018841595196737525,-0.002010711081959973,-0.0027868920363315048,-0.006050837322042856,-0.004347247491082012,-0.002123542478793373,-0.0032148834491162266,-0.0038968865993248135,-0.003975866323387795,-0.0019310563958915577,-0.0035964997632679997,-0.004984831803458104,-0.010822954720619336,-0.0077757937044359019,-0.0037983179636257369,-0.005750367453294261,-0.0069702464256040379,-0.007111515134691075,-0.0034540237694971819,0.0007553834763048478,0.0010469789585276157,0.0022731771719408249,0.0016331729364967157,0.0007977719494878101,0.0012077666739376322,0.001463981460376888,0.0014936525449278013,0.000725458822183143,0.000995794404515252,0.0013801940620240105,0.002996646311835602,0.002152952139917937,0.001051673578121247,0.0015921546255556773,0.0019299132060562074,0.0019690275114368756,0.0009563458276451085,-0.0011997543447402799,-0.001662887253623526,-0.003610423412677083,-0.0025939226733673276,-0.0012670787653338305,-0.0019182618629380942,-0.0023252006071119819,-0.0023723263567739297,-0.0011522258576558253,0.0010847864284703104,0.0015035390642386608,0.00326445020705585,0.0023453568848541565,0.0011456594047464,0.0017344420916582625,0.002102385436755418,0.0021449953042577839,0.0010418124163477669,-0.0031873578600158079,-0.004417751668408773,-0.009591723083005429,-0.006891210569460662,-0.003366216992379539,-0.0050961991121006408,-0.006177303265191569,-0.006302501085272532,-0.003061090097329696,-0.0008963167095097747,-0.0012423156773616349,-0.0026972878634486747,-0.0019378769041413277,-0.000946613675218306,-0.001433101841643231,-0.0017371190746284869,-0.0017723259459812408,-0.000860808959662252,0.0007792664406519133,0.0010800812991572534,0.0023450482295625785,0.001684808975989857,0.0008229951104707717,0.001245952640824715,0.001510268171854855,0.001540877367281498,0.0007483956585436883,-0.0006615758354277193,-0.0009169593999480308,-0.0019908816300279457,-0.0014303566119107366,-0.0006987002767720074,-0.0010577796197246775,-0.001282176256273659,-0.001308162623682489,-0.0006353673881006786,-0.0009568335896527118,-0.001326193472061797,-0.0028794014451898866,-0.0020687171117324905,-0.001010526470458041,-0.00152986100217565,-0.001854404656519288,-0.0018919886006090075,-0.0009189284525659809,0.0027730604663124666,0.0038435259044271709,0.008344977016533426,0.005995481033030663,0.0029286712294523014,0.004433787766194817,0.005374368434751376,0.005483292860743913,0.0026632051704051399,0.0008320467215694426,0.001153235988502786,0.002503880046082128,0.0017989223092558544,0.0008787371658941533,0.0013303419163819318,0.0016125597299317268,0.0016452421083532983,0.0007990850390107209,-0.0010369929601076838,-0.0014372962123622828,-0.0031206252166268105,-0.0022420252638700969,-0.0010951839977187655,-0.0016580261252902374,-0.0020097586401616339,-0.0020504912041681567,-0.0009959122949471686,-0.0031757471173408664,-0.004401658910683905,-0.009556782849301794,-0.006866107623335733,-0.003353954710890274,-0.00507763494105065,-0.0061548009037413679,-0.006279542659666291,-0.0030499393163424838,0.0007555574569837281,0.0010472200997700336,0.0022737007323839579,0.001633549090523291,0.0007979556931222916,0.0012080448479677136,0.0014643186460532156,0.001493996564478042,0.0007256259105857124,0.0028592966751955905,0.003963051283252621,0.008604487831340722,0.006181927582249537,0.00301974659797064,0.0045716690178277679,0.005541499719692447,0.005653811460771141,0.0027460251161523288,0.0003467065080755189,0.00048054323416674876,0.0010433446643232179,0.0007495950118820247,0.00036616200317293436,0.0005543417075248683,0.0006719393737568734,0.0006855578317165085,0.00033297166655283126,-0.0018188109386055895,-0.002520914001951798,-0.0054733517946928878,-0.003932350779057907,-0.0019208738260188797,-0.002908058366045778,-0.003524971855453572,-0.003596413838015173,-0.00174675841169993,-0.0010725988169560713,-0.0014866467529684477,-0.0032277740006736619,-0.0023190067224400157,-0.001132787883324093,-0.001714955577214232,-0.0020787650666218239,-0.002120896210849116,-0.00103010761928549,0.000519157032446805,0.0007195636470661772,0.0015623004100957532,0.001122440775818474,0.0005482896182630411,0.0008300692059043192,0.001006159512840177,0.00102655174101054,0.0004985905319630803,-0.00006169237197053973,-0.00008550705354421509,-0.0001856509919072119,-0.00013338167361488977,-0.00006515424999262557,-0.00009863862956953561,-0.00011956376018886622,-0.00012198700565597457,-0.00005924841740828646,0.003807349057726427,0.005277073799269617,0.01145746397044743,0.008231659330559237,0.004020999102364791,0.006087489933542135,0.007378885835524242,0.007528436599275726,0.0036565202307173997,0.0005690183025334904,0.0007886725199284614,0.0017123480408428247,0.001230243076820971,0.0006009488620627296,0.0009097913367424032,0.0011027938413468457,0.0011251445952289372,0.0005464765387454744,-0.00024274841515343283,-0.00033645491442945314,-0.0007305033445408665,-0.000524832954971948,-0.0002563702840567252,-0.0003881253100844556,-0.0004704619447845565,-0.00047999698093050333,-0.00023313189243361773,-0.0004403352244406716,-0.0006103147992369708,-0.001325101768305056,-0.0009520244936526642,-0.0004650447109971189,-0.0007040426831175015,-0.0008533978107192308,-0.0008706939577557485,-0.0004228912642504799,-0.00009779111362935193,-0.0001355407438904519,-0.0002942830153081116,-0.0002114287712389397,-0.00010327867872395419,-0.00015635614459895148,-0.00018952542891632491,-0.00019336661487265297,-0.00009391710083541347,-0.0037223589993156979,-0.005159275613803145,-0.011201703199022747,-0.008047907014521466,-0.0039312398122660929,-0.005951601125559967,-0.007214169669851267,-0.007360382066682908,-0.003574897068964465,-0.0006294970308977646,-0.0008724974353815346,-0.0018943468123518222,-0.0013610007985564777,-0.0006648213646302061,-0.0010064894972023216,-0.0012200054826519774,-0.0012447318106882802,-0.0006045593912602071,0.00020911674622669203,0.0002898406439152085,0.0006292954885886591,0.00045211977918333153,0.00022085136826647994,0.0003343523455005324,0.0004052816207044837,0.00041349562174228244,0.00020083254820252894,-0.0032239106546489177,-0.004468414686672629,-0.009701721489029728,-0.006970239349968465,-0.003404820953345605,-0.0051546426028334728,-0.006248144917605793,-0.006374778513149356,-0.0030961948463397697,0.0003650723375866061,0.0005059986983874856,0.0010986129958368823,0.0007893027585493816,0.00038555843435341715,0.0005837064441368188,0.0007075335252733988,0.0007218733838161348,0.00035060993037971006,0.00018219533752596295,0.000252526949179039,0.0005482808336291041,0.00039391448679664155,0.00019241926010441144,0.0002913082741591131,0.0003531062098550268,0.0003602627514449482,0.00017497763601530478,0.000698908877435025,0.0009687038591076093,0.002103228036207297,0.001511072322216823,0.0007381282688273419,0.0011174706314922433,0.0013545300779716468,0.0013819828685690806,0.0006712214748429781,0.000028359887537147607,0.00003930745965327459,0.00008534347251492733,0.00006131534811209998,0.000029951307484828677,0.00004534402474824991,0.00005496327478045366,0.00005607723695644056,0.00002723640542230042,0.0032972681101779254,0.004570089815662346,0.00992247624278199,0.007128841457134346,0.0034822948750590106,0.005271932287943082,0.006390316355350546,0.00651983139499994,0.003166646232894788,-0.0001885463222014064,-0.0002613295607395243,-0.0005673928659099608,-0.00040764560035339844,-0.00019912663137294976,-0.00030146272931771875,-0.00036541482410413524,-0.00037282082919067483,-0.00018107702527503359]}],"db":[{"row":1,"colmun":40,"elements":[0.0028832158485402779,-0.0032227598898850516,0.01981279522521937,0.006840699630011491,-0.0026556095933304116,-0.03164084140433964,-0.02911752598273449,0.02604636334295041,0.023011538045294549,-0.01174387403770465,0.005830095773869296,-0.028039633889149087,0.01629125758934049,-0.018258623872684913,-0.011142385336829059,0.003829412408367936,-0.005992816898490915,0.014548556925732955,-0.004480127159697249,0.010553204488185912,-0.016643784678172074,0.0008989609385085338,-0.012143709404539457,0.012886370394758857,-0.030286758267455237,-0.00464247371007986,-0.02232344320178644,-0.008272150092439458,-0.000025564334972258154,-0.01442041430908339,0.005071947062011998,0.008869604216829995,-0.004359102292223088,-0.004409986811323837,0.038080246633968108,-0.0018679675285038498,-0.032941791114050978,-0.028728162078706759,0.004314845485909786,-0.018186970275060743]},{"row":1,"colmun":9,"elements":[0.004143489258553759,0.005742971887354662,0.01246901142291504,0.008958409512526709,0.004376001868148118,0.006624937395744915,0.008030347030447152,0.0081931012129026,0.003979344176209939]}],"learningRate":0.00025}