{"weights":[{"row":8,"colmun":40,"elements":[0.03151162098172284,-0.12455818128355295,0.36129478672783779,0.6220756318718649,-0.1951363359868518,0.14758259121495455,-0.13256548965409679,0.10241668956378819,0.3690363454503991,0.20865650836356787,0.3704522080242399,0.021246827328170165,-0.09679571234240508,-1.1758110830935354,-0.14709081724877766,-0.15963949073144394,-0.04793395492933617,-0.42173104879509878,0.03095243941748806,-0.10847149240248248,0.036252668612781879,-0.1036829259717805,-0.12366349151633049,-0.40274337988596878,0.26310541742424478,-0.010419455218972829,0.9192033283756509,0.4216891197593846,-0.05726910223092699,-0.007976887732484449,0.031333865447312519,0.01650180150448458,-0.7927415047533594,-0.21950111491375208,-0.054252154753477738,-0.26170239662094316,-0.296411401625249,-0.05323324841264493,0.024514399712718628,-0.09963515636223168,0.1001574550970272,-0.1169554138352052,0.3556183486945394,-0.06517465919123115,0.2583146318823637,-0.05277246500572302,0.3636417818766707,-0.13918188631954868,0.23233231143118852,0.1317276271860821,0.26159643988088879,-0.003232016918292789,0.007230030731407786,0.11117623440551423,0.19313364682937565,0.4790286939073736,-0.08501761637834893,0.6789744401477811,-0.005752786658714603,0.07613757832812329,-0.0577975468392637,0.17569233675671654,0.028571533997210249,-0.4921423571624431,0.11292256579936332,-0.06651747908777199,-0.12428432725149316,-0.1648665124545547,-0.22057437199122824,0.002877195267998993,-0.3897983569481277,0.33322631548807288,-0.1904597543556413,0.068691758096607,-0.05403093156916685,0.1957771304566156,0.1664631980545485,-0.05555930930919894,0.00949347262774163,-0.21060979114523999,0.5677706945712396,1.272989528317645,0.29848329014276067,-0.928214296910327,-1.5943365871955398,0.40261478365205707,0.3966657755838057,-0.6049695072583998,-1.0022766555906593,-0.8960169696091794,3.720354689922339,-0.007428315023348005,1.3260581023645244,-0.16674605290383869,-1.2837542193240568,-0.26099369477005876,-1.6761021302466726,3.6316143829644829,1.0784545099142476,0.8280635753591592,-0.8569917883106082,1.1514990165750719,1.2045843855154195,1.4911605864004074,-0.5960986715838681,1.3237092156319517,-0.1646003741051233,0.6158766842083189,-3.1456409708080157,-0.0007665186806626507,0.001865208938493118,1.3062008998524209,1.5613366465961463,1.6116270411726617,-0.2373759348351794,0.3221678268901122,1.1742418349495894,-0.6670551820215627,-1.285183395348124,1.2898001217161726,-0.21146564972971358,0.10003894426681043,0.4983535224376263,0.5268807933552505,-0.3481547908336267,0.28713340396729239,0.6840587291348905,1.637145925490525,-0.6446527755955518,-0.011432511967606139,-0.6619656589039618,-0.033994164829809148,-0.40361216072784969,0.336378398752482,0.5173768974187009,1.3423301799812917,1.2885655836624917,0.3604872160193031,0.9952585788509308,0.7945375709213568,-0.3264752911314919,-1.2970970089787355,0.2847467604472755,3.6555972026106686,-0.4386709198568908,-0.4722983576622241,1.402565515581537,-0.037799350662478508,1.9614401959988146,-0.024144841669171109,-0.24636001306816497,-0.3425328620203817,-0.701777007025131,0.5269407002458072,0.06779906031470887,1.4707882615606328,0.33520063387529377,0.30050547350223519,-1.2292204498253868,-0.2841717571876588,-0.06962938616748943,0.4653239397151924,0.7568208797067466,-0.06678644862010407,0.05925598461918666,0.11769259454647734,0.15933402370489695,0.17546697479669236,0.17668034736267058,-0.33045954180019457,-0.8902263710082673,0.0038334379689872945,0.07637678765045393,1.1910166240087406,-0.023502043044420934,-0.3888461512634055,-0.1700214555733875,0.20209581541121153,-0.04888420426937491,0.04835997693461116,0.041327361774059687,0.058514973186576949,-0.03139787906295394,-0.36196875151469828,-0.23286503864725903,0.06480483212886161,0.08374499828871308,0.013271024930608736,-0.40200755011846958,0.0026587247840694175,-0.08423710525353845,-0.09529833168077359,-0.5143228700031105,-0.1302855746957205,0.13895387144356664,-0.30325777934249,-0.08378762683936937,-0.07861732610329342,0.03515460223097434,0.1175378837293836,0.07363958141366785,0.04014721214062269,-0.3467302468964665,0.04964659044329014,0.12790140612610419,-0.04435146482499276,0.11592379312789564,-0.039075826953780017,-0.18392542095284634,-0.10119956331312863,0.8000541325033088,0.0006298252519344868,0.10383805025626428,-0.3184839373468003,-0.046818902712409678,-0.2534309738562734,-0.1224141067535848,0.8864674144121055,-0.13106235737908246,0.04059298049421461,-0.2568260125549557,0.015798021191171596,0.05847816361710298,-0.07922405996252943,0.07055067505757246,0.09128974695173121,-0.02376032742873143,-0.1348927190430756,-0.2694675462707111,-0.0011068461633681085,0.07827316395085572,0.21608853759130493,0.06378615313695484,0.11397757177676674,-0.051394521380987417,0.28223336732045009,-0.3252627161364894,0.18690045931207978,0.22693495421566957,0.12910888686557804,0.11196860187149788,2.3104324203887045,3.6594876909244578,2.6483495210847947,-1.2204774744833132,0.7035813463321132,2.529383777283461,-0.3521577346155042,1.6330403094978639,-5.811974326891512,1.7014046993576362,0.01855900493868325,1.4711238423189044,-1.4207728637978503,-2.2724222303744625,-3.7949760922601198,-2.4972813986121826,2.191147870705263,1.3959362486478729,3.482626075447044,-5.621567902231073,-3.740410165181725,1.8104796494941909,0.06173677544307057,-3.26697983030365,1.7299543710858195,0.605907386847462,-1.466959190342736,0.8569646964868446,0.02831875046448332,-2.6698693525695744,0.20068857214162806,-0.6836263828065526,3.026659576792901,0.04153456269483208,4.191342958719285,1.501164424241332,-1.925671479014513,-2.141474182246717,4.02425863195675,-0.4037341658034236,1.355088592931861,-1.4120330453071235,-0.9235085571247602,-0.14636152602205433,0.17891002733684636,1.954209647915694,1.672670131028015,-0.03168488411019043,0.5098192469372659,0.7140511105985388,0.011416662815982047,-0.5102194460238316,0.8308542881696339,0.7308414980839949,0.2586371598076243,2.7747531943493599,1.3500700982071694,1.4441391731782763,2.498631853387073,-1.3521468918360267,-0.8393102181195942,0.09783724680985415,1.324761861910089,2.5029954760488266,-0.6199650520821409,3.0093613508839205,2.788956661807533,-0.0649661260424813,-0.04726526604162823,-0.25729692597891887,-0.7268121265145108,-2.5223750754454725,0.40745604584708686,0.30127790256719036,-1.7576061156140417,0.28161707831299495,2.500016964077355,-1.8608859419697599,-1.6090229435383177]},{"row":40,"colmun":9,"elements":[-0.505357146741957,0.06758465966706616,-0.28371902923025379,-0.2837819175738583,-0.3429984636676297,0.007209615733967293,0.17006460090534257,0.025826811740999234,0.1293181132120644,0.2525772743889287,0.23014116071589234,0.23693035472299008,0.24380100333873989,0.21688212266086666,0.22442402562722145,0.21548251054773863,0.2088453656767263,0.23450820751008015,-0.019602679531128633,0.0006913065781622147,-0.01850167959169207,-0.010688238936875598,-0.019732887239935889,-0.007575449206502561,-0.0044004166667236869,-0.0017145303638436156,0.00022308482977547185,-0.08654077992574459,-0.10053014123418304,-0.08360884833713252,-0.09079951765212313,-0.07342981783936155,-0.09334389694661209,-0.09330081464062873,-0.08355224308981312,-0.09873098924421016,-0.20462377767456597,-0.24758381044850048,-0.28392100126588257,-0.20360673700526217,-0.30807161384430478,-0.33376047033778657,-0.17503678435475879,-0.2480752144951251,-0.23969305928819624,0.03217764202293768,-0.013277452134758608,0.012330436937219613,-0.1933746235621302,0.10588664647501664,0.11035171264213763,-0.02790969274439608,-0.1734463809575043,-0.25837117288304575,0.2602381697931479,0.2782726587920854,0.2682148096712942,0.24909676227241327,0.2788446857280537,0.29324902135501226,0.2638185656639726,0.2584265014152687,0.24984598978871759,-0.56974009169757,-0.5544268496897014,-0.5560169220912792,-0.5822896924367171,-0.5665328635001075,-0.561434614448302,-0.5337576389351787,-0.5863253283814125,-0.563645506705358,0.2901443554913712,0.2915767167246301,0.2848285564766871,0.2668458223943032,0.2903010765690869,0.29066364382913098,0.32737054678605967,0.2832327115790371,0.2791564994637815,0.355636866950512,0.37499923618654426,0.3562752921606494,0.37611575905159719,0.35130485902402028,0.37889311133523809,0.363761715228169,0.3893184086246396,0.3986225742726675,0.06264387690562336,0.07279710730581887,0.051164664725541788,0.08103132219900523,0.041070667366177777,0.05322663343207698,0.06325599338477003,0.07975716975577405,0.08825171883902614,0.3354091994406658,-0.8231778584715606,0.6300082323450965,0.17238542394467086,0.6815610547485019,0.5951260810514281,-0.6512783672773096,-0.5094899900710886,-0.13583767733267797,0.17448728966378045,-0.7388733624945061,-0.35671943976966066,-0.8279519567917427,0.03590456911479824,0.7653287041629813,-0.8009024136430318,-0.3092689076493905,-0.5882792378256422,-0.02113557159243067,-0.034037951241984377,-0.03902092537580516,-0.012010168171020762,-0.0531697101268056,-0.045556016488515798,-0.04344971498406353,-0.024826405456362816,-0.007553429270224569,0.1592994010773326,0.6240001140566893,0.5899541155225023,0.2690022287716598,0.7549034825406409,0.45211474561147366,0.6800329528849031,0.27779109770173657,0.09594428005828797,0.04349494203646034,0.048354332432471499,0.049189937884904898,0.03998551239931487,0.04872253373791832,0.044772082684077427,0.049463467691480907,0.045643457716734506,0.050007665569454209,-0.3919641142019949,-0.3797698630681713,-0.37108751867361769,-0.3821328210348005,-0.3604261110838057,-0.3692576024717694,-0.39132094667615466,-0.384933951446542,-0.39673706044563936,0.07834513064033258,0.10252648854638089,0.10395554944620195,0.08421623252720488,0.10763137367762572,0.10359421742222515,0.08495734214083985,0.09252964566596864,0.09043975895393784,-0.17984789969620836,0.1693536949981579,0.08753722259832997,0.09751795994626693,0.17175540493487019,0.3969916429038299,-0.25847893880062486,0.3106147766007663,0.2708521444058138,-0.27955216113210087,-0.2736798355335198,-0.28406543798257496,-0.26935391055028187,-0.28444823454861375,-0.2816740608359112,-0.2884096856506995,-0.275836102258936,-0.28256761480452299,-0.4214267640856621,-0.40773861092768678,-0.4067453647928113,-0.4203218628776681,-0.40634312154486959,-0.40467119270373438,-0.41550968000652768,-0.4214379999145644,-0.4173861636067297,-0.16814606164246158,-0.1938737959680534,-0.18695512392860029,-0.17339468767068787,-0.19193324925183034,-0.204951712376143,-0.17400939835305605,-0.17912747186635964,-0.17842658978838217,0.2434602822847472,0.01611495366715408,-0.06977781595766596,0.5957052932223843,-0.2742123424268461,-0.5520191029329536,0.3363538543246408,0.399464910513935,0.513898137767595,0.5090990808103366,0.5302009908861823,0.5412354374687295,0.5061386643353355,0.5502407607605104,0.564643340777447,0.5145751347347578,0.5299416249432587,0.5358538216715124,-0.34711363324845675,-0.34996771479415508,-0.34494568192821076,-0.35407406062938825,-0.35146765232391249,-0.35772312754692456,-0.34353952781463317,-0.35254703752661806,-0.3394236102345458,-1.0700614449636337,0.294033149626049,-0.05733091756363765,-0.19285155183055684,-0.11293569046903092,-1.0653984181613246,0.39323197634985376,-0.554405154493577,-0.6052262981713913,-0.039607383080440618,-0.04921819957373469,-0.039749739805583338,-0.04445939356613278,-0.038988110735714457,-0.05636451934585453,-0.03937734736250578,-0.05179238025588462,-0.05274938020804263,0.14802356714577229,0.15483463757780795,0.14673467593614263,0.14683698945534646,0.15331358811654559,0.12768372114031746,0.15488898879985672,0.15069982926751569,0.13621860397619688,0.07437924379279354,0.07625057930720784,0.08516845828846487,0.07217857186349672,0.0943323497238068,0.09848803551136634,0.06337596171756707,0.07125086000586264,0.06372700459106309,-0.7114495347059497,0.7037415264284701,0.4835962092317089,-0.48050836128646748,0.2719879423804865,-0.819406494614832,-0.7877105757457614,0.3612257323136178,0.9371935756578096,0.06149772933231109,0.026745333418221503,0.046175907120107707,0.05218351904359541,0.03774222344421026,-0.0013802720667950518,0.038022431684830399,0.023958502643151269,0.02277275631728675,-0.1501016761188926,-0.37159432811099016,-0.2354132835541874,-0.08659942073819087,-0.33515523370826996,-0.48572700307968516,-0.40641176038098406,-0.3151374661944525,-0.24431415972637589,-0.0847567477143607,-0.10099806854399556,-0.08924946562962363,-0.09766795210644092,-0.08982790376093125,-0.09085023880117949,-0.09659146650748267,-0.11572432517232696,-0.11106208320138748,0.438290015654116,0.523920635731968,0.5694797135229345,0.31650550960179699,0.6302055262075489,0.7301277259914318,0.4124112474748085,0.39651348859015286,0.3770874306258887,-0.2073978490857518,0.03575735768107092,-0.045151476262575037,0.27658013867964678,-0.2431283016844922,-0.23798479027809037,0.11007872078557547,0.3069574161108635,0.470907407554562,-0.220380202322698,-0.2284672589083188,-0.22049045389291786,-0.22544035234400293,-0.2294849945979433,-0.23561504312580335,-0.2178729913654492,-0.23243700907030274,-0.21817946837261405,-0.38146625502378486,-0.38668593399108128,-0.3710252458638813,-0.3676246162116301,-0.38800291884175067,-0.4148978237312555,-0.3765394148853334,-0.41892952464994606,-0.4085102239241243,0.21606718762401656,0.22731511381080289,0.21107713541858739,0.20507398718068965,0.20589690447494506,0.2245990517287254,0.23298142367092829,0.21602910339358417,0.22538572936781016,-0.8076144201255058,-0.583220668674758,-0.6438541073982954,-0.6026371364905423,-0.5853001455594281,-0.4310486582495518,-0.8879359872526697,-0.46841121170701568,-0.5064730041594359,-0.33253951774922615,-0.30111734271816867,-0.3081140990028139,-0.31081657052514879,-0.3025316807536543,-0.2877032274066047,-0.3283858948741506,-0.3146190215259459,-0.31970907286044439]}],"biases":[{"row":1,"colmun":40,"elements":[0.10238564579808257,0.2399855808119273,-0.2543479123986856,-0.8478694353448079,-0.45897694533856928,0.030405833937980594,1.2548030686349839,-0.18730241389257466,-1.0102079059661627,0.11563046322321769,-0.10420995467914665,-0.11421707680532155,0.0013539199360225008,0.10020224878142849,-0.11766139279347079,-1.035753845240458,0.027312729568290583,-0.3215134423404512,-1.3560138018572912,-0.2996061415245628,0.32548130517675258,1.5290681222453429,-0.0678898140747276,2.995160508053715,-0.0033211185284201989,0.06516471486213987,0.5587708123395279,0.0905946696660486,-0.08290211760531868,0.2502629874790741,-0.12898776674561933,0.03693322568432302,-1.1469681178470932,-0.15934575501358656,0.046712810245678127,-0.022552253471444424,-0.8643089535851556,-0.14309087384687969,1.5124382122555318,-0.30988446694079066]},{"row":1,"colmun":9,"elements":[0.056513041944888788,-0.4423621944430731,-0.19219027564538258,-0.03848207898796804,-0.10051105651301612,0.14885448131306984,-0.08874152257169019,-0.32716049044525066,-0.45908246070492128]}],"inputSize":8,"hiddenSize":40,"hiddenLayers":1,"outputSize":9,"v":[{"row":1,"colmun":40,"elements":[0.012827037437319208,1.4506929350643927,-0.4781340147646241,-1.0666290141455673,-1.0405718393702999,0.13102054543016618,2.0641063158758636,-0.32783597328240446,-1.1133432352107935,-1.7974371790857338,0.5353871891719757,-0.11920180652610578,0.5819603909195324,0.5996498515091644,-0.8814785161575468,-2.562153813310205,-0.2806481624620314,0.42215489934076136,-0.6880233908753276,1.2583648673408956,-1.6194916006325784,0.5277333431819735,0.6453840937765778,3.701204458945149,-0.6577269898981202,0.7019319893271074,0.2852508855042355,0.15455104798343947,-0.1258682783416298,0.25742645764332419,-0.5653320823410427,-0.24540193969422517,-0.48974100167192849,1.0541614220242715,0.1725349581122974,0.6032621021785299,-0.06405768637111598,-0.15104074777353905,0.4739351632392246,0.93523292568637]},{"row":1,"colmun":9,"elements":[0.2566073893545463,0.24645043211868868,0.2563949939453345,0.2679272930650474,0.2618007975399473,0.23022008238264744,0.2672871799290839,0.2699952375684964,0.25452389952236306]}],"y":[{"row":1,"colmun":40,"elements":[0.012826333993770933,0.8958298058465389,-0.4447479612553836,-0.7881878146836775,-0.7781137798872767,0.13027594157253989,0.9682876373951198,-0.3165749643792776,-0.8052409977742044,-0.9465399663014932,0.4894883065605894,-0.11864041475449243,0.5240888224053011,0.5368003622663118,-0.7071592418629791,-0.988169722553911,-0.27350486353316735,0.39874426457494746,-0.5967106911507272,0.8506126923480931,-0.9245504307793894,0.48364654098643647,0.5685543690183111,0.9987811790641411,-0.5768487458415363,0.6055926554992045,0.27775789625404409,0.1533321556522112,-0.12520776083858885,0.25188684049298495,-0.5119228950127678,-0.24059157498231313,-0.45401084478325678,0.7834189745107175,0.17084307623901016,0.5393667386707939,-0.06397021211486048,-0.1499025533639195,0.441373363711676,0.7330243423002477]},{"row":1,"colmun":9,"elements":[0.25111958149031929,0.2415791266703544,0.2509205693457496,0.26169512597278218,0.25597910661326486,0.22623718052145606,0.2610987507417559,0.2636204040148573,0.24916645964537099]}],"lastInputs":[-1.0399999618530274,-1.0000000953674318,0.09852159768342972,-0.2255156934261322,-0.3140000104904175,-0.23600378036499015,0.29768308997154238,0.24291014671325684],"dw":[{"row":8,"colmun":40,"elements":[0.025473021660536493,-0.046052518915525839,0.0015843555446118793,0.002785702638942698,0.0591230738692464,0.010451745890708816,-0.020034183960554259,0.034471589372493279,-0.04405270290844365,-0.07508493630833979,-0.0066349683977930339,-0.008956778549068954,0.056381220722873038,0.00028048961509876037,-0.10081544359540085,-0.002263090436986727,0.022626472722031954,-0.01829002744248673,-0.0016282698869444122,0.03321624356709791,0.0646005226498946,0.0009574146962670112,-0.031839748325279759,-0.07399115600188322,0.050139910035765258,0.06648004843497336,0.0015275871105622434,-0.014801819737495694,-0.0033574445203082396,0.0002085338636171478,-0.006726113592512224,0.054365403870246357,0.02301688248119611,-0.11010062820261366,-0.012374540128925646,0.05300534951071635,0.06642437056815633,-0.025678971630327044,0.005029669567264527,0.07284301841049526,-0.022435855310454085,0.040561644583822279,-0.001395451714874377,-0.0024535613473015895,-0.05207378804591193,-0.009205576851876209,0.017645494067881564,-0.03036151744340632,0.0388002680506277,0.0661325063613632,0.0058438764331182478,0.007888855521448083,-0.049658847985234007,-0.0002470466403359626,0.08879514710537172,0.0019932605670165768,-0.019928702410829475,0.01610929456239564,0.0014341301191782075,-0.029255847404344189,-0.056898156742752978,-0.0008432614663389959,0.028043472661664759,0.06516913825277709,-0.04416169317613344,-0.058553585342008,-0.0013454518212806047,0.013036988323861165,0.0029571340406470685,-0.00018367022388602464,0.005924154321945664,-0.047883378398601749,-0.020272563338878156,0.09697325259887972,0.010899114976065086,-0.04668548428021215,-0.05850454598654601,0.022617249719998027,-0.004429978515087733,-0.06415789391670443,-0.0005909373816019304,0.0010683520513106277,-0.00003675476468933861,-0.00006462428546232058,-0.001371570084230602,-0.00024246543783192946,0.00046476418738035114,-0.0007996911805322541,0.0010219592028037073,0.0017418622828142149,0.00015392170211505222,0.00020778435059296652,-0.0013079630437841577,-0.000006506954727313799,0.0023387729597701978,0.00005250043575447338,-0.0005249015497034465,0.0004243022704697424,0.00003777351412623645,-0.0007705689675050274,-0.0014986389998633916,-0.000022210640781409334,0.0007386362621971326,0.0017164881564557956,-0.0011631736330752776,-0.0015422412886255627,-0.00003543781885456531,0.00034338088017922476,0.00007788787290902472,-0.000004837685021567873,0.000156036139241151,-0.0012611989987268049,-0.0005339584933164505,0.002554175857494633,0.0002870714923327759,-0.001229647698187455,-0.001540949642378466,0.0005957151240115625,-0.00011668108338347856,-0.0016898530194463268,0.010723001219726284,-0.01938604783851351,0.0006669427233155138,0.001172656043450644,0.024888166063002674,0.004399716901586436,-0.008433494145614429,0.014510995193781967,-0.01854421486836407,-0.03160739524140305,-0.002793024524946822,-0.0037704026081553535,0.02373396869196912,0.0001180735652372235,-0.0424387863774918,-0.0009526597134628459,0.009524731609376811,-0.007699282369725815,-0.0006854286945783872,0.0139825508348119,0.027193926672741107,0.0004030287059253735,-0.013403107989213795,-0.031146962721203973,0.021106656431868058,0.027985122847050096,0.0006430457551556958,-0.0062309031576425889,-0.0014133337680234334,0.0000877834166562639,-0.0028313925696637238,0.022885400082499904,0.009689076632103186,-0.046347433227299,-0.005209127156735864,0.02231287811198205,0.027961684958850289,-0.010809696932810372,0.0021172656162795329,0.03066364821863202,-0.02444430354547239,0.04419270577344665,-0.0015203719595011459,-0.0026732031166617649,-0.05673541142707166,-0.01002965618046152,0.0192251111997566,-0.03307946758517218,0.04227365156136061,0.07205266023296207,0.006367017768509748,0.008595062515971893,-0.054104286958202987,-0.0002691621506155627,0.09674405094764585,0.0021716964060946909,-0.02171271138349322,0.017551391767228198,0.0015625128381248726,-0.03187481843398179,-0.06199165555991327,-0.0009187498745272207,0.03055391241944214,0.07100305182060377,-0.048115029186180578,-0.06379527742402784,-0.001465896096676429,0.014204053979557948,0.0032218554235614405,-0.00020011230429191034,0.006454482099837142,-0.05216987808852327,-0.02208735459572383,0.10565425697028216,0.01187479911799034,-0.05086474899760747,-0.06374184808630036,0.024641936305489249,-0.004826548309583209,-0.06990128132121559,0.003331089065051713,-0.006022255397177894,0.00020718505641546762,0.0003642843680945657,0.007731482643977129,0.0013667674338445975,-0.00261985609746587,0.004507825414036364,-0.0057607408692949648,-0.009818804130108345,-0.000867650134773472,-0.0011712716096463666,0.007372932443079227,0.00003667942901189235,-0.013183564408821087,-0.0002959427392765314,0.0029588478693055098,-0.0023917739805305899,-0.00021292770396989826,0.004343664729020758,0.008447764755332025,0.00012520044413873746,-0.004163661417704939,-0.009675771251364674,0.006556760649309502,0.008693549015777973,0.00019976148835892208,-0.0019356235207393953,-0.00043905065041588876,0.000027269826173163793,-0.0008795691275614955,0.007109325495916985,0.0030099014779810739,-0.014397781446919488,-0.001618209879370851,0.006931472147174891,0.00868626806042877,-0.0033580209972527464,0.0006577263396393383,0.00952563010883299,-0.00008008738112028733,0.00014478948289243832,-0.000004981226335152403,-0.000008758271080121842,-0.00018588341081281491,-0.000032860371560017136,0.00006298763247112412,-0.00010837894901859754,0.0001385020455846859,0.00023606763228386704,0.000020860393002308682,0.00002816018244041299,-0.00017726300288336796,-8.81861563345603e-7,0.00031696455024588747,0.0000071151741929942829,-0.00007113780879417637,0.00005750399061436274,0.000005119293373994557,-0.000104432131899912,-0.00020310455300429008,-0.0000030101193604718726,0.00010010441999706622,0.0002326287783688342,-0.0001576402728299913,-0.00020901379690479714,-0.00000480274593051401,0.00004653703806278796,0.000010555832067018433,-6.556321128508314e-7,0.00002114695421377529,-0.00017092525879095348,-0.00007236526015789499,0.00034615724392471093,0.00003890565181864196,-0.00016664923715176434,-0.0002088387452521442,0.00008073488945055661,-0.00001581332081096111,-0.00022901902472101824,0.004964165331276327,-0.008974683917164535,0.00030875814309703174,0.0005428758569662783,0.011521864876945305,0.0020368292106604276,-0.0039042482977773719,0.006717800155685203,-0.008584961118527392,-0.014632501895148209,-0.001293018179522269,-0.0017454909804473956,0.01098753437960332,0.00005466162756864635,-0.01964684585216941,-0.0004410295424918936,0.0044094317883689548,-0.0035643482484352046,-0.00031731614059956947,0.006473159209316393,0.01258930641187952,0.00018658033217261645,-0.006204908742247283,-0.014419346724564093,0.00977123195001506,0.012955587132944606,0.00029769514884469953,-0.002884568676613383,-0.0006542965303255985,0.000040638939108237246,-0.0013107804937764275,0.010594693346946608,0.004485514579694694,-0.021456336384383547,-0.0024115420587761799,0.010329646867961756,0.012944736667701185,-0.005004300722893236,0.000980178622949607,0.014195598442846375]},{"row":40,"colmun":9,"elements":[0.006625330010841743,0.006696222741234355,0.0069636332621720018,0.006789884214519848,0.0070340580518684588,0.006898986993917339,0.006782751327998351,0.006893318038060998,0.006861463262387811,0.010426813352942568,0.010538382930106972,0.010959228319826015,0.010685785504576672,0.011070061461176494,0.010857489301248438,0.01067455990882436,0.010848567610627228,0.010798435194611626,0.01322838332010751,0.013369930414472303,0.01390385232764556,0.013556938438060412,0.014044465114000081,0.01377477715474281,0.013542696648303406,0.013763458304063715,0.01369985585973394,-0.02345567642716205,-0.023706658180886934,-0.02465337247920388,-0.024038248185834729,-0.02490269758102793,-0.024424505094798343,-0.02401299560551554,-0.024404435272762517,-0.02429165971145049,0.004019432330062185,0.0040624412869051129,0.004224672978231684,0.004119263506053277,0.004267398046429125,0.004185453603466132,0.0041149361510922038,0.004182014380905235,0.004162688835611919,-0.004910567920310971,-0.004963112256529626,-0.005161311821460161,-0.005032532349616637,-0.005213509328982376,-0.005113397243538808,-0.005027245590515678,-0.005109195521854868,-0.005085585371224865,0.02088068790097581,0.02110411661703279,0.021946899636142646,0.02139930432674983,0.022168853569265558,0.021743157550966596,0.021376824000932893,0.021725291014844326,0.021624896071815233,-0.02173273666429565,-0.02196528252065516,-0.02284245579704892,-0.022272515538659188,-0.023073466691088456,-0.022630399896133959,-0.02224911788991198,-0.02261180430548628,-0.022507312687699289,-0.015337441271608525,-0.01550155582698937,-0.016120603203283056,-0.015718379342735429,-0.016283634489915909,-0.015970949021353699,-0.015701866923287418,-0.015957825557711026,-0.01588408270259162,-0.010287451516244684,-0.010397529886012645,-0.010812750375343447,-0.010542962319383934,-0.010922102152290177,-0.01071237117169809,-0.01053188676176783,-0.010703568725869065,-0.010654106365539467,-0.01920531127862638,-0.019410813035120605,-0.02018597476825435,-0.019682316152145577,-0.02039012007205642,-0.01999858007202025,-0.01966163955101985,-0.019982147069940706,-0.019889807385500347,-0.0030748366525341376,-0.0031077381933559105,-0.0032318442634998569,-0.0031512067799043996,-0.0032645286315617224,-0.003201841725550244,-0.003147896384666913,-0.0031992107451733946,-0.0031844268428413019,0.01135445372776708,0.011475949294864983,0.01193423595852339,0.011636465806911075,0.01205492957145854,0.011823445543499656,0.011624241505657973,0.011813730118479279,0.011759137581081486,0.024656830166283628,0.02492066457309119,0.02591585964845307,0.02526923514031504,0.02617795256702471,0.025675272077021785,0.025242689387685644,0.025654174489197293,0.025535623746445837,-0.005365502593284872,-0.005422914847186815,-0.005639476413360075,-0.005498766295640224,-0.005696509706966514,-0.005587122837100633,-0.005492989750009128,-0.0055825318510971219,-0.005556734361582894,-0.022471488684304074,-0.022711939376754126,-0.023618930045216044,-0.02302961604095742,-0.023857793598000396,-0.023399665814877344,-0.02300542304551539,-0.023380438111929845,-0.023272394553358473,-0.02183483791751596,-0.02206847628347204,-0.022949770554483028,-0.022377152694301067,-0.02318186674680567,-0.022736718406589575,-0.02235364512247807,-0.02271803545312428,-0.022613052929599466,0.011286164427567058,0.01140692928163786,0.011862459663373546,0.011566480396268894,0.011982427386489282,0.011752335577183608,0.011554329615855987,0.011742678583822886,0.011688414383328339,-0.024415172209784284,-0.024676420814476433,-0.025661862129658747,-0.025021575092972045,-0.02592138631418437,-0.02542363252153739,-0.02499528951134966,-0.02540274170806006,-0.02528535286365651,-0.01796725083714368,-0.018159505029374059,-0.018884696362985458,-0.018413505838623269,-0.01907568154554372,-0.018709381968756629,-0.018394162143876758,-0.018694008311642357,-0.018607621257119113,0.014996928743879109,0.015157399727877982,0.015762703391439333,0.015369409460013695,0.01592211515676304,0.015616371740489663,0.015353263639243106,0.015603539635992132,0.015531433974818834,0.024854178709510026,0.02512012479634642,0.026123285222364659,0.025471485255587586,0.02638747588242704,0.02588077203411969,0.025444727035841574,0.025859505585245556,0.02574000598506909,-0.0015454016320924972,-0.0015619378259232884,-0.0016243130819210252,-0.001583784978207435,-0.0016407401255186389,-0.0016092339163087523,-0.0015821211856938828,-0.0016079115952140576,-0.0016004812600858866,0.016410822726564336,0.016586422738816023,0.01724879376745077,0.01681842051581457,0.017423234699053108,0.0170886661290501,0.01680075248478194,0.017074624227823914,0.016995720524051923,-0.016052949685047368,-0.016224720363966898,-0.016872646977560435,-0.016451658933912696,-0.01704328385205986,-0.016716011264332574,-0.016434376192033974,-0.016702275576754794,-0.016625092536774395,0.01032383841002774,0.010434306128891754,0.01085099526026845,0.010580252959292993,0.01096073381633987,0.010750261013645218,0.010569138227238213,0.010741427433413187,0.010691790123860379,-0.023338913233448997,-0.02358864559105351,-0.024530647111832429,-0.023918584929131765,-0.024778731064408353,-0.024302919037428155,-0.023893458057057946,-0.02428294912368214,-0.02417073496313604,-0.019197400604174496,-0.019402817714423139,-0.020177660158167123,-0.019674208999218978,-0.020381721374446956,-0.019990342649874129,-0.01965354091479251,-0.019973916416553905,-0.019881614766861956,-0.022781000105239848,-0.02302476264927796,-0.02394424576870808,-0.023346814838268109,-0.024186399312586063,-0.023721961498867504,-0.023322288620203355,-0.023702468962835549,-0.023592937264523808,0.00695497052420506,0.007029390492637453,0.007310105911784908,0.007127712053207001,0.007384034657328252,0.007242243195591861,0.007120224272911027,0.007236292183216726,0.007202852486552615,-0.01084627223140237,-0.010962330126149865,-0.011400105648710187,-0.011115662539054019,-0.01151539748166599,-0.011294273784774817,-0.011103985350313043,-0.01128499318465602,-0.01123284399838813,0.012184057596952323,0.012314430138228808,0.012806201141907665,0.012486674657861553,0.012935713134896807,0.012687315915880599,0.012473557198041706,0.012676890641282168,0.012618309344817693,-0.00411560091970709,-0.0041596389051247119,-0.004325752137840571,-0.004217820647764565,-0.004369499442317574,-0.004285594403712741,-0.004213389756883658,-0.004282072894610861,-0.004262284967995418,-0.006788481853796068,-0.006861120350753771,-0.007135115980545611,-0.006957088281522187,-0.00720727501354917,-0.00706887776777066,-0.006949779744341831,-0.0070630692112311709,-0.007030429996843314,0.0025812685954683539,0.002608888831488296,0.002713073585857457,0.002645379907283994,0.0027405115093553737,0.002687887009220985,0.002642600891605854,0.002685678349773512,0.0026732675367383384,-0.004445651710725679,-0.004493221324259222,-0.004672656014746655,-0.004556068954227746,-0.004719911636169169,-0.004629277829420329,-0.004551282727863955,-0.00462547391274606,-0.004604099092513024,-0.01374566063763261,-0.013892742731967143,-0.014447542910332057,-0.014087063441199179,-0.014593654161856139,-0.01431342043440047,-0.014072264746291787,-0.014301658975991082,-0.014235569447563818,-0.018032690100352624,-0.018225644509483317,-0.01895347709227564,-0.018480570425526124,-0.019145157869821899,-0.018777524178281474,-0.018461156278313435,-0.018762094528138357,-0.018675392839771013,0.02469650122198661,0.024960760119265098,0.02595755639149631,0.025309891511310933,0.02622007099861031,0.02571658173207021,0.02528330304848626,0.025695450199753415,0.025576708717434558,0.0048292695671043679,0.004880943990092164,0.005075862203762192,0.0049492147783861228,0.005127195540078161,0.0050287408897448939,0.004944015545782237,0.005024608730901562,0.005001389465072733]}],"db":[{"row":1,"colmun":40,"elements":[-0.024493290956616725,0.04428126981223291,-0.001523418848774708,-0.0026785603280016017,-0.05684911157487299,-0.010049756032765947,0.019263639130195938,-0.033145760227792007,0.042358369734891567,0.07219705679080668,0.00637977753957907,0.008612287382309275,-0.05421271422204227,-0.00026970156287217163,0.09693793008970136,0.0021760485769196085,-0.02175622456919813,0.017586565493616314,0.001565644179489421,-0.03193869690909856,-0.062115889441757447,-0.0009205910878699753,0.030615143743418086,0.0711453449190988,-0.04821145372585217,-0.06392312583985298,-0.0014688338140325065,0.014232519500406948,0.0032283121571717069,-0.00020051333775588905,0.006467417153100586,-0.05227442871572842,-0.022131618582163807,0.10586599253950074,0.011898596714251048,-0.050966684091289477,-0.06386958942748827,0.024691319780986676,-0.004836220915145879,-0.07004136642534745]},{"row":1,"colmun":9,"elements":[0.02512574182399478,0.02539459370580716,0.026408714919256814,0.025749793219306907,0.026675792194053199,0.0261635519698802,0.025722742632406979,0.026142053158345534,0.026021247874968555]}],"learningRate":0.0025}