{"weights":[{"row":8,"colmun":40,"elements":[-0.26284121085567715,0.7521904932486493,-0.38599911290297236,-1.4045145999408693,-0.2643768369459118,0.22516209866103646,-0.28629980722943296,0.42586107858267399,0.34136685260697838,-0.2389286309652976,0.2825828345131942,-0.7409144835109746,-0.3483859949235259,-0.6713388796981382,-0.1794423839189449,-0.021433899404586466,-0.29043299157335059,0.14871082514383297,0.18766847329806819,-0.3212950739841808,0.1524374396434364,-0.05823744857918753,0.10707807893075742,0.12093551987856755,0.30683157852577516,0.09498940872746058,0.0013870131696748748,-0.045656891116321689,0.40747999553826055,-0.29661520294557,0.23905771580194597,-0.19574635774026523,0.02454548397803819,0.005065375992461289,0.3902855040827909,-0.1025884561171173,0.944355547957629,-0.21376385368369653,-0.19271064763063054,0.09928916627748281,-0.002983457127141747,0.004609113122131198,-0.32668097963017858,-0.2918840258779618,-0.3640444696459575,-0.04938655574653682,-0.06167664316905223,0.44647975819950777,-0.3488200033044687,-0.6794002670766747,0.2359886443841881,0.21156052770754189,0.08638787323934803,-0.1401598153818999,-0.05690009795890357,0.4712261430222474,-0.20775620702231196,0.021197183432812209,0.03360847997257564,0.0645304137027105,0.1879223205154886,0.1837781256860754,-0.16365688401847942,-0.0962881567608475,0.10708294217271824,0.059606922345606268,0.03580789660409946,-0.006986417685818341,-0.1229293150090929,0.2505266032650064,0.7090901788459426,-0.41872518856946985,-0.04202561714259409,-0.0002459687196802294,-0.1379281888485396,0.17403228065489097,0.15513449713255629,0.04163560421700319,0.05453963519444599,0.00470779673868436,-0.18310554397364577,-1.4881451326649962,-0.25912759585480035,1.440208959574275,0.1443365427534693,1.2557727422326608,-0.3863711358573767,0.26062074525124559,-1.7644151638537554,2.8775404928394305,0.084050297429763,0.05273986544419014,0.9009452184456192,0.38497807090013405,-1.4968458986552127,0.4258576373797704,-0.18757831920659497,-1.8771287450947696,-0.3687004284061985,-0.16457017907418135,-0.8849161543532114,-0.5135578778393285,0.15061664671071155,0.7285069769349719,-0.0001705863155414877,-0.6629461629643677,1.038087236546788,-0.06041755386904329,0.28299607784985728,-0.30626206244979017,0.1990288479086048,0.22018187361162096,-0.8113908053984249,-0.06411849242374807,0.24965062348849835,-0.6323974940032187,2.7901401847790088,1.3197283004666354,1.8117381132442366,-0.32386876086518498,3.929432619584642,1.8089365135361797,0.9419131515975291,-1.0449365532513533,0.40960991115118558,0.5161734021504532,2.9955196355488824,-1.1822736307420548,2.14627663489169,-0.8666330384006891,-1.4099360855111818,-0.2867911715173439,0.5902983276601894,0.7978640395814184,-0.27987131448010058,-0.8902304932317686,-0.9089834253674233,1.902586793561156,-0.4030344754421911,0.17493076897024305,0.9360640955802529,-1.4178977364711043,0.6073731296816586,-0.6941765516951576,-1.1722911612845853,0.46779541022664636,0.2759218721856127,-0.0890064695821353,0.5503146268554475,0.2468340045606905,-0.12591286935647395,0.3804700509489493,-0.4149031309139464,-0.020778217433767098,0.9162261743970065,1.1867706329259694,0.2812346992466608,-0.3941163695586152,-0.9950712627558277,-0.4888492784918606,0.6273072321214264,0.424632166443548,-1.9921812879528363,0.6285127151349689,-1.2126409225928732,-0.3526632854758255,-0.808420091830433,0.38111712444604309,0.2220029822229448,0.3084685749670404,0.12128240738459631,-0.018509749039074938,-0.7858106868060779,0.44152732177469258,0.10584533292880633,-0.16807270651298857,-0.18493244699265844,-0.6879214414112148,-0.3452943452728575,-0.37537908975635256,0.1884427412158497,-0.2875895213887501,0.8036821207918026,-0.6252332032521031,-0.14828713471930184,0.924718105303074,-0.23705706757050283,-0.04460266782163494,0.19915131237450468,0.45081448121674436,0.019067066464756777,-1.3084594501748202,0.30947144936283146,0.020070797401740616,0.2043137414978151,-1.2500826222706532,0.3194906366222157,0.19219934746051094,0.21089347975859586,0.4251730385034176,-0.37759721682818528,-0.0727445330416112,-0.6275410506635892,-0.08247978825348618,0.09247188114015552,0.1540669397220768,-0.18849313917335756,0.22343365854921039,-0.12632419843093233,0.3276408296819881,-0.06876679888632961,-0.15021373286960944,-0.22142439671121204,-0.5934091975360569,-0.13921040550333919,0.014710481206318188,0.11320156546628027,-0.03428888124994999,-0.17836953749751958,-0.4269257378772789,-0.11500096305304245,0.013324527020773587,0.11378019910448027,0.03170409871952271,0.4139907086793096,0.01466330430956475,0.10697317335404334,-0.03956381188731387,0.0786052086993257,0.4114029074156269,0.18763684717023453,0.28456568202187457,-0.10436371372297652,-0.004294372512919107,0.007514773298277361,-0.8580848405519144,-0.012552357751805653,0.08628621053652383,0.18011999259141149,0.09413908893570582,-0.8834457469122585,-1.8699996252040483,0.1952683053778653,-1.1280883814915204,2.019964617341388,4.4259636841091629,0.19614609220539226,4.689748452114441,-1.2611534291392038,-0.6393890897347038,3.9560371296189835,-3.131718005264633,3.341555174991764,-4.379503099670289,-1.5743052282372459,1.7154192079319975,0.034770532589181019,-0.6049483011445399,0.13635125965159465,2.666772170215079,-3.354156018158073,-1.2978945981994659,2.3981951277497499,5.819717623635676,-3.1503875451428566,-4.25953091463397,0.7637133163390785,0.11215499089980222,2.7231637726291719,-3.267189522910927,-3.7605556250149827,1.761770471753133,-0.40514104494952149,-0.046238641618678879,2.9088102991723479,-1.8258921171458449,-2.0968488737359105,3.666826735543821,1.3066261118602376,-0.3268625083948983,-1.874666565193517,-1.8085441949047215,0.41981929561568057,1.6040634870158886,0.6942672200788468,-1.004403706982115,-1.2297912919386922,-1.512218335668329,-1.9280390475199785,0.7078642620189644,-0.38735035651100099,1.221913985779537,-2.4522174150676987,1.5088531715923113,0.46485273397540236,3.0056921485285974,4.975926587498629,-2.477781297963101,4.295579346544812,-2.086587591930705,-2.6970891144321449,2.5329790086404486,-1.130127215685712,-0.7720029341818677,-0.4247677422217783,-1.360163388536941,-0.25944109783656729,0.017210728061089393,-0.06825960878289669,0.1466877927759414,-0.33018622637764519,-0.028583377844004985,0.2184179685609049,0.0092341758085764,-0.17076186412718129,2.440313185487932,-1.1785119162473937,1.2342323260407285,0.36116764086826089,0.0019983577687841594]},{"row":40,"colmun":9,"elements":[0.9744375401263575,0.9841894578491384,1.0005020722151819,1.000097943788611,0.9823248315244344,0.9871604958254502,0.9950418628959428,0.9919928789871394,0.9937006377388963,-0.030617120694556359,-0.02759687060011497,-0.01616369597265275,-0.01542050246035136,-0.028899212559379919,-0.020311050295462427,-0.022164290958424476,-0.01791813813713207,-0.017458166743240894,0.04705797223579997,0.045924414674086398,0.04805714839574892,0.04257068016079266,0.04889987103408553,0.04842158926232114,0.04413148439568108,0.05240013155546266,0.04411035243136678,0.08032252559166256,0.07858947821255777,0.07527014377105404,0.06964617579365375,0.07521271148266955,0.07848625515275226,0.07218528452181819,0.08277654433206647,0.07674202208177543,-0.22316177325755352,-0.2250150556629965,-0.22972395999411236,-0.21339860428547509,-0.21516209994396058,-0.22988075047979743,-0.21528182035830144,-0.2454267964609655,-0.2281453403543102,0.489294967706499,0.5075396848380894,0.5040680294372121,0.4858916302969225,0.4807083480619371,0.5158834130967281,0.49130546196651117,0.5258522022484956,0.5128719260061914,0.840713118670441,0.8321419809604127,0.8321273603938429,0.8092876520190012,0.8250026941796075,0.828300813765138,0.8160910166238768,0.8530124092448209,0.8273212442946346,-0.1469726453174742,-0.155044783527,-0.15348783532579025,-0.15666993169998839,-0.15760413716740144,-0.1539707450064158,-0.15953967880753057,-0.14630953988632015,-0.15142027012425533,0.14734603111227788,0.15400012644728809,0.16716914288004423,0.16806922269895217,0.14669710305811815,0.17309779235447587,0.1566549656101762,0.1738963593908422,0.17273950446760809,0.039013567898420139,0.04478207109651097,0.044748009654825577,0.07020644466919837,0.06580616657378452,0.03441182117693741,0.06933538584848967,0.008828950787413324,0.03713630741644984,0.11241884579292831,0.11338259719591057,0.10030785035288012,0.10107806814820185,0.11220275780345023,0.1098011101921643,0.10726122940600724,0.10349800253140451,0.10495772417048408,-0.02277414410555203,-0.03081584317431449,-0.04154399772732754,-0.04083723596707226,-0.02713446566514953,-0.03629915021425416,-0.03658716365563025,-0.03808712260828196,-0.0395254713914534,-0.09163052780460689,-0.09814197458503449,-0.08994494321531672,-0.09936263787939839,-0.08186688356453845,-0.1106537938716723,-0.09204408720942059,-0.0985847473152237,-0.11077363743093927,0.13781090164700275,0.13723223024717744,0.1499554191499204,0.1532401077410023,0.1562451228628248,0.13187271589720093,0.15340892682423055,0.13159281641495833,0.13229925855801204,-0.5084044796769236,-0.33104273506357048,-0.3424458013026667,-0.2210231885083723,-0.5076716873635943,-0.20499778674160433,-0.3055714541518858,-0.3570477800781803,-0.16941945333057957,0.10716543448259153,0.11647943485168255,0.10985156092842809,0.10872561665433137,0.10832630545136216,0.11425284268486434,0.11315070969589032,0.11061763590369311,0.11393336145926056,-0.3023327912727709,-0.3070166569037148,-0.29491118700031668,-0.30559780865636629,-0.3050074128455143,-0.3092465787576531,-0.30597465195920767,-0.2933712520309664,-0.3054617304563909,0.2025238916704471,0.20602086743510196,0.21058130387573227,0.22043382791974179,0.21005327949733575,0.2173938903577992,0.2130901301158777,0.20735445077554708,0.21427136263509423,-0.3121813680505937,-0.3143894455067679,-0.3109245041735756,-0.3328015808577274,-0.321164385765121,-0.3120701501247312,-0.3273006719596606,-0.29198811985355957,-0.3163833323892001,0.1513122446713833,0.1619425248783358,0.13746819841079123,0.1363279346825233,0.15437149590912578,0.1669752149604399,0.14705735990456363,0.15096136414842024,0.15063472013600238,-0.3011784005299085,-0.3001439120801537,-0.3035387378493032,-0.30787681871800906,-0.31097026178226058,-0.29874203780653527,-0.3076531729240642,-0.2948252396632806,-0.29703948328258059,0.5861102533746052,0.586473652750463,0.5775822212509503,0.571755692860618,0.5799086125542545,0.5897869321285917,0.575379730401572,0.5911928890572403,0.5840345176800414,0.26443583501331088,0.26079107667460219,0.26063048399555779,0.2601017847954644,0.25290879793346529,0.2569323109222425,0.2577532994317364,0.2627492563605356,0.26456734996013189,0.2619763550348509,0.26328350545212578,0.27220081735296888,0.2961317175279255,0.27905747802283095,0.26487954998609827,0.2857871461826166,0.246019758539454,0.269480416142932,0.06735001310079404,0.059405927153896417,0.04907571934798221,0.03282946763187494,0.018896421383836606,0.07473983910560979,0.0255797640364458,0.09461525062376948,0.0794232829059643,0.26403311973231466,0.25921798699428219,0.2643465231183712,0.260394094631576,0.24957822090997656,0.2619956502259897,0.2547064998343171,0.2727061383563783,0.2690248210879549,-0.5225898071284831,-0.030120531937089035,-0.039432196810638839,0.5093351260175889,-0.5346559534520324,0.42560786474102316,0.13087065126581069,-0.16095155365938036,0.5759860060433306,0.37402341188427909,-0.17614906188551694,0.7590599756929335,-0.07196129661438092,-0.10323388996270124,-0.21071301630798268,-0.2248092100072384,1.1357258279641387,0.1037553168213674,0.0648527568423571,0.045287709126744509,0.07019156580163272,0.3252812510287295,0.3684483490579837,-0.0649014199330553,0.31763119896449318,-0.30787976286280979,-0.06905769590281032,0.10057353423246156,0.09056670098773664,0.0953386655348477,0.11243992365711853,0.101964927484754,0.0924538783200645,0.10202451727597893,0.08280425781096883,0.09700233537174333,0.03964212668304799,0.04896338042279406,0.06190873486937962,0.05939421255905266,0.03766710897639726,0.059426636603606367,0.05167722601196917,0.06461932875497593,0.06448732738229383,0.095623018293325,0.09533488898080304,0.0900040080096907,0.08804948814210535,0.09145467354019803,0.09357014106191712,0.09043004547637609,0.09418008787510819,0.09304936781185727,-0.26340366848674059,0.007870560556563484,-0.038721900021945056,0.5634868300831174,-0.28257477740409955,0.3913677444242242,0.18989140619756557,-0.20140824456517854,0.5086977641547631,-0.43353701335376346,0.6252014278860127,0.13964772063632983,-0.1788778429450351,-0.4752961252141587,-0.22683231175706115,0.4173427438474032,-0.1745390092126887,0.2729915443219635,-0.15497278755437367,-0.14799380487555259,-0.1601585653700787,-0.401055651727521,-0.4422743086032133,-0.04233009918189204,-0.39948120900660347,0.1951753710894126,-0.03638880446734927,-0.03721569453849236,-0.02879300393423483,-0.017263932557524059,0.0019719822821493975,-0.015590074649582713,-0.023823794661396236,-0.006566604487920861,-0.041272548342198119,-0.021919505962875949,0.12883901867003209,0.12335822662398427,0.12572506698969139,0.12294637338618297,0.12660324273617735,0.11956644572072949,0.12351122737360162,0.12541911244164459,0.12134841703007403,-0.3947502844233181,-0.3933051510666485,-0.38555595024599129,-0.4059054050743525,-0.428551393646328,-0.38193770384311029,-0.4130458518447149,-0.3555025584281499,-0.37139552812298556,-0.24347527024278496,-0.24427020622597263,-0.25276962991584769,-0.2686557052089509,-0.24647486052356083,-0.25683852715285646,-0.2549680364851629,-0.24514035523963768,-0.2598244739220228,-0.000009228166190178561,0.0022526654703852574,0.07878681074152028,-0.09998407706225245,0.06395026996382748,0.009559399984791377,-0.029724976023992948,0.15648357041632109,-0.06643094459679981]}],"biases":[{"row":1,"colmun":40,"elements":[-3.960889591588642,0.6776443776852758,-0.6236757971880761,0.8415260476842835,0.8843767571753601,-0.36680561801930219,2.824746455844052,0.9173189798931417,2.251463946336171,2.120919552804422,0.3705155166342187,0.17564602581750847,-0.10858118758919253,0.8871724539730171,0.06045368417972528,1.0561335703861608,-1.464854477252399,-2.3078124269165265,0.8246137937642164,0.10138479829504874,0.0029010301568231685,-0.41783158708307635,0.6118775409676694,0.021619179362074388,0.479605921770118,0.3900383135380885,-0.28055796156982518,0.789173914440221,-0.16227536558764944,-0.32161974009021268,0.058266576836897159,0.07946386510995196,0.41377287870834547,0.02071095028904791,-0.1181584385263989,1.0886146454910489,0.425447846246833,0.10121137160092177,0.2001371955523076,0.38909507976487708]},{"row":1,"colmun":9,"elements":[0.08747531492058522,0.4549322685354665,-0.15198217845315943,0.3890415799889148,0.42128383086639029,0.46294253555345646,0.4990827584815118,-0.4177992870269639,0.257347427527884]}],"inputSize":8,"hiddenSize":40,"hiddenLayers":1,"outputSize":9,"v":[{"row":1,"colmun":40,"elements":[-5.699853727193403,-1.2654958064859159,-0.12041787785301539,3.0160288686502825,1.078070612094096,-1.034395811557149,1.662597232179037,0.7205725057317676,0.5517293899721474,2.6391241732621575,0.7626573970449485,1.3758147146568558,-0.17437140560444817,1.7149434964390514,0.48454060679939855,2.0382376110062827,-0.05337391856132423,-3.7024449542180628,1.6076703515148632,0.3218495244576991,-0.9595762349820334,0.7364927871142276,-0.11303219130863518,0.1583634469262348,0.4430374860180702,-0.23918493767849659,-0.4699235898532606,0.9065957713284938,-0.9269447947618251,-0.36800231199353658,-0.1993371534347109,-0.0023288726380580329,0.6328310303620282,0.026285975858643924,-1.0176351583734323,1.6114271098033029,-0.8147598332734012,0.6661015195778925,0.8505209365963709,0.42348606076014985]},{"row":1,"colmun":9,"elements":[-0.4764104477586908,-0.4721851411607951,-0.4744778963393933,-0.47252571468241019,-0.47548912637220017,-0.47100538324773,-0.4723924576303548,-0.47484045392461546,-0.4712670183382679]}],"y":[{"row":1,"colmun":40,"elements":[-0.9999776027297983,-0.8525721790538933,-0.11983919566575832,0.9952103992857047,0.7924825163903663,-0.7756653612676996,0.9305661757549324,0.6172638008028213,0.5018152312998211,0.9898490659886087,0.6426395563601248,0.8800106158758313,-0.17262536149763006,0.9372512672909765,0.4498726525946414,0.9666318315121568,-0.05332329281755502,-0.9987841973634032,0.9228150225253592,0.3111783126581207,-0.7440877865269797,0.6270215090490632,-0.11255326189899426,0.1570527293003377,0.41615904193399469,-0.23472574151771148,-0.4381375747913369,0.7194943176819465,-0.7291662777741759,-0.3522431208026101,-0.19673821292539413,-0.0023288684277388749,0.559998519911415,0.02627992341094003,-0.7689015678338137,0.9233706433314743,-0.6722076545676897,0.5824096196158551,0.6913415211221026,0.3998631807636415]},{"row":1,"colmun":9,"elements":[-0.44336425778250079,-0.43996317640760598,-0.4418102620334487,-0.440237784773296,-0.44262373998138346,-0.43901128776212,-0.4401303478760443,-0.442102002972398,-0.43922247342160217]}],"lastInputs":[-1.031999945640564,0.12799921035766594,0.018620265647768976,-0.4795827865600586,-0.08800011873245239,-0.5800000667572021,0.0013636593939736486,0.15177911520004273],"dw":[{"row":8,"colmun":40,"elements":[-2.2460601360135905e-8,0.000041772388816772215,-0.0012073425874907396,-0.00004095186283703376,0.00021751525445873516,-0.017808141448548505,-0.009477057398744594,0.005422870552444377,-0.007644941260658534,-0.0000036078074939608887,-0.0033260207237378995,0.000699586110960341,0.00456718940959406,-0.006159108004754658,0.014199587172462215,-0.0004216046211574649,0.008216763272647327,-0.000024947332311354324,0.0018095494030015069,-0.006997123477278083,0.0015060898634044558,-0.008298464884867844,-0.00824015295708044,-0.004689967952887422,-0.0005285903585839125,-0.0033822700818378996,-0.001745013663876024,-0.0041605840584165438,-0.0016940233608954067,-0.0036707124821441148,-0.0016628223922116786,-0.0003000724370906248,-0.004093825695953723,0.0005723773846077767,0.0022024429375753779,0.0005036010716124466,-0.0013541338080738646,0.011855650484919312,0.0038557825766242918,-0.0005504605225093625,-2.1848838686031458e-8,0.00004063462817196441,-0.001174458021399182,-0.00003983645097797254,0.00021159075975832345,-0.0173230985034059,-0.009218929404576665,0.005275167036528116,-0.007436714880874569,-0.0000035095411152130389,-0.0032354294123364136,0.000680531382053259,0.004442792205727838,-0.005991351482003034,0.013812830946281094,-0.0004101213146191166,0.007992962093348559,-0.00002426783818375479,0.001760262442071374,-0.0068065418049148489,0.0014650682742001168,-0.008072438386844558,-0.008015714709536444,-0.004562226611935845,-0.0005141930659162701,-0.00329014669846843,-0.0016974844722820579,-0.004047261623785264,-0.001647882999618343,-0.0035707327510612837,-0.0016175318562678978,-0.0002918993203696534,-0.003982321568574518,0.0005567874583279736,0.0021424546781583818,0.0004898844157975983,-0.001317251068104453,0.011532736404053489,0.0037507620643940379,-0.0005354675489981127,5.164552048889345e-10,-9.605071244154699e-7,0.000027761427817349117,9.416400911518534e-7,-0.000005001508352636337,0.00040947734181439536,0.00021791382795741923,-0.00012469255285477737,0.00017578646456656503,8.295730504350707e-8,0.00007647794851083654,-0.000016086162720234915,-0.00010501716781656997,0.00014162147021469583,-0.0003265028653911289,0.000009694304151110345,-0.0001889348415679851,5.736346687119545e-7,-0.00004160846776535896,0.00016089065386755793,-0.00003463077130099553,0.00019081347438829743,0.00018947265994926984,0.00010784031652553912,0.00001215431579803071,0.00007777133657719377,0.00004012454407879795,0.00009566775429979623,0.00003895208182140075,0.00008440373152335923,0.0000382346521134461,0.000006899814011846334,0.00009413272399446441,-0.000013161147143907688,-0.0000506425941293139,-0.000011579716431079533,0.0000311367198982062,-0.0002726067883092312,-0.00008865920144738428,0.000012657194586090218,-1.6580666376710209e-8,0.000030836843218205344,-0.0008912737608667875,-0.00003023112179047843,0.00016057218630070074,-0.013146168591536809,-0.006996069448096308,0.004003223510914151,-0.005643580885483402,-0.0000026633237218185715,-0.0024553055859047867,0.0005164422680240916,0.003371550149771456,-0.004546722207812888,0.010482293586826085,-0.00031123323254818346,0.006065706270980561,-0.000018416398893826676,0.00133582954713736,-0.0051653545741347129,0.0011118123312039064,-0.00612601931215639,-0.00608297279684172,-0.003462186639504044,-0.00039021129688810965,-0.0024968294892770057,-0.001288188544892727,-0.003071389545575652,-0.001250546934652071,-0.002709760885533526,-0.0012275140316553924,-0.00022151681909446017,-0.0030221077779994688,0.00042253536775731574,0.0016258679354192484,0.0003717639265963624,-0.0009996366767341544,0.008751973387418701,0.0028463816929500328,-0.00040635609576671164,-2.1979930538791878e-8,0.00004087843374762181,-0.0011815047061327275,-0.000040075467533549966,0.00021286029289563555,-0.017427036159360797,-0.00927424248338511,0.005306817754004523,-0.007481334768741109,-0.0000035305981724664428,-0.003254841814168548,0.000684614533611882,0.004469448719149339,-0.0060272992674941139,0.013895707186370328,-0.00041258202036931885,0.008040919434464852,-0.000024413443902928892,0.0017708239217084244,-0.006847380688341088,0.001473858604763919,-0.008120872581431859,-0.008063808565121725,-0.0045895997253477698,-0.0005172781965566743,-0.00330988740106383,-0.001707669287488999,-0.004071544975065044,-0.0016577702086666884,-0.003592156954826777,-0.0016272369600944333,-0.00029365070053574113,-0.004006215283028365,0.0005601281530236896,0.002155309290581996,0.0004928236958494219,-0.0013251545034105527,0.01160193219996421,0.0037732664343219127,-0.0005386803253886548,2.1848838686031458e-8,-0.00004063462817196441,0.001174458021399182,0.00003983645097797254,-0.00021159075975832345,0.0173230985034059,0.009218929404576665,-0.005275167036528116,0.007436714880874569,0.0000035095411152130389,0.0032354294123364136,-0.000680531382053259,-0.004442792205727838,0.005991351482003034,-0.013812830946281094,0.0004101213146191166,-0.007992962093348559,0.00002426783818375479,-0.001760262442071374,0.0068065418049148489,-0.0014650682742001168,0.008072438386844558,0.008015714709536444,0.004562226611935845,0.0005141930659162701,0.00329014669846843,0.0016974844722820579,0.004047261623785264,0.001647882999618343,0.0035707327510612837,0.0016175318562678978,0.0002918993203696534,0.003982321568574518,-0.0005567874583279736,-0.0021424546781583818,-0.0004898844157975983,0.001317251068104453,-0.011532736404053489,-0.0037507620643940379,0.0005354675489981127,2.9783782525917389e-11,-5.539209410104945e-8,0.0000016009913752320388,5.430403920236051e-8,-2.8843515500732575e-7,0.000023614408340629344,0.000012567010652297932,-0.000007190973857310272,0.000010137541033740549,4.7841174006240389e-9,0.000004410455282302582,-9.276831128830041e-7,-0.000006056301607821218,0.000008167258321624018,-0.000018829300672823206,5.590669700750945e-7,-0.000010895803120117015,3.308130126390674e-8,-0.0000023995450978688498,0.000009278505085982272,-0.000001997143898192382,0.000011004143186857685,0.0000109268189092019,0.000006219111559953164,7.009349408294151e-7,0.000004485044498415303,0.000002313967762318334,0.000005517124354319929,0.0000022463522933219975,0.000004867532285996158,0.0000022049783848066428,3.979097471624917e-7,0.000005428599718781542,-7.589985358169522e-7,-0.0000029205398567338619,-6.677980057713514e-7,0.0000017956432334107509,-0.000015721133645728318,-0.000005112943678045156,7.299357763688347e-7,3.3168163275718e-9,-0.0000061686389891169599,0.00017829146882369313,0.000006047469750450731,-0.00003212105214445167,0.0026297752839818178,0.0013995020976277637,-0.000800809617794979,0.0011289486683862386,5.327744618603109e-7,0.0004911622652239302,-0.00010330972880779876,-0.0006744489233374172,0.0009095317469863511,-0.002096890542832589,0.00006225946798186447,-0.001213391135238244,0.0000036840384552891099,-0.00026722093986653993,0.001033283705246772,-0.00022240826813285533,0.0012254562281116219,0.0012168451517171702,0.0006925799551179679,0.00007805833440683732,0.0004994687565048203,0.0002576907768129706,0.0006144044371707524,0.0002501609040921932,0.0005420638076149686,0.00024555337463619557,0.00004431248936027703,0.0006045460534583895,-0.00008452448019354502,-0.00032524056585860755,-0.00007436810039607556,0.0001999685160838096,-0.0017507552211917699,-0.0005693935972886584,0.0000812879592789189]},{"row":40,"colmun":9,"elements":[-0.0052433708632608519,-0.004693686939143221,-0.0053131287860796309,-0.0054423490236346129,-0.005136231554876333,-0.0049097599236487738,-0.005014553419437164,-0.0052056906852672268,-0.005070337416957057,-0.005135903759628613,-0.004597486049703848,-0.005204231937705653,-0.00533080370254664,-0.005030960357552749,-0.004809130444581936,-0.004911776113377812,-0.0050989958671930619,-0.004966416772995651,0.0035382008501804215,0.003167276843780084,0.0035852731531436966,0.003672470333412043,0.003465903772231963,0.0033130818301935606,0.0033837959653484548,0.003512774451535584,0.0034214387323009719,0.005213645009138388,0.0046670773673833649,0.005283007458531451,0.005411495117363431,0.00510711309770039,0.004881925385319754,0.0049861247831032499,0.0051761784485873508,0.005041592528537244,0.005189526742822612,0.004645487517160423,0.0052585683222631089,0.005386461598553016,0.00508348764687295,0.0048593416504527828,0.004963059022931279,0.005152233502181872,0.005018270175165321,-0.002617598320229118,-0.0023431848267055196,-0.002652422906617339,-0.002716932300590126,-0.002564112179162336,-0.002451052894030607,-0.0025033679573172116,-0.0025987876022398306,-0.002531216473474416,0.004566520837112966,0.004087793858081747,0.004627273932099569,0.00473981354120983,0.004473211800432027,0.004275974669970411,0.004367240707523587,0.004533704673152554,0.004415823726672003,0.002636974717214581,0.0023605299170739249,0.0026720570876201199,0.0027370440031504546,0.002583092652642454,0.0024691964623313954,0.002521898780387659,0.0026180247555772039,0.0025499534412005764,-0.00034075743035511034,-0.00030503444100826304,-0.0003452908748026874,-0.0003536886702757562,-0.0003337946355486359,-0.00031907664341762723,-0.0003258869879982456,-0.00033830866200298086,-0.0003295122916713093,0.00523903860186489,0.004689808846354925,0.005308738888181508,0.005437852359333476,0.005131987815826361,0.004905703303597406,0.005010410215234457,0.005201389556588131,0.005066148122011339,0.0030736451808082326,0.0027514224373875637,0.003114537024793075,0.003190285464257218,0.0030108405027720875,0.002878083645386747,0.0029395132164985115,0.0030515571957081134,0.002972213595627636,0.00398061843693602,0.003563313992926273,0.0040335766733332269,0.004131677012494955,0.003899281312899221,0.0037273504740901657,0.0038069067237403808,0.003952012714560095,0.003849256352405705,-0.00032556009975463366,-0.00029143030847415157,-0.00032989135857721373,-0.00033791462348175925,-0.0003189078363853373,-0.00030484624723270843,-0.00031135285945454316,-0.00032322054323149504,-0.0003148164793797594,0.0015593984030908572,0.0013959203169841136,0.0015801446741983885,0.0016185752634786865,0.0015275347659841023,0.0014601812429754307,0.00149134722650937,0.0015481921750891064,0.0015079375991759424,0.0015339986292805142,0.0013731833049169076,0.0015544069812312124,0.0015922116058618207,0.0015026539930741593,0.001436397536887128,0.0014670558830329759,0.0015229749304233023,0.001483376028596375,0.005029108787524046,0.004501886829506473,0.00509601616291217,0.0052199560193825849,0.0049263475578995709,0.004709130332486087,0.004809641607444236,0.0049929683505408489,0.0048631460799384899,0.0034266046855779754,0.00306737975964989,0.003472192310680343,0.0035566392596039656,0.003356587884231282,0.0032085860028171128,0.0032770697879719319,0.0034019802449588595,0.003313525288119991,-0.0052368275288964,-0.004687829569171536,-0.00530649839904897,-0.00543555737941978,-0.005129821922349234,-0.00490363291076576,-0.005008295632115332,-0.005199194372944502,-0.005064010015381822,0.004915335480947542,0.004400040842062974,0.004980729213729416,0.00510186518428624,0.0048148990140944049,0.004602595884403402,0.004700833297215523,0.004880012647478291,0.00475312734038532,-0.0006871964035157785,-0.0006151548055485581,-0.0006963388797830368,-0.0007132744894938505,-0.0006731547213008338,-0.0006434733398886588,-0.0006572075798071456,-0.0006822580378200606,-0.0006645186328432765,-0.004959864831095782,-0.004439901999064817,-0.005025850983344411,-0.005148084357337761,-0.004858518483194344,-0.004644292042177752,-0.004743419414214371,-0.004924221998548976,-0.00479618720322878,0.004383309783569917,0.0039237895655097579,0.004441625434617135,0.004549649899466399,0.004293744351161286,0.004104420471018381,0.004192024870425307,0.00435181022018725,0.004238658715040204,-0.0030144048593999165,-0.002698392520161389,-0.003054508568828511,-0.003128797060368914,-0.0029528106559286425,-0.002822612506018639,-0.0028828581058771959,-0.0029927425901061517,-0.002914928229770004,0.004176593700223597,0.003738744371145982,0.004232159195891093,0.0043350892468426859,0.00409125215713717,0.003910856756367036,0.003994329748407505,0.004146579650457602,0.004038764349485861,0.004687173928803941,0.004195798394744446,0.00474953219521128,0.004865045239078807,0.004591399552719147,0.004388951174912934,0.004482628573322648,0.004653490721468388,0.004532495215534009,-0.004470695946688184,-0.004002014681219954,-0.004530174185197018,-0.004640352238081851,-0.004379344927617265,-0.004186246665035235,-0.0042755975557271599,-0.004438568404422019,-0.004323161097980043,-0.00101228181655389,-0.0009061601906481041,-0.0010257492364010729,-0.0010506964126010667,-0.000991597570380168,-0.0009478751024801225,-0.0009681064675782863,-0.0010050073055528238,-0.0009788760903680343,0.0037995449353560217,0.003401223164038687,0.003850094165852797,0.003943732039646488,0.003721907738376066,0.0035577978247589025,0.003633735157166744,0.0037722404525733644,0.003674158352622121,-0.003987888077336009,-0.003569821527313508,-0.004040943029191108,-0.0041392225249839279,-0.003906402410641257,-0.003734157581583799,-0.0038138591215540215,-0.003959230113501037,-0.0038562860916114807,-0.002365092058419018,-0.002117149824792098,-0.0023965572958727537,-0.0024548438000316916,-0.0023167654505911784,-0.002214612413844051,-0.0022618809117486515,-0.0023480959137524334,-0.0022870430246263804,-0.0031120708331462568,-0.002785819772081314,-0.00315347389286616,-0.0032301693132044037,-0.0030484809926787138,-0.002914064454833433,-0.0029762619972639274,-0.0030897067116717757,-0.0030093711852586895,0.005060171969832698,0.004529693531891754,0.005127492610490531,0.0052521980034644318,0.004956776017249355,0.004738217111120923,0.004839349211793927,0.005023808305031182,0.004893184164151241,0.00173213397205673,0.0015505473126943455,0.0017551783210233744,0.001797865891516343,0.0016967407792738577,0.0016219264629902292,0.001656544722663124,0.0017196864229365229,0.001674972821632504,0.000035903931062616326,0.00003213997573074531,0.00003638159776162971,0.00003726643208330187,0.000035170295688989167,0.00003361953339364854,0.000034337105838306225,0.00003564591640975447,0.00003471908621955009,-0.0045059030965060669,-0.004033530922121877,-0.004565849731720706,-0.004676895447103908,-0.004413832679593559,-0.004219213750085983,-0.0043092682874209509,-0.004473522546831808,-0.004357206397029328,0.00368271945798117,0.003296644977293281,0.0037317144397233735,0.003822473208389363,0.003607469389658341,0.0034484054010996934,0.003522007870975297,0.0036562545123772617,0.0035611881651921209,-0.004599694037981732,-0.00411748937718727,-0.004660888469971992,-0.004774245615931832,-0.00450570716372442,-0.00430703721664355,-0.004398966250535568,-0.004566639483080464,-0.0044479021979439239,0.0031513703388546334,0.0028209993505373526,0.0031932962400743108,0.003270960176963427,0.003086977480257865,0.002950863518485054,0.003013846496982029,0.003128723801276319,0.0030473737907309218,0.004315536404541744,0.003863121145849603,0.004372950397043971,0.004479304621056509,0.004227355805124203,0.0040409591922112128,0.004127209079512288,0.0042845238776574689,0.00417312188605717,0.0015844631550198192,0.0014183574288783256,0.0016055428881456074,0.0016445911856298418,0.001552087362611345,0.00148365124304338,0.0015153181682509493,0.0015730768054247882,0.0015321752037372812]}],"db":[{"row":1,"colmun":40,"elements":[2.1848836602364024e-8,-0.00004063462429674465,0.0011744579093941476,0.00003983644717887288,-0.00021159073957945803,0.017323096851346643,0.009218928525391128,-0.005275166533449032,0.007436714171654238,0.000003509540780517148,0.003235429103781849,-0.000680531317152735,-0.0044427917820301959,0.0059913509106232849,-0.013812829628987007,0.00041012127550690386,-0.007992961331080365,0.00002426783586939361,-0.0017602622741996817,0.0068065411557925,-0.0014650681344803316,0.008072437616996914,0.008015713945098391,0.004562226176848052,0.0005141930168790027,0.0032901463846956196,0.0016974843103973387,0.004047261237808354,0.0016478828424639886,0.003570732410529704,0.0016175317020080535,0.00029189929253196754,0.003982321188790773,-0.0005567874052285887,-0.0021424544738380009,-0.0004898843690785842,0.0013172509424816137,-0.011532735304206142,-0.0037507617066935268,0.0005354674979319526]},{"row":1,"colmun":9,"elements":[0.005243372120213116,0.0046936880643240609,0.005313130059754416,0.005442350328286354,0.00513623278614493,0.004909761100627098,0.005014554621536813,0.005205691933186716,0.005070338632429367]}],"learningRate":0.0025}