{"weights":[{"row":8,"colmun":40,"elements":[-0.3766715657512633,-0.019624602418645329,-0.5018396936344773,-0.1537662938601415,-0.3220660398063224,-0.13483272677570924,-1.2597276721063815,0.2774102196482252,0.17139309860490327,-0.4224625115327457,-0.7042825040330769,-0.20156817501201383,0.09230016730623163,-0.4296593523195798,-0.188617903596684,-0.5360356991419125,0.9819305722050639,-0.8656467119585225,-0.62522552864825,0.3897967955377001,-0.864271170327154,0.3898475698338694,-0.1766947992541428,0.7215416930716574,0.20518221752766273,-0.14563367889516139,-1.0753668423500922,0.9891437912879316,0.420248543697287,-1.3354920120607943,0.1041882064706441,0.5037926721846641,0.257434142208219,0.18439606074377475,-1.2818847802799605,-0.534604381655583,0.49262681804245198,-0.4016418807781287,-0.0656112579838328,-0.3643323076066555,0.4093946868862675,-0.6765992325097314,-0.1457753173355558,-0.539463841892595,0.24227957013789196,0.479878154324812,-1.0915333442794917,0.7394042612367138,-0.24638951698165999,0.476393157956463,1.0023697447138403,-0.36820515434374487,-0.3162693752215304,-0.2270179907169538,0.27001747822972996,-0.1618420597311907,-0.42301274967125265,-1.4472861411663219,-0.15437467363840599,-0.102625185402242,0.09897714523177767,-0.22049881406468703,-0.1843044384256603,-0.4008212465028153,0.07085834952719195,-0.3454210921938442,1.1337102067697398,-0.5758974389878863,-1.0885029561702505,0.488108211797742,0.2246957379293943,-0.6279151200973294,0.019403951065976978,0.2723367862883794,1.5268605806663574,0.08063405970151987,-0.12404034599603257,0.1985642632488093,-0.037056530472980377,0.062189264143031549,0.28880607971840507,0.1170303173852931,0.4072051591956172,0.1393301660737607,0.21495513876800186,-0.08571709470074299,0.4731262574943882,-0.02878243823140761,0.03562947774867188,0.7271143087537406,0.15989242586872827,-0.18498603567631226,0.01921681631443734,-0.4697307832893483,-0.2134153135601556,0.04583024497113689,0.3906331338595037,0.2611549748829157,0.02211198272522938,-0.9991265192545101,0.19429017150651005,0.15142455409380616,0.4502421187561368,0.27767891986711087,-0.12738963624554326,0.18954931216969365,0.030859324636925278,0.27039927458509546,-0.4728861013590719,-0.36758229126684907,-0.05232147118628599,0.12975114389907886,0.10951013956593066,-0.5411214963617305,-0.0632369005889079,-0.24954442657206095,0.9625613074623962,-0.032547935213870299,-0.0020372520134815895,-0.5862328028490971,0.34574413114415128,-0.19686277609509285,0.2400836285322762,-0.03390182305265267,0.2572129477915605,0.22832890060945988,-0.7351463893679893,-0.3644172345721768,-0.026933001117660953,-0.1523021722245699,0.5929534277360585,0.07812368335465575,-0.5113133275655041,1.775207916856374,0.38483745150234818,0.15159766203995049,-0.4424414832131174,0.18145461375842304,0.10005420231978232,0.7991367050195648,-1.6622062659602417,-0.42196906368606826,0.15956171854949317,-0.4505510239492576,-0.7588127934526193,0.43489294196487845,0.4452675488682253,-0.28312274396712719,-0.8853562369577227,-0.3458070511181861,-0.2078213010978683,0.258960667283546,0.2989725712055298,0.15674019910463253,-0.2588820668249027,-0.4940065954098244,-1.1222999299988439,-0.42368666060061535,0.08986208913886762,0.6000729725827346,-0.3003787170817585,0.08611660612382358,-0.5927461729206521,0.5390155118993569,-0.1541575720349635,-0.03952045840029573,-0.6360758201531718,0.23951772738662267,0.21646414025834755,-0.12515391971324564,-0.05196527524884448,-0.016250407320754443,0.24410293872448869,-0.09921376562903311,0.8736296889376883,0.09599034255048256,-0.5062050857454381,-0.39430651523233187,-0.034035033014233957,0.17152951491272604,0.4228642184871001,0.32344202247081008,-0.21880920757248149,-0.47456347283032759,0.5489602440173864,-0.44227421232569,-0.018226535623133548,-0.1452296810606159,-0.07205677633683526,-0.06090091757689781,-0.6144096213378878,0.6677168620194602,0.08967732850193604,-0.14472019233407636,-0.09328706425873397,-0.2099238633506485,-0.5205034932406462,-0.16014023882543577,0.28543302098916625,-0.3648112733860498,0.36950634826851427,-0.42408000199605086,-0.222559953764798,-0.37570765374339029,0.26011197673601746,0.22841999254227866,-0.19548853991006805,0.062143379284569897,-0.0007820106187540018,0.24733413463884089,-0.05604242363678096,-0.13853540555913367,-0.19907186141593284,-0.06577023632965667,0.3451999783316609,-0.03447476904192297,-0.10039225969739019,-0.10679760106469477,-0.046155838484697547,-0.1594042161173047,-0.20382767857017626,0.2033830761516213,-0.14668708906563694,-0.2680447630410841,-0.08138936035465926,0.07540558426747762,-0.02135085179984883,0.08756533267498269,0.03696590098301803,-0.015253588268197735,0.21914681326224576,-0.3151285088337143,-0.05401322834287323,-0.49650850989821129,-0.015437436354342379,0.062031349006275739,0.09685133615269644,0.11764266320221377,-0.015811985876881625,-0.062367071531371057,0.23595711294174158,-0.15386506704235976,0.22285229980813488,0.4256830833544014,0.25578948539808996,0.4342041616229134,0.2555395322193786,-0.017625092046023178,0.07901904538009821,0.41148939281306065,0.0578119184263285,0.0881577366430882,-0.01902445617654111,-0.5234533231903499,-0.1350702565073832,0.2539741102443332,0.27290782083972117,-0.03814508787498381,0.20299194974555055,-0.9080534500303661,-0.024525329714897516,0.1038993788069302,0.1434956930569778,0.21515457944525308,-0.008344594809121725,0.07243103474348292,-0.005351017765575103,-0.03990575804349832,-0.3748642551741689,-0.40585546222238719,-0.3892099377632842,0.22862989346049057,-0.032894383638408717,-0.2397260237604182,-0.15088993016364,0.00830646045017905,0.8506738363618432,-0.028390606416921199,0.09645124192606405,-0.5729779440723546,-1.0680690752747422,0.5020460105100155,-0.26558393217410439,0.7516900606360083,-0.8417281327758608,-0.47890543627309226,0.12303509073413356,0.15113474528115809,-0.4447587678351758,-0.18235236844932119,-0.1453246012639728,0.2831866565937481,0.21754354434586554,-1.9344519827380587,-0.03641879831080412,0.14888180803979843,0.55041401421111,-0.3652095304019043,0.22385742223837719,-0.2769239053298209,1.2246770894857438,-0.01137091923033188,-0.12265796464620124,0.47790932571657937,0.27527777353736695,-0.1490497737595233,-0.3114282843281177,0.5921111079393561,-0.19273002554909214,0.6310312811448889,-0.16847545724692535,-0.9193810475157401,-0.3005602357549891,0.7126821682570046,0.2903036269668411,0.24991748467706713,0.4178430395531261,0.8507426842565194,0.22974457312592504,0.06720499662586463]},{"row":40,"colmun":9,"elements":[-0.24756336522153853,0.4655622502369324,0.4639719217058563,0.09276602490567534,-0.07358023834201845,0.7355716432337175,-0.029569051873333218,0.16387340924680969,0.142920121290891,-0.3234562963433247,-0.4426699574166846,-0.7434047304408823,0.15901015833915448,-0.8062211944570004,-0.5281627898465103,-0.060734379594382856,-0.057956122228910587,-0.12407311748215498,0.32570867417609486,0.8090176302701456,0.581150306217816,-0.2858204504423679,0.606863826839504,0.25492456723324649,0.564310492202382,0.34256870537803349,0.3963433832202923,-0.11806415601666316,0.17390594014277228,-0.17222162030639588,0.5487014948758526,-0.3256628264812922,0.16647332544616703,0.13508964438990585,0.17961593724052458,0.2286340405610336,0.76740307803347,-0.37217066551412655,-0.2623148746969548,0.8124672894643664,0.20022834999083273,-0.4372302190848805,0.9161779745504396,0.552781773022664,0.41452717433571,-0.03359175626280293,-0.01819503393844932,-0.027452528420355176,0.8002518402257072,-0.5458841766704932,0.11534363693533166,0.49306622073877007,0.5793471941999673,0.3864861166124707,0.39367479668669949,0.5073939349088432,0.4430658726245453,0.5095833222553875,0.5569658854903141,0.4586898873587048,0.4724857571958681,0.4760265368471253,0.5573350013277574,0.4804520101076206,0.7366073140659044,0.6863218757898627,-0.5393946161983945,-0.6673408392384683,0.42615414328991949,0.4126039224032568,0.04812757224030644,-0.3443856567748065,-0.5875717421167441,-0.5878761279703252,0.5213535287025827,-0.8626638052332378,0.9179010889983774,0.44990675845015928,0.5478589648357304,-0.24532986962047147,0.1667027474122921,0.396952123493064,0.5595649143958668,0.4889386119386055,0.39012305805326977,0.5631308986167308,0.5580150197090686,0.4657703468709239,0.5213895043500707,0.4860737458220898,-0.6485195140140539,-0.6169563800844201,-0.0894545656942206,0.17512506889526717,0.032420274345474547,-0.2876228517100676,-0.1983812166531739,0.32075824726882998,0.08218035179108269,0.12850224179002757,0.268269611258591,-0.09978998243815547,-0.12885597089978216,-0.6223969308589993,0.079347740485086,0.34894547668286188,-0.109367110910202,-0.37787674753273717,-0.4921223041112264,0.6081253200260376,0.5310985126223689,-0.38244657080004576,-0.32862335927267896,0.33785150182548459,0.1552878788336133,0.08330757051681441,0.14578535218909134,0.6769273508350545,0.6905281234357437,0.6895224729363846,0.7332854892216858,0.6408168629006722,0.6999971266106694,0.6482278524815741,0.6571110396107329,0.6815511979453257,0.4077087138692989,0.7228031575693177,0.45052109474766008,0.5154932727972528,0.06394704917668877,0.5569548097197378,0.38914807610070975,-0.07142257774265443,0.4784189490060471,-0.22135776854830087,0.8862250005408774,-0.5153836393845376,0.5135046777719594,0.7130046026941205,0.7824893858427268,-0.09049479400443775,-0.6105395475748152,0.514641694661132,0.7802452668929566,0.41963933134259448,0.2550559064275962,-0.005705595579422192,0.34827388076131979,0.11971872235292942,0.7213762646083569,0.46104646153341619,0.7490409907235598,-0.4409351767474416,-0.39568931358907757,-0.36106699736955846,-0.8139929451012754,-0.8320246995499976,-0.4570884053077994,-0.39159756054470609,-0.5855805195875519,-0.7372161202376466,0.5732606415955871,-0.36375844585840169,0.9189527164139915,0.25317620674930949,-0.06273910329185092,-0.7314022794173993,-0.08805023808718815,0.5468297966912167,-0.49890813306363587,0.6129102863845896,0.5453116207594871,0.5362392299255008,0.5758845736541446,0.43767150667516227,0.4769774415721219,0.5328824968212642,0.621763892293211,0.5384447376927477,0.5454249340317741,0.5785680673459108,0.5288440738735148,0.6173220583143768,0.5216647626459183,0.5093201250305576,0.6635053229101827,0.6005340841146583,0.6421627077276668,0.045821134460900646,0.09739161772317889,-0.025769133413161058,0.7369177554614637,-0.47962559672581248,-0.07437840565748139,0.08743818224029504,0.230116977978108,-0.05598582458639938,0.36953308445007457,-0.1648390206310988,0.25493368222739068,0.8867306539733265,-0.3285537443064489,0.8298184278484082,0.11315036596123901,0.1519370362406426,0.29121681797730716,-0.15603956983871435,0.45245798435160025,0.30675367631482067,0.5217984140766089,0.030818096095873435,0.47866680142014259,-0.22799933208301038,-0.4302235616490752,-0.13640826551388886,0.391989625754934,-0.738316693300229,-0.46660992488911626,-0.36281058925925638,0.3836743655555012,-0.5676223733510405,-1.035629939038823,-0.19650535781327409,-0.4484319928059587,0.9125791195983772,0.34388755412059976,0.3508681668369298,-0.5644566679927177,0.2381121375907788,0.06184706856198208,-0.37081829242370947,0.4464359784565168,-0.03902854808149522,-0.18206611883576585,-0.20537145686124137,-0.40173382606444898,-0.690509450014179,-0.5175915179166217,-0.32694490078674789,-0.4114238180272181,-0.7302615929130898,-0.6252078709533735,0.2355436677322933,0.12881496351522429,0.5052542361702141,0.5178364051493506,0.6320738859332393,0.5014425228627846,0.25581045977273178,0.5344163847954787,0.21580783799525267,0.061696558184023687,0.07719599407850797,0.333148630575354,0.2862290233027376,0.2744747057144601,0.22842239284597166,0.30050658111558078,0.3936128067690022,0.3116804888116753,-0.5066019635572105,-0.49889965239740188,-0.5536629217024209,-0.5555314622376879,-0.5428382935671297,-0.5568806915265899,-0.6017013868948298,-0.5422524228289262,-0.6052591372375574,-0.6505397359911155,0.10023026479463793,-0.7766155949078623,0.45440527983316617,-0.6678657383621464,-0.056274064578096947,-0.28209885471291426,-0.3782264708998008,-0.29561820318956258,0.2582224473269144,-0.09018184260900607,0.0025429428367503318,0.0557357506159846,0.13679540896088597,-0.09314612544450705,0.24616902750302153,0.20285435207300618,0.10858522179745804,1.0524056936948539,0.7901396247329211,-0.7768409179159914,0.13890710800091547,0.0021989041550717874,-0.3705361329506002,-0.02255307594619411,0.36556962533110745,-0.2171615654532536,0.07902992789751666,0.0028989105784262847,0.06877954509106424,0.46459643926123397,-0.08276727109611557,0.23256679036240095,0.3613373343092096,0.18317246593659945,0.20936113549132308,0.6408145549512283,0.58614153070083,0.6313962386853319,0.7187687666476096,0.6613514625821121,0.6060995390978374,0.6643304232262418,0.6724715818323257,0.6595596184598976,0.4686636088347054,0.3701094571383839,-0.26596945079609099,0.04169660243996277,0.05422553948220484,0.4603140083307932,-0.3605239346585738,0.1777071405398734,0.051328199894324477,-0.48259080469822149,-0.5237822661096435,-0.4722288326927905,-0.533914024849722,-0.4334957500578536,-0.46146243983827697,-0.40036636083961665,-0.5399350358912637,-0.45882397369536989,0.18459136263888713,-0.6050386141205788,-0.5509429939411855,-0.40183126168570867,-0.3370865055379947,-0.8011073181252539,0.27101037576824,-0.0023728746594175178,-0.16825098204080803,-0.609060096971898,-0.055032916824027448,-0.04672000462553674,-0.7446005636768449,0.27419938166294047,0.5758334554005377,-0.22945194353545726,0.41218489605927,-0.255946382923549,0.22209040323301294,0.1990758782395225,0.4192422435285274,0.35482219639435139,0.42459904654927846,0.5354275314526106,0.47605228776227989,0.2839921024698354,0.5061292315605647]}],"biases":[{"row":1,"colmun":40,"elements":[-0.9339763837320542,-0.8527547341765409,-0.9762437701842794,0.63584460160076,-0.7846137839179408,0.893487767207378,0.553862246649492,-0.6537928655930535,-1.3986200643394807,0.18834315290412699,-0.15095156848030484,0.46058646500090336,-1.1786312995602662,1.5140711613856084,0.5532310948670973,-0.0012946963746007627,-0.34632788319668286,0.6747673533733591,-0.03587017963810521,0.29490235109560128,-1.1187102053283038,-0.6886377076047087,-0.5242694179062782,-0.38277321964679059,-1.0921749904226635,0.8632910251026379,-0.31231333634353206,-0.05889850656999292,0.15774278230404593,-1.3018155878662177,-0.4619022002995637,-0.49614033677883087,-0.00712970278361582,1.219092674634375,-0.3108061248012119,-0.08297888349570974,1.5230657172406275,0.19675541047679744,0.27313267019320455,-0.5487244302380167]},{"row":1,"colmun":9,"elements":[-0.6878645054247345,-0.4489938980669741,0.4570609338969412,-0.711519078022737,0.5619450203890976,0.12997386414320778,0.1676086691995835,-0.5705630779214997,-0.11793389484682396]}],"inputSize":8,"hiddenSize":40,"hiddenLayers":1,"outputSize":9,"v":[{"row":1,"colmun":40,"elements":[-0.6574300576029829,-0.0399968272314819,0.12375261371846247,1.2951942391558116,-0.48050091176849499,0.4997729711310446,2.724112029009052,-1.5262449997076236,-1.2116112156393453,0.543350601723509,0.1560848872304916,0.7559443927151615,-0.9503688029244303,2.761126584360189,0.2444033362034828,0.5850364475566431,-0.965070133017295,2.825971748816426,0.5860707967003791,-0.20154852461980439,-0.5777344097900935,-1.0259767060960959,0.26168244089860639,-0.6507907727545863,-1.461987060763477,1.322036554652513,0.18409735272454665,-0.7431727447779045,0.09271462705381427,-0.8065959074467131,-0.9036999483214883,0.23042189828282068,0.04178844595307211,0.7452088424651405,-0.21688889170808876,-0.06853209591507335,1.2541179827337732,-0.06031936679202307,0.3117499971448171,-0.5088074625001055]},{"row":1,"colmun":9,"elements":[0.055678498286487857,0.03239794102798099,-0.01341236616331315,-0.024616168833498376,0.03284953687508452,-0.030773574420979167,0.010226061189798269,0.029124985742735478,0.009131152958066963]}],"y":[{"row":1,"colmun":40,"elements":[-0.5766505851604171,-0.03997551261326336,0.1231247147685062,0.8604808618541041,-0.44664468408885779,0.46193859218980556,0.9914290061401282,-0.9097798104896684,-0.8371621502162548,0.4955200557581687,0.1548295798394206,0.6386819121528958,-0.7399499705675667,0.9920381576451878,0.23965054918764956,0.5263163832169888,-0.7465298887858852,0.9930031893565898,0.5270638012486358,-0.19886306304102878,-0.5210168020923528,-0.7722897027866527,0.2558685019762594,-0.5722020684701793,-0.898037837081803,0.8672894975520964,0.18204536740968703,-0.6310582336884546,0.09244987895131174,-0.6677081129642208,-0.7180946690795836,0.22642865808043334,0.04176413823688613,0.6322819130508819,-0.21355081298026255,-0.06842500671372846,0.8494343573242984,-0.060246317253299968,0.3020282970437722,-0.46901551095748408]},{"row":1,"colmun":9,"elements":[0.055621033329606568,0.03238661053835957,-0.013411561963995834,-0.024611197935188804,0.03283772608141832,-0.03076386377559787,0.010225704750367963,0.02911675330269105,0.009130899187579025]}],"lastInputs":[-0.9359999299049377,-0.6319993495941163,0.799494206905365,0.11302527785301209,0.12599991261959077,-1.0000000238418579,-0.25588732957839968,-0.35622936487197878],"dw":[{"row":8,"colmun":40,"elements":[0.0024939819062510485,-0.004642406046416927,0.006185952140182052,0.000803301686697324,0.005890749763081838,0.004904760835011595,0.00016045040409202183,0.0005968803958588558,-0.0006129708597976288,0.007035554063627249,-0.002676064228247781,-0.000014940098821300583,0.00047874571453198635,0.00021498352973388257,0.007944876679915213,0.0021803430442613677,0.003728868570688789,-0.0001496364978049824,0.0014459135807171546,0.01055558179436244,0.008443353555004587,0.0012646367042172807,0.007251304621807367,0.0013816220537075867,-0.0014937017038930189,0.0005304071185615092,-0.008786298158724159,0.004440041760068391,0.004918666313135699,-0.006062956051299476,-0.0021001646440883556,0.0018216005613780906,0.002363613833704135,0.002615768435519597,0.01231514165417364,0.00221162357631865,-0.0026588294992619559,-0.004685379686788156,-0.0031382886707825689,0.005833655482833461,0.0016839690819317035,-0.003134613057273705,0.0041768354935800568,0.0005423997666026824,0.0039775110018090789,0.003311758429252068,0.00010833820365624366,0.00040302142117317,-0.00041388591209787017,0.004750497783368698,-0.001806913438440586,-0.000010087749407088904,0.0003232553449399459,0.00014515968070538248,0.005364484263179204,0.0014721960353193513,0.002517780649445778,-0.00010103651321629378,0.0009762996912567618,0.007127266376293523,0.005701062344842294,0.0008538991820430389,0.00489617537167605,0.0009328892144433862,-0.0010085668547474014,0.00035813779813531453,-0.005932623010150885,0.0029979740541422187,0.0033211475892823709,-0.004093786931616699,-0.0014180585347257486,0.0012299684361388297,0.0015959428605345976,0.001766200933482018,0.008315344122288156,0.0014933170581779407,-0.0017952763248453117,-0.0031636294192376069,-0.0021190134052409658,0.0039389601997954679,-0.0021302609353582109,0.003965360062142022,-0.005283796229313484,-0.000686148603640436,-0.0050316460070583559,-0.004189453170414606,-0.00013705040403178733,-0.0005098316820953202,0.0005235755214851108,-0.006009492668242787,0.0022857884700996399,0.000012761242898208978,-0.0004089256987315865,-0.00018363044815586976,-0.006786200166505198,-0.0018623629951878434,-0.0031850523972581426,0.00012781359198268429,-0.0012350423269653064,-0.00901616146057362,-0.00721197944402151,-0.0010802027719855662,-0.006193778281831584,-0.001180127041445499,0.0012758610561310915,-0.0004530528315684403,0.007504909192414868,-0.0037925084737486078,-0.004201330681137924,0.00517873782343986,0.00179387776948513,-0.001555939321774581,-0.002018905671926448,-0.002234286183137026,-0.010519108063107174,-0.0018890815913860876,0.00227106724465772,0.004002066450068698,0.0026806023501969985,-0.004982878325728887,-0.000301157071606873,0.0005605868296978047,-0.0007469754399453004,-0.00009700149907915001,-0.0007113287164482057,-0.0005922670915542262,-0.000019374949639120874,-0.00007207540346056935,0.00007401838347516016,-0.0008495678551729379,0.00032314415128314235,0.0000018040693876979838,-0.00005781022591680336,-0.00002596001602741699,-0.0009593717537420468,-0.0002632840778284585,-0.00045027397205282745,0.00001806913248709053,-0.00017459914150698473,-0.001274623562556441,-0.001019564586572707,-0.00015270932220239856,-0.000875620492578292,-0.00016683571389156937,0.00018036972516565506,-0.00006404852183772995,0.0010609763515581303,-0.0005361506316156182,-0.000593946226860161,0.0007321232303706707,0.00025360225449938507,-0.00021996466346730584,-0.0002854146691215726,-0.0003158632226113178,-0.0014870965934832338,-0.00026706131190103313,0.00032106299724657937,0.000565776047654057,0.0003789593755997231,-0.0007044343816489007,-0.0003357281258497397,0.0006249388888870971,-0.0008327238114334792,-0.00010813669862273644,-0.000792985054483465,-0.0006602558578121018,-0.000021599079497181198,-0.00008034923435325551,0.0000825152570050948,-0.0009470932303782041,0.00036023919249425387,0.000002011165904898209,-0.00006444649862758029,-0.000028940072638543364,-0.0010695019683862695,-0.0002935075359306558,-0.0005019627663053815,0.000020143362243674784,-0.0001946420923817208,-0.0014209428240808615,-0.001136604583138096,-0.00017023945102548024,-0.0009761365567821748,-0.00018598746909963534,0.000201075104983575,-0.00007140091409872927,0.0011827701743111796,-0.0005976975594995715,-0.0006621277479400731,0.0008161666558647496,0.0002827142964303023,-0.0002452153084933966,-0.00031817858847855225,-0.0003521224561865367,-0.0016578065048374052,-0.00029771837417966315,0.00035791913425829133,0.0006307237984354029,0.0004224616751133897,-0.000785299290742965,0.002664510846668017,-0.004959836009359535,0.0066089238791875799,0.0008582283824862184,0.006293536693027887,0.005240129614591257,0.0001714213888175753,0.0006376927935776809,-0.0006548834618761645,0.007516618331459144,-0.002859043261169807,-0.000015961645615740213,0.0005114805147419147,0.00022968328093926624,0.008488116949050127,0.0023294265593227527,0.003983834336366516,-0.00015986806899418457,0.0015447796190938507,0.011277332090291043,0.009020677765614093,0.0013511077233702447,0.007747121087315038,0.0014760920834559718,-0.001595835311288267,0.0005666743279150348,-0.009387071609180767,0.0047436348273852718,0.005254985896105134,-0.00647751778834789,-0.0022437658669199687,0.0019461546380601099,0.0025252287041272896,0.0027946246728352208,0.01315720392098774,0.0023628459344783097,-0.0028406300873584759,-0.005005748022836038,-0.003352872842548111,0.006232538524347031,0.000681814548930834,-0.0012691591613226857,0.0016911398425123123,0.00021960976372688306,0.0016104362595867862,0.0013408827417533097,0.000043864560371337276,0.00016317750214952763,-0.00016757637624921728,0.001923407346439522,-0.0007315929278073264,-0.00000408438277490926,0.00013088137992823856,0.000058773040007095714,0.0021720015274570385,0.0005960707275026652,0.001019412705510871,-0.00004090821228444946,0.00039528952209262624,0.00288572632455229,0.002308277089396621,0.0003457313390630856,0.0019823900796896909,0.0003777132524419792,-0.0004083540265165502,0.00014500477705362938,-0.002402032629365557,0.001213836019534604,0.001344684275866725,-0.0016575146896386936,-0.0005741512421964813,0.0004979963014066614,0.0006461740142678659,0.0007151090276561856,0.0033667616957901486,0.0006046223219635136,-0.0007268812300440176,-0.001280907463566654,-0.0008579576576402696,0.0015948276014660086,0.0009491769839729034,-0.0017668391893585884,0.002354292699839534,0.000305726144319092,0.0022419425255037429,0.0018666879999473805,0.00006106533100804644,0.00022716489342358205,-0.00023328871412727243,0.0026776401103608489,-0.0010184751407856918,-0.000005686006744441775,0.00018220437456681424,0.000081819927339968,0.0030237164376281874,0.0008298101239592479,0.001419158741563644,-0.00005694969932332141,0.0005502958494569043,0.004017316752194468,0.0032134302345453418,0.0004813042346946203,0.0027597519587229358,0.0005258273328453762,-0.0005684833858267958,0.00020186603110956708,-0.0033439504776202565,0.0016898219814555584,0.0018719802435492514,-0.002307481992675456,-0.000799295270637641,0.0006932774141297871,0.0008995605959805585,0.0009955273485244307,0.004686982284518206,0.000841715086461494,-0.0010119158277299902,-0.001783194396369378,-0.0011943917347209017,0.0022202131871342757]},{"row":40,"colmun":9,"elements":[0.001808018754129136,0.0009488475212929637,0.0013664106488193852,0.0021314312538441087,0.00005093592422281402,0.0014858891659551089,0.00153778036153911,0.0013240248206710304,0.001506883497087286,0.00012533842567869684,0.00006577755582257616,0.00009472454816217912,0.0001477585545996557,0.0000035310632359297544,0.00010300723284452353,0.00010660451896018485,0.00009178620863496472,0.00010446263611745682,-0.0003860427772501643,-0.00020259509558201617,-0.000291751930409876,-0.0004550968505567892,-0.000010875686772535878,-0.00031726262739322804,-0.0003283422808604998,-0.0002827018346754872,-0.00032174527442233974,-0.002697934547952687,-0.0014158749750738036,-0.002038964743989023,-0.0031805322833069538,-0.00007600683863416102,-0.002217251179559703,-0.0022946834788546736,-0.0019757164011032699,-0.0022485790245520755,0.0014004008424618002,0.000734929803771024,0.001058353304900935,0.0016508999791710734,0.000039452417753020966,0.0011508953848272826,0.0011910877079689678,0.0010255233636672847,0.0011671565430355579,-0.0014483530571686469,-0.0007600951069301801,-0.001094593203773814,-0.0017074297296970549,-0.000040803338681825446,-0.0011903040890532387,-0.0012318726687997606,-0.0010606391069819012,-0.0012071220582303038,-0.00310850675021912,-0.0016313431031242459,-0.0023492547938045187,-0.0036645463024490229,-0.00008757357406479538,-0.0025546728936856005,-0.002643888855290768,-0.002276381305843244,-0.0025907682161990786,0.0028525054891529869,0.0014969937433868392,0.002155781773442822,0.003362752370492447,0.00008036144708611802,0.0023442826533076825,0.002426151229009139,0.002088909785981766,0.0023774053433565894,0.0026248215241418606,0.0013775052893287288,0.001983709557020225,0.0030943410401809907,0.00007394708154811085,0.0021571644964306598,0.0022324984091853128,0.0019221752207262589,0.0021876433684638446,-0.0015536437088824825,-0.0008153515989692323,-0.0011741666414908446,-0.0018315544298905436,-0.00004376961137386389,-0.0012768354031232068,-0.001321425886148537,-0.001137744190065453,-0.001294875985064744,-0.00048544957942899236,-0.0002547637457310423,-0.0003668786472937713,-0.0005722852173946697,-0.000013676198289050492,-0.00039895840075975447,-0.0004128910875832683,-0.00035549813345707763,-0.00040459533853776845,-0.0020025105407189627,-0.001050916733349608,-0.0015133978676727936,-0.002360713097080966,-0.00005641519200201956,-0.001645728900969514,-0.0017032021245686369,-0.0014664525207562646,-0.0016689816295662253,0.002320024393162267,0.0012175478765161083,0.0017533590451414266,0.0027350227921991885,0.00006536026599022377,0.001906672208282397,0.001973258265130698,0.0016989701429223606,0.0019336118405365092,-0.003110416671709874,-0.00163234542916109,-0.002350698217473336,-0.0036667978644687666,-0.00008762738081657957,-0.0025562425298657866,-0.0026455133073346726,-0.0022777799547530057,-0.002592360029983408,-0.0007513955565450101,-0.00039433208848637714,-0.000567867389424954,-0.0008858027437835048,-0.000021168490117775732,-0.0006175215352535527,-0.0006390870271471405,-0.000550252238664809,-0.000626246581434255,-0.0016502019003362538,-0.0008660252993455165,-0.0012471405200702869,-0.0019453846358047306,-0.000046489871167491,-0.0013561900946814177,-0.0014035518542692956,-0.0012084544312241392,-0.0013753518899069844,0.0023406549376297567,0.0012283747780270556,0.0017689505845471655,0.0027593436611953777,0.00006594147448005362,0.0019236270669872578,0.001990805232526645,0.0017140780354021985,0.001950806256757573,-0.003113442412908175,-0.001633933336935567,-0.0023529849221795167,-0.003670364840387226,-0.00008771262270029484,-0.00255872918331187,-0.00264808680132262,-0.002279995726264406,-0.0025948818176959327,-0.0016525453399393127,-0.0008672551355148505,-0.0012489115751664643,-0.001948147262243228,-0.000046555891092212216,-0.0013581160102778699,-0.0014055450279528135,-0.0012101705484895756,-0.0013773050170281527,0.0006235112852295516,0.00032721847388868095,0.00047121881775340755,0.0007350429509802829,0.000017565704727337943,0.0005124220428894756,0.0005303171814088007,0.00045660168940562715,0.0005196621239765015,0.0016335856992797593,0.000857305123656103,0.0012345828217529074,0.0019257961828801764,0.000046021755692498424,0.0013425343551749603,0.0013894192200752602,0.001196286270593164,0.0013615032065904356,0.0024214217451468415,0.0012707611664095392,0.0018299901205643943,0.0028545577719019034,0.00006821685573813707,0.0019900038808252447,0.002059500100973298,0.0017732241352945574,0.002018120917671332,-0.0008022450025526481,-0.00042101785747703527,-0.0006062968716151815,-0.0009457479728989751,-0.00002260103251961861,-0.0006593112792730841,-0.0006823361800041601,-0.0005874896447911149,-0.0006686267784592842,0.0017940709635415847,0.0009415277263537315,0.0013558696024155205,0.0021149885279528617,0.00005054298382724529,0.0014744264137708619,0.0015259172996082464,0.0013138107557509268,0.0014952587861105825,0.002815689939705481,0.0014776729577154927,0.0021279584122678777,0.0033193513755964329,0.00007932427087730007,0.00231402642618736,0.0023948383740897136,0.002061949500783498,0.0023467216218675567,-0.002719282208648425,-0.0014270782188954145,-0.0020550982441728136,-0.003205698543944151,-0.00007660824988891107,-0.002234795387922498,-0.002312840377563679,-0.0019913494428291198,-0.0022663711174329486,-0.0005707814174635409,-0.0002995458603089705,-0.0004313682063248665,-0.000672880936393395,-0.000016080186647022336,-0.000469086906538249,-0.00048546866701593844,-0.0004179872372305846,-0.0004757146995602826,0.0019786074111741867,0.0010383723804949115,0.0014953330712344277,0.0023325342536590907,0.000055741787485390394,0.001626084524415405,0.0016828717142178957,0.0014489480912603206,0.0016490596949305908,-0.0002898655082686523,-0.0001521213031672964,-0.00021906593408900046,-0.00034171570528470616,-0.000008166158415260001,-0.00023822099042767925,-0.00024654030003012277,-0.00021227054571620207,-0.00024158684736389234,0.002093518712354468,0.0010986777855381113,0.0015821773173153029,0.0024680005137275695,0.000058979095348429136,0.001720522404044495,0.0017806076153916958,0.0015330984434570709,0.001744831900269687,0.0022514997163748026,0.0011815861534594773,0.0017015715026419585,0.002654240644651876,0.00006342977288208103,0.0018503563793638458,0.0019149757379146936,0.0016487890412673814,0.001876500317573349,-0.0007099399026324246,-0.00037257617784180964,-0.0005365372680804926,-0.0008369316376647026,-0.000020000591808382507,-0.0005834519179580368,-0.0006038276083408118,-0.0005198939724067529,-0.0005916955898589899,-0.0001309464468180949,-0.00006872064308056172,-0.00009896281161280836,-0.00015436972027558306,-0.0000036890537098360425,-0.0001076160887175327,-0.00011137432831950004,-0.00009589300186730999,-0.00010913661114508089,-0.00198244411106359,-0.0010403858790671423,-0.001498232658184636,-0.0023370572499151959,-0.00005584987588568271,-0.001629237650336066,-0.001686134955669108,-0.0014517577335117819,-0.0016522573717983858,0.0006695629637147234,0.0003513863763964637,0.0005060223858770438,0.0007893322035619323,0.000018863083308338308,0.0005502688240574753,0.0005694856726806298,0.000490325656708886,0.0005580436474889056,0.00021453840258467345,0.00011258966813796667,0.00016213745416241427,0.0002529143325391095,0.000006044025700496685,0.00017631470213118886,0.0001824720797487472,0.00015710797764707994,0.00017880587665808166,-0.002663299557767244,-0.0013976985460337779,-0.002012789341049721,-0.0031397018990041117,-0.00007503109364727154,-0.002188787007624551,-0.0022652252624464437,-0.0019503529547537807,-0.0022197126784408796,0.00018889510262246254,0.00009913207454202218,0.00014275752347352492,0.00022268404268933285,0.000005321596698742662,0.00015524019640155153,0.00016066159631383478,0.0001383292091435234,0.00015743360635631315,-0.0009469735042077776,-0.0004969713174410384,-0.0007156754747948243,-0.0011163650370446155,-0.00002667835747897053,-0.0007782539130943001,-0.0008054326064609967,-0.000693475342125443,-0.0007892499690120453,0.001470541887255157,0.0007717397961126864,0.0011113624179458515,0.0017335876253630236,0.000041428447555999575,0.001208539598035359,0.0012507450101815284,0.0010768881429551714,0.001225615219211447]}],"db":[{"row":1,"colmun":40,"elements":[-0.0026645107831411299,0.0049598358911078339,-0.00660892372161856,-0.0008582283620244598,-0.006293536542978284,-0.005240129489656835,-0.00017142138473057102,-0.0006376927783739004,0.0006548834462625265,-0.0075166181522490029,0.002859043193004906,0.000015961645235184935,-0.0005114805025472692,-0.00022968327546319024,-0.008488116746677655,-0.002329426503784897,-0.0039838342413845068,0.00015986806518263289,-0.0015447795822634355,-0.0112773318214185,-0.00902067755054438,-0.0013511076911573272,-0.007747120902609283,-0.0014760920482631952,0.0015958352732405894,-0.0005666743144044664,0.009387071385375546,-0.004743634714288207,-0.005254985770816511,0.006477517633911836,0.002243765813424423,-0.0019461545916601687,-0.0025252286439211475,-0.002794624606206178,-0.013157203607295562,-0.0023628458781436744,0.002840630019632579,0.005005747903489708,0.003352872762609395,-0.006232538375751737]},{"row":1,"colmun":9,"elements":[-0.0031353800735781226,-0.0016454462125084049,-0.002369564314998946,-0.0036962266382703325,-0.00008833065557133576,-0.002576758273022046,-0.002666745514723302,-0.0022960608291114506,-0.0026131656428790225]}],"learningRate":0.00025}