{"weights":[{"row":8,"colmun":40,"elements":[-0.2636783848166534,0.7521086631778359,-0.3859078373936802,-1.405098974941572,-0.2643483397869703,0.22618734448131287,-0.28498433169553757,0.42544279622649147,0.34261912864459617,-0.2393041847443983,0.28284368190803546,-0.7408825109826387,-0.3494507564049179,-0.6710607474564122,-0.18133230036385659,-0.021995555840283577,-0.2931337002091846,0.14810017529763268,0.1894794140418474,-0.32003364272892967,0.1523509949931995,-0.05614748426501877,0.10863359761184446,0.12234400778788064,0.3068747673395513,0.09544379721220521,0.0016817620657298932,-0.04537699818773108,0.4072751369616993,-0.29637749549360467,0.23950822770722828,-0.1956023606656234,0.0250148360382456,0.0051294181072369369,0.3905958437284196,-0.10257244841639951,0.9448247687903258,-0.21476480928417047,-0.19412462171237303,0.09935033814648059,-0.0054058195282945,0.004296800994852867,-0.32624563372267886,-0.2916734938301673,-0.36331716967176427,-0.04981065198846199,-0.06089613612984331,0.44538341141278417,-0.34667338144517498,-0.6797599189687783,0.2365876545773106,0.2115086751461087,0.08605143218662356,-0.13964632082601156,-0.056967580974391859,0.46996354633469036,-0.2117299632504859,0.01863655247462497,0.03832722150989102,0.06651861782989108,0.18975436106813277,0.18250751068177185,-0.16089976657745529,-0.09230130765726531,0.10709910640247443,0.05976473703192926,0.035943670275759658,-0.0067486926132705169,-0.12282460154050822,0.25161542578546455,0.7094082721839226,-0.41790683499447409,-0.04190728705483743,-0.00025397407365398793,-0.1384211734732497,0.17415921540678176,0.1550077466917584,0.0391044857735919,0.051895033948041176,0.004757049882412832,-0.1838730512393552,-1.4880665030322653,-0.2592427104615633,1.4399422906219007,0.14435828519466877,1.252941594343387,-0.3867014877492486,0.26135506956578649,-1.7647457912519938,2.877625692638822,0.0833720238103348,0.052846948607562799,0.9013121546490382,0.38447564443541218,-1.4962676361104262,0.42585851945560945,-0.18664221895078215,-1.8764705379956939,-0.3695422122009948,-0.16495033362138293,-0.8849957666996643,-0.5125181310355963,0.15004217103923568,0.7264837832157742,-0.0003767227060387228,-0.663993239586565,1.0380085441615353,-0.06071318974230187,0.2824816607178691,-0.30694839431355139,0.1989503039949386,0.21993562035074785,-0.8116621584145679,-0.06412935181008778,0.25062211343993925,-0.6323905050162267,2.790398943942749,1.320603676642659,1.8119247492661688,-0.3239151777273476,3.930797910095595,1.809071595830556,0.9418160564194922,-1.0448279415346112,0.4099188414398901,0.5193142650643406,2.996393939563225,-1.1831420337362618,2.146752466094389,-0.8667190695611564,-1.4093462540344127,-0.2869106353864493,0.5896952952668889,0.7985706115854033,-0.28038311194567885,-0.889819713232947,-0.9090666862040236,1.9027904355167478,-0.4036409242166325,0.17538067343335024,0.9370367911416772,-1.4172538872350762,0.608363587875088,-0.6939650790449565,-1.172238332283059,0.4675255044921538,0.27604677957333886,-0.08871088646572091,0.5505167211871889,0.24720560950446955,-0.1258620971753755,0.3801043815650778,-0.41456483089180259,-0.020780225270096588,0.9159281912342556,1.1867372970798638,0.2807548302079911,-0.39351652338527107,-0.9940920084378042,-0.48880905033046675,0.6281358468378155,0.42474327642952999,-1.9924642324497107,0.6278681209275582,-1.2131218420184949,-0.3533470843179551,-0.8067921099486937,0.38211324363844237,0.22228054554361036,0.3082231417214161,0.12045589617386235,-0.01837385607416898,-0.7864082780344631,0.44106203769363508,0.10578880941574417,-0.16861261690555785,-0.1857889756084544,-0.6880081544288621,-0.3442522718799985,-0.3753642010009003,0.1893959111231084,-0.28635764867274246,0.8022686628159741,-0.6279549033029684,-0.14864409395700999,0.922533208147759,-0.2371065471269628,-0.04493722900696615,0.1986248499404118,0.45020133647281926,0.01896700304337893,-1.3092075924593528,0.30925190338660737,0.02007615667869416,0.2055833274493063,-1.2501610796723737,0.319724776655888,0.19425756738631456,0.2120310871317758,0.42513085656124219,-0.3776207210489958,-0.07274529801933982,-0.6269820892852168,-0.08178770920354486,0.09216338235322878,0.15485092441243748,-0.19039601939262089,0.22301344984490077,-0.12732398549234559,0.32816066544190106,-0.06820549228301115,-0.15034806686966357,-0.22135020766577608,-0.5932403589535714,-0.14029151665170767,0.015696879002028587,0.11493846608792707,-0.03326109053453233,-0.18185719993823305,-0.4271032212466251,-0.11765944837331399,0.016116309983660469,0.1144931875247311,0.031927138316373938,0.4142631543688114,0.016334356006646824,0.1070703056081856,-0.03896327738218224,0.07912687809901746,0.41173864910599747,0.187606775632382,0.28537380095235229,-0.10392580632990678,-0.004350942159445575,0.006493025862077464,-0.8580838909568189,-0.011864355684837283,0.0841324770605272,0.1786092266943038,0.09422021789746542,-0.8835068093846148,-1.869996475282491,0.19513584073640467,-1.1280484898311636,2.019950032770243,4.425466120229805,0.19617188375327647,4.689367147824275,-1.2611380995834647,-0.6395123391878916,3.956206252163581,-3.1317093459974316,3.341553332747921,-4.379754010196289,-1.5732050460207306,1.7154187848534764,0.03471882415912856,-0.6054577964820892,0.13690497693985693,2.6670303417211538,-3.353134390342885,-1.2968949499834915,2.398486997711972,5.81982246209739,-3.1505197026186186,-4.260234709575784,0.7636144014439095,0.11203333244307493,2.723020853892948,-3.267072749483584,-3.7607027547822615,1.7614995693469134,-0.4053720032243396,-0.04625295870597029,2.9089909970848257,-1.8258695498348659,-2.097102240593257,3.6683430700298009,1.30736607045288,-0.3268933101776211,-1.8758233646155563,-1.80873578275397,0.4202422157041774,1.6043442613766737,0.6936582335272229,-1.0048035237706239,-1.2295251342817642,-1.512706875357575,-1.9274687997755998,0.7081517042406277,-0.38707617584829376,1.2218555028832495,-2.4522700020246166,1.5092157303878989,0.46273824445946357,3.005791576197536,4.974415801311087,-2.4773971298383059,4.294897530216288,-2.085663406753865,-2.698574030358655,2.534296333015425,-1.1288534546509999,-0.7702238538587581,-0.42456066048320137,-1.3584944334935874,-0.25918997160527176,0.017946405318695618,-0.06797189181877427,0.14725068394997696,-0.32988555512056019,-0.027774131180437899,0.2189700836781745,0.00920599290790368,-0.17129086090333663,2.4403157860149928,-1.1775818765442634,1.2310947486745845,0.3585511549617194,0.0020863662271867319]},{"row":40,"colmun":9,"elements":[0.9745505835948531,0.9842881207491445,1.0006047697209609,1.000223819432105,0.982481766770228,0.9872422832437986,0.9951730893105981,0.9920520010049683,0.9937720112484109,-0.03142879297193146,-0.028402956139402356,-0.01696600532960803,-0.016307879884876913,-0.029785762460097979,-0.021124346924580266,-0.02303365261221785,-0.01864250908893072,-0.018253403596750506,0.04762368071353572,0.04649014281800277,0.048559151044472208,0.043110193323331099,0.04952547145538826,0.048962262359451409,0.04470593317337154,0.052866149581790398,0.044605720947310047,0.08125353233305126,0.07949529118246139,0.07616250886892732,0.07053199851207159,0.07615884953758519,0.07939075902575822,0.07308513006524614,0.08367817206771865,0.07761674545152064,-0.2227023794001866,-0.22459249922788039,-0.22933404681843426,-0.2130397008652684,-0.21473225861696478,-0.22944141348509884,-0.2149086373907394,-0.24497295902134223,-0.22774449008228546,0.4876484353414934,0.5058683849549851,0.5024429291326341,0.48425180898934785,0.4790455508579274,0.5142097104066378,0.4896480013443068,0.5242208209475308,0.511221681266675,0.8408133506162697,0.8322656999037247,0.8322493993437623,0.8093921596396411,0.8250632985149458,0.8284426263779408,0.8161874570572306,0.8531703583194112,0.8274770167428285,-0.14693319402007139,-0.15509637711489214,-0.1535260076409853,-0.15675481187508584,-0.1576715460906933,-0.1539980101734795,-0.1596492790005837,-0.14625289679262036,-0.1514406021996881,0.14775348701811256,0.15441400743180012,0.1675589227183273,0.16841720177207165,0.14703091783631898,0.1735465410186744,0.15700106946058316,0.1743760183774796,0.17318356421541143,0.03951711579022525,0.04528699470416188,0.045276268944538938,0.0706659476468595,0.06621719072869516,0.03497292913861559,0.0697738300315025,0.009466897431011973,0.03770561749836507,0.11181664622170182,0.11270081460243652,0.09964347624031338,0.10039779042943721,0.11152279440284761,0.10914468580614956,0.10654867731462385,0.1028933036388244,0.10430977460439435,-0.021868928665954164,-0.029883767306362813,-0.04066657485941665,-0.0399600664214414,-0.026220523189583148,-0.03536462382284585,-0.03568378514943614,-0.037187225868626199,-0.0386209024795452,-0.09356919076247192,-0.1001490316817914,-0.09190890571530348,-0.10131917136134972,-0.08382306978453982,-0.11266015108386661,-0.09402941249468697,-0.10055839432082796,-0.11276557423305746,0.1395139104199776,0.13899952107811079,0.15165643781101358,0.1549212312303874,0.15793112894882289,0.13366612077600199,0.155116691209978,0.133356006069065,0.13406262112023058,-0.5073372856580999,-0.32996862763152137,-0.3413908932602581,-0.21993904682931926,-0.5065682716340263,-0.2039512372867556,-0.30447422185962355,-0.35603713063022637,-0.16837483711906529,0.10655045337466115,0.11580805443248459,0.10917685279011152,0.10799014092260866,0.10762860869161901,0.11363545227702872,0.11240447292493135,0.11006333123196077,0.11328629643037513,-0.29995987739307419,-0.304625740390003,-0.29255604574912777,-0.30315862541117036,-0.30258029449170339,-0.30683852218361737,-0.30354782009086719,-0.2910671224593563,-0.303076408801861,0.20357781783415969,0.2070809845895936,0.21159970490124117,0.22152679347085203,0.21121680800682389,0.2183835695709208,0.21421880379715184,0.20824962267771114,0.21524378941604445,-0.31178141786115196,-0.31395446616115427,-0.3105251036210795,-0.33243292909952396,-0.32077818266618737,-0.3116126421546458,-0.3269121080899617,-0.2915344830670123,-0.3159526090035409,0.14978251735245885,0.16032125867673117,0.13588688501682043,0.13471960931764205,0.1527718007453557,0.1653534171118688,0.1454218178531617,0.14941682254357009,0.1490347838238686,-0.3022175846780893,-0.30115517351067519,-0.30451664722785218,-0.30884698641071686,-0.31197637748252518,-0.29976599685582858,-0.30862708021758247,-0.295849615089982,-0.2980426758911826,0.5875828613271572,0.5879846772651245,0.5790547752658474,0.5732638132465687,0.5814142355094615,0.591312174271799,0.5768941375529234,0.5926525924361739,0.5855372674031147,0.26345118155127886,0.25976146492970866,0.2596291200066477,0.2590848050342339,0.251889972219691,0.2558962154298709,0.2567221943479413,0.26175869747987987,0.263550356561807,0.2607265324612227,0.2619814636648408,0.2709415408295994,0.2948829090114177,0.2778008101386362,0.26355706368281886,0.28451733322658537,0.24472614775018704,0.2681856032512234,0.06820220797917694,0.06028213662462755,0.04995046580753563,0.03367626249262132,0.019701826468694965,0.07562966428047487,0.026422780974642933,0.09553421820204096,0.0803297272876367,0.2639821998058543,0.25914876920923149,0.264276864144933,0.26029439898830517,0.2495016250170367,0.2619355980449274,0.25461105630575478,0.27267763738302466,0.2689557652189742,-0.5231108028938992,-0.030649961946390474,-0.039958240943020407,0.5088030205384364,-0.5351678255262922,0.42508645894370997,0.13034068506594713,-0.1614714676933867,0.5754500211455615,0.3740345182903096,-0.17612607787278485,0.7590823226990429,-0.07194157577531939,-0.10324786635021212,-0.2106776244539342,-0.22479919709668129,1.1357658202823807,0.1038018194087295,0.06418936520274848,0.04458278655135699,0.06951275539050753,0.3245727726425656,0.3677550659589629,-0.06560351063577925,0.3169150410151741,-0.3085334010138146,-0.06975551704155833,0.10088329898494619,0.09092585860750027,0.09568015199125873,0.11280398224241449,0.10234013297005855,0.09279390026254891,0.1024118398087205,0.08309597278716054,0.0973304019879076,0.04078890330110226,0.050212272792638349,0.06307976036026841,0.06054576532372868,0.038809805567388017,0.06071105180080081,0.052862346797267718,0.06585429933880542,0.06573528553262487,0.09570360897969103,0.09538760625943385,0.09004107345291988,0.08811086608880169,0.09158109275568244,0.09360455874021784,0.09050536606626666,0.09418027574965882,0.09305679676268912,-0.26318753444474737,0.008092625579095816,-0.03849320592506449,0.5637140148504775,-0.2823832796758756,0.3915867315749886,0.19010947454407432,-0.20117569015863399,0.5089398541967724,-0.43351056275208496,0.6252305204955313,0.13967657581517332,-0.17884812455663313,-0.47527011922642678,-0.22680401746449423,0.4173722483377035,-0.1745114281276048,0.2730218310177771,-0.15559660520052219,-0.1486557946749216,-0.1607944622867999,-0.4017155542464715,-0.44291334282028257,-0.04299395471824067,-0.4001456082820954,0.19455154864810163,-0.03705102902389296,-0.03714745184927992,-0.02866682967261395,-0.017213911648958657,0.0019922808071911799,-0.015562201735844193,-0.02368395545854151,-0.006515279198889228,-0.04114975476629074,-0.02180003503843361,0.1283200464806181,0.12287740075714722,0.1252548216227322,0.1223926186026092,0.12601167261525254,0.11914285773551003,0.12295578080556771,0.1250655770793937,0.12092015002039361,-0.3954114604712986,-0.393996951247067,-0.3862472741979999,-0.406615516074655,-0.4292714338071863,-0.3826091945303142,-0.4137718473408506,-0.35614143106273529,-0.3720615149280092,-0.24382337495223239,-0.24466428821240619,-0.25314764309869527,-0.26902970910811199,-0.24683730673744434,-0.25721506910940719,-0.2553606986515358,-0.24550354745945403,-0.2602079317084288,-0.00004601480200610066,0.002212130882435146,0.07876790785802672,-0.10001149246095635,0.063879427931314,0.009520214784102113,-0.029768828913490289,0.15647433852056523,-0.06644132519456297]}],"biases":[{"row":1,"colmun":40,"elements":[-3.958167264371209,0.6773558250702998,-0.6238302193088706,0.8422391546389986,0.8842216289454771,-0.365031953410601,2.824938211369666,0.9160388351153033,2.2519880286398856,2.120582410705404,0.3715892155430869,0.17541705652411516,-0.10789769797123915,0.887693824602848,0.06178657755309875,1.0555084809236608,-1.4665967233784077,-2.309563936463508,0.828432879390234,0.10178210398464142,0.005377974382870225,-0.42375755993296795,0.6128767838701935,0.02701369531373528,0.48002604158766695,0.39128177110392906,-0.28064560048534006,0.7893056880903739,-0.1614828807513098,-0.32037950407699908,0.05836537728335335,0.0798433468566339,0.4134993562331729,0.020737130565551648,-0.12003608809586491,1.0886804900150438,0.4243645012267979,0.10057049730122324,0.19958858555077509,0.38907533016211268]},{"row":1,"colmun":9,"elements":[0.08752733779536043,0.45500548632286466,-0.1519090868678964,0.3891063869562015,0.4212950819193786,0.46303667133028,0.4991331825400376,-0.41769482606735616,0.257458660941732]}],"inputSize":8,"hiddenSize":40,"hiddenLayers":1,"outputSize":9,"v":[{"row":1,"colmun":40,"elements":[-5.6676089559369899,-1.2669403677588829,0.06045008702353949,3.026012353603704,1.1672305854003733,-1.024895251551483,1.737540129563714,0.624642097275913,0.6078457838680507,2.6744190947835677,0.7267553772043047,1.361933107760457,-0.12756813369676413,1.7677659076716999,0.5009869505371325,1.9812426556670955,-0.035927747848393479,-3.6632983378912438,1.635045074659153,0.3659800855242814,-0.9710826636095726,0.7067039225687757,-0.13415920903204826,0.1935680563369939,0.39477266799504109,-0.2831511472713358,-0.47215534451889709,0.9115564265603768,-0.9231753610300044,-0.44925718109130749,-0.30208027024301045,0.08135728776960862,0.6301222045964249,0.025705479056052237,-1.0063840092737864,1.7224746782943455,-0.8460108310124231,0.6440032672376241,0.8146190718350025,0.3940860908726802]},{"row":1,"colmun":9,"elements":[-0.46787410637738827,-0.4636322145347637,-0.4660940016106402,-0.4624801566096569,-0.46503795872498146,-0.46256024497222167,-0.46244050636771619,-0.46830744728923126,-0.46332920695875376]}],"y":[{"row":1,"colmun":40,"elements":[-0.999976110766364,-0.8529662330222404,0.06037656199374111,0.9953048623828098,0.8233823351807299,-0.7718528970257029,0.9399406989527455,0.5543518544607181,0.5426089135354577,0.9905376396317122,0.621076309098602,0.8768406643317807,-0.12688060993736897,0.943364047865224,0.46289298817436139,0.9626781146474557,-0.035912297276783296,-0.9986852478201217,0.9267767030723849,0.3504705423009998,-0.7491796691847289,0.6086057878193281,-0.1333600651357482,0.191186174084642,0.37546739413434457,-0.275819023731094,-0.43993914711506368,0.721878451317168,-0.7273961326757006,-0.421288215888142,-0.2932151889186922,0.08117826022830585,0.5581363571839926,0.02569981873481949,-0.7642622673784909,0.9381603243581026,-0.6889796862359898,0.5676191666691992,0.672130490732747,0.3748774557604558]},{"row":1,"colmun":9,"elements":[-0.4364800333787377,-0.43303993608438448,-0.435037946000279,-0.43210344940615388,-0.43418137448777396,-0.43216858194481969,-0.4320712018428586,-0.43683075006682217,-0.4327937172757737]}],"lastInputs":[-1.031999945640564,0.007999324798583896,0.018511172384023668,-0.47351163625717165,-0.13000011444091798,-0.6640000581741332,0.0013636687071993948,0.15177863836288453],"dw":[{"row":8,"colmun":40,"elements":[-9.54373556341955e-7,0.00012746139386360494,-0.0009414415612071867,-0.00001444158394533113,0.0014386533643056402,-0.004039766104854548,-0.001941332837100946,0.0021627686909387047,-0.002286221979467178,-0.000020104918868078725,-0.0013245325833258447,0.00015627366261911888,0.0019366992202070819,-0.00032689463275309297,0.005261915367564874,-0.0001632932987165762,0.006082166149458598,-0.000011295726438988596,0.0009066148459204477,-0.002628741629876158,0.0027009083363262996,-0.007396540154186689,-0.005117330786035847,-0.005325589569519201,-0.0008411491050367124,-0.004839151612253983,-0.0005827686318868705,-0.0005629848355495752,-0.0014672386115299908,-0.0016578144431324627,-0.00098754650713042,-0.0018432564300110049,-0.0016073878396833969,0.0002908770046659171,0.002054568050885676,0.000042165396815983,-0.0013104241982342259,0.005468266456088742,0.0028072498750389039,0.000011016063550003744,7.397620599311423e-9,-9.879894791683675e-7,0.000007297381030681884,1.119408204164324e-7,-0.000011151410988217704,0.00003131337488877815,0.000015047822407091053,-0.000016764234626280184,0.0000177211561421816,1.5583893851381417e-7,0.000010266828389951376,-0.0000012113215606602788,-0.000015011905926007114,0.0000025338531783378119,-0.00004078660107068607,0.00000126573275452577,-0.00004714459793723396,8.755638505904744e-8,-0.000007027429265254696,0.00002037612327187284,-0.0000209355079181389,0.00005733268429813906,0.00003966588489874855,0.00004128015790164805,0.000006519985707024777,0.00003750963908431526,0.000004517205246552502,0.000004363855420014644,0.000011372983361318429,0.000012850190779970139,0.000007654753566231942,0.000014287604309498415,0.000012459319849034101,-0.0000022546703094229465,-0.000015925540722414127,-3.268359710841495e-7,0.000010157470288521142,-0.000042386086987925323,-0.000021759791399292863,-8.538863854651097e-8,1.7118773595704e-8,-0.0000022862984093013758,0.00001688681002611247,2.5904134107724267e-7,-0.00002580538937042996,0.00007246202586927638,0.000034822043309348817,-0.000038793978850343384,0.000041008383138811365,3.6062561873761675e-7,0.000023758383982260906,-0.0000028031093606596016,-0.00003473892927291289,0.000005863569008764455,-0.00009438394144359929,0.000002929021861355028,-0.00010909693022417555,2.0261351776051189e-7,-0.000016262116843748027,0.00004715222095626457,-0.00004844668841154782,0.00013267309791815656,0.0000917905012752527,0.00009552607728747288,0.000015087845837372677,0.00008680075039273194,0.000010453227880902194,0.000010098362295921202,0.0000263181281949281,0.000029736521854660635,0.000017713802900817827,0.00003306282879958381,0.000028832010615944373,-0.000005217514204980986,-0.00003685316411624949,-7.56328459510671e-7,0.00002350531929016052,-0.00009808529878129304,-0.00005035415610377672,-1.9759715320615196e-7,-4.3789438766254558e-7,0.000058483000336316196,-0.0004319608115977396,-0.0000066262193840083269,0.0006600960701760645,-0.0018535623635315335,-0.0008907400548794314,0.0009923412748403869,-0.0010489852396965692,-0.00000922472241423677,-0.0006077341316304689,0.000071702908515901,0.0008886140164755818,-0.00014998877964332339,0.0024143200453328259,-0.00007492372203287633,0.0027906749972070167,-0.000005182808324199053,0.0004159813001544027,-0.0012061432325826258,0.001239255419650898,-0.003393748077066902,-0.002347980427713105,-0.0024435356239596724,-0.0003859437112808834,-0.0022203437196817307,-0.00026739122381719136,-0.00025831384177407826,-0.0006732118142642259,-0.000760653557099925,-0.0004531151037814547,-0.0008457397424321696,-0.0007375163625574991,0.00013346284271696532,0.0009426956694001834,0.000019346712297912223,-0.0006012607935863161,0.0025089999355626037,0.0012880480152422246,0.000005054490844413305,-1.2022158728586986e-7,0.000016056198315768846,-0.00011859255537111935,-0.0000018191934733444786,0.00018122588357740474,-0.0005088857399305955,-0.0002445479692679502,0.0002724420466483158,-0.00028799334750313093,-0.000002532598731924655,-0.00016685019039047166,0.000019685654161519298,0.0002439642766727885,-0.0000411786258783632,0.0006628387945672496,-0.000020569911471665402,0.0007661650553552282,-0.0000014229126037892898,0.0001142054650500369,-0.00033114024294583587,0.0003402310187128048,-0.0009317355786431542,-0.0006446256035447452,-0.0006708597771031147,-0.00010595880395010578,-0.0006095836206653026,-0.0000734108457639947,-0.00007091869855140176,-0.00018482674172297462,-0.00020883340957470272,-0.00012440035436532608,-0.0002321933715768307,-0.0002024812152292114,0.000036641517331989215,0.00025881210834367434,0.000005311537500248732,-0.00016507296968010763,0.000688832657489849,0.0003536267676766103,0.000001387683718626566,-6.140543898358167e-7,0.0000820100556186145,-0.000605733802651615,-0.000009291873144309577,0.0009256453177411966,-0.0025992297189205168,-0.0012490747913463028,0.001391549042872398,-0.0014709802396577952,-0.000012935724807334503,-0.0008522187584380105,0.00010054818462783178,0.0012460934715312394,-0.00021032758391294041,0.003385573928496445,-0.000105064695308634,0.003913332257550182,-0.000007267793999690606,0.000583325912928273,-0.0016913611309147014,0.0017377939795631443,-0.004759014875353331,-0.0032925466265552939,-0.0034265426068190217,-0.0005412045388537506,-0.0031135631020364625,-0.0003749597149782371,-0.0003622306039212443,-0.0009440373786129727,-0.0010666559541324512,-0.0006353982293838666,-0.0011859713577770219,-0.0010342109256562913,0.00018715344786166904,0.0013219315670254446,0.00002712967772626173,-0.000843141269082366,0.0035183424769473826,0.0018062152892635707,0.000007087855836573915,1.2610944014675415e-9,-1.6842550711563045e-7,0.0000012440062638552937,1.9082884831372185e-8,-0.0000019010142216558074,0.000005338084216831573,0.0000025652470733125625,-0.0000028578489729600474,0.0000030209782319084505,2.6566327679566107e-8,0.0000017502167933025454,-2.064975917618419e-7,-0.0000025591242838821899,4.31953492943391e-7,-0.00000695301327969157,2.157732299268112e-7,-0.000008036879929151538,1.4925997559401563e-8,-0.0000011979867829321718,0.000003473578380616484,-0.0000035689383461895626,0.000009773673334398782,0.000006761961458218583,0.0000070371513816631889,0.0000011114813692314359,0.00000639437981649141,7.700614231604974e-7,7.439194218079392e-7,0.0000019387863235750665,0.000002190610268917896,0.0000013049286236560095,0.0000024356504315413399,0.0000021239773379528065,-3.8436035833373625e-7,-0.000002714874326921984,-5.5716700768730087e-8,0.0000017315741922638242,-0.000007225682404632143,-0.0000037094564045774446,-1.4556455359438647e-8,1.4036194428403266e-7,-0.000018746044402594658,0.00013846000560548724,0.0000021239574248864155,-0.00021158610485677736,0.0005941378207329011,0.0002855163470395782,-0.00031808343439475865,0.0003362399973998483,0.0000029568772974103069,0.00019480209549787076,-0.000022983531951242736,-0.00028483487019859887,0.000048077155872913495,-0.0007738821625363677,0.000024015926200075483,-0.0008945183576426046,0.0000016612888261008209,-0.00013333795938135482,0.00038661516105292163,-0.000397228886844678,0.0010878264072989202,0.0007526177709969652,0.000783246875889596,0.00012370976022037204,0.0007117053112668276,0.00008570914155764621,0.00008279949249961308,0.00021579020381948163,0.0002438186357469112,0.0001452407675072519,0.0002710920211599915,0.00023640227759583237,-0.000042779959326319546,-0.0003021701139661924,-0.000006201363228549626,0.00019272714240533355,-0.0008042306982830548,-0.00041286878490416363,-0.0000016201581529161392]},{"row":40,"colmun":9,"elements":[-0.001983662282301802,-0.0020503234500324678,-0.001908614060290109,-0.0030350785685013626,-0.003258956011305178,-0.001994475285642835,-0.002974905232507136,-0.0006879740640855143,-0.0016550283564977528,-0.0016920373659992253,-0.0017488984494950235,-0.001628022237502534,-0.0025888813798932814,-0.0027798458409349299,-0.0017012607130653759,-0.0025375543299980178,-0.0005868326648426582,-0.0014117170276247787,0.0001197695699652801,0.00012379443824236445,0.00011523830808809744,0.00018325198709653157,0.00019676926031827446,0.00012042243752834426,0.00017961884115243364,0.00004153850105330163,0.00009992730935432583,0.0019743958817048737,0.0020407456511244645,0.0018996982369539635,0.003020900623944061,0.0032437322546214144,0.0019851583736148487,0.002961008379263386,0.0006847602895761175,0.0016472971232694896,0.0016333515017272285,0.0016882404409338712,0.001571556645204314,0.0024990897805292836,0.002683430915947832,0.0016422549503650498,0.0024495429349865734,0.0005664792241850444,0.001362753668104211,-0.001531132056886698,-0.0015825859015116445,-0.0014732044854650572,-0.002342690150870751,-0.0025154947318465905,-0.0015394783042264756,-0.0022962440775988106,-0.0005310274602820166,-0.0012774689493766727,0.0018645694552483009,0.0019272284967145502,0.0017940268917876898,0.0028528620237410855,0.0030632985709776996,0.0018747332799724333,0.0027963013050561304,0.0006466702711150913,0.0015556656738538538,0.0010996731351662337,0.0011366277599359103,0.00105806902022965,0.001682541627512754,0.0018066514679919483,0.0011056674868210925,0.0016491836302182757,0.00038138880933305405,0.000917489956741539,0.0010763785496797014,0.001112550357593813,0.001035655742634517,0.0016469000277288143,0.001768380825816857,0.0010822459218416587,0.0016142486592450128,0.00037330977753850846,0.0008980545922255914,0.001964939095826823,0.002030971069019085,0.0018905992312144096,0.003006431382681847,0.0032281957142234506,0.0019756500385097917,0.0029468260045505559,0.0006814804856136408,0.0016394070459467812,0.001232035081164014,0.0012734377422562228,0.0011854232949127274,0.0018850604277980724,0.002024108725422368,0.0012387509418060974,0.0018476873015572837,0.00042729460021833233,0.0010279234594108315,0.001739397306292044,0.001797849925278405,0.001673590401369866,0.0026613438857697577,0.0028576534211311105,0.0017488788138309659,0.002608580197377441,0.0006032580467681994,0.0014512308323918395,-0.00025169429307197804,-0.0002601525047529772,-0.0002421719014057801,-0.00038510181976663565,-0.0004135082048675726,-0.00025306628630701003,-0.0003774668077991372,-0.00008729265422687214,-0.0002099960239801557,0.0018713603855952653,0.001934247636949329,0.001800560899747768,0.0028632524048760939,0.003074455381022458,0.0018815612278869469,0.002806485686945639,0.0006490255026438682,0.0015613315487316,0.0009182452975599032,0.0009491030218533286,0.0008835051719007595,0.0014049501510999656,0.0015085839253157032,0.0009232506805623373,0.0013770956703709802,0.00031846597821916207,0.0007661193234560582,0.0019096738866692149,0.0019738486670266917,0.0018374248798219502,0.002921873515450856,0.003137400578777697,0.001920083577018762,0.0028639445779259635,0.0006623133970996743,0.0015932976405809215,-0.00007123957143753093,-0.00007363358430102474,-0.00006854435299184985,-0.00010899924771890973,-0.00011703939307135719,-0.00007162790050485277,-0.00010683823336357248,-0.00002470731934708015,-0.00005943729025136689,-0.0019811015849906237,-0.002047676700234185,-0.001906150242262279,-0.0030311606044411915,-0.0032547490452455557,-0.0019919006298928499,-0.002971064945832405,-0.0006870859626421477,-0.0016528918906788385,0.0018384559093034532,0.0019002374024683596,0.0017689013039297942,0.0028129073074812116,0.0030203966625768888,0.0018484773882956195,0.0027571387292670208,0.0006376135670119544,0.0015338783669049713,0.0006952318043753573,0.0007185951381124798,0.000668928984953995,0.00106373104354824,0.0011421953667892042,0.0006990215340539293,0.0010426415580386366,0.00024112040351072683,0.000580052542636012,-0.0014861549555320402,-0.001536097340205264,-0.0014299290101976736,-0.00227387347899431,-0.002441601914435777,-0.001494256031326461,-0.0022287917620727457,-0.0005154284949309971,-0.00123994321790556,0.0012072971874923546,0.0012478685292142943,0.0011616213140488762,0.0018472105117198197,0.001983466874232491,0.0012138782011247892,0.0018105877962727305,0.00041871500005249247,0.0010072839000100677,-0.0002645476510157382,-0.0002734378010651964,-0.00025453897614036424,-0.00040476794518346594,-0.0004346249687996204,-0.00026598970829525465,-0.00039674303346684975,-0.00009175045784627328,-0.00022071996225479703,0.00037925786260897874,0.0003920028606956563,0.00036490933739543723,0.0005802789219768087,0.0006230822162682212,0.0003813252087354299,0.0005687743372504504,0.00013153427143491325,0.0003164260986573977,0.0007448183011168558,0.0007698479939948224,0.0007166394675929722,0.0011396002652851925,0.0012236609534856218,0.0007488783282950173,0.0011170065998777183,0.0002583180000932592,0.0006214240295764878,-0.0005471448649881892,-0.0005655317224403698,-0.0005264446431477339,-0.0008371524066406434,-0.0008989035395374467,-0.0005501273682630316,-0.0008205550593541656,-0.00018976086795008908,-0.0004564992109527923,-0.0008727115410500764,-0.0009020390989400821,-0.0008396941015044229,-0.0013352817757120077,-0.0014337765799228094,-0.0008774687181629982,-0.0013088085371702589,-0.00030267395363985935,-0.0007281291580564409,0.0014319972656015477,0.0014801196757334536,0.0013778202770749033,0.0021910101582092594,0.0023526263207915927,0.0014398031261834872,0.0021475712858897899,0.0004966455164092049,0.0011947578487239823,-0.0014429427434773069,-0.0014914329774787686,-0.0013883516528824965,-0.0022077571547212736,-0.002370608631207064,-0.001450808268191541,-0.0021639862571756795,-0.0005004416287639784,-0.0012038899859942337,-0.0008357135083907807,-0.0008637977437239126,-0.0008040958215115887,-0.0012786733817314355,-0.0013729925634008217,-0.000840269008104114,-0.001253322458752268,-0.0002898422901460875,-0.0006972606005746145,-0.0005816538061196767,-0.0006012003399610781,-0.000559648001822706,-0.0008899523961269169,-0.0009555982310419589,-0.0005848244186806002,-0.0008723082385400989,-0.00020172926432952132,-0.0004852910454474474,0.00016103409993900757,0.00016644566683835633,0.00015494167029939565,0.0002463882838744363,0.00026456269935846977,0.00016191190170808704,0.00024150340045017027,0.00005584987181529538,0.00013435553225970035,0.0011071804898206109,0.0011443873999880058,0.0010652923478982604,0.0016940281650251778,0.0018189852905373327,0.0011132157642936754,0.0016604424361364274,0.00038399251125257136,0.000923753565696619,0.000050980978982772544,0.00005269419983763533,0.000049052207203821894,0.00007800283248430992,0.00008375657963579288,0.00005125887784740699,0.00007645635171234844,0.000017681231132316295,0.00004253494489021463,-0.0015160744514419473,-0.001567022283742553,-0.0014587165568884229,-0.0023196514431299949,-0.002490756612753511,-0.0015243386193171736,-0.0022736621342779757,-0.0005258051791983632,-0.0012649059419462448,0.001861037708945827,0.0019235780657273132,0.0017906287626250698,0.002847458317874589,0.0030574962698775864,0.0018711822820136118,0.0027910047328276535,0.0006454453903081565,0.0015527190330215404,-0.0013667356671261337,-0.0014126649547688158,-0.0013150277314089915,-0.0020911574359762038,-0.002245408131205389,-0.0013741857847529079,-0.002049698239394695,-0.0004740114785830944,-0.0011403081588595118,0.0011259916307104089,0.0011638306911330402,0.0010833918037949087,0.0017228099244370849,0.001849890087805131,0.0011321294452837235,0.0016886535696351963,0.0003905165940883968,0.0009394482592281025,0.001333311755047577,0.001378117828809972,0.0012828683517039899,0.002040017582115905,0.0021904960324264828,0.0013405796779145878,0.0019995722820578566,0.0004624193921500959,0.0011124215963288628,0.0007436480346589214,0.0007686384006165055,0.0007155134760187876,0.0011378097131949489,0.0012217383243456008,0.0007477016826790818,0.0011152515471955162,0.00025791212809664403,0.0006204476415139532]}],"db":[{"row":1,"colmun":40,"elements":[9.24780626562508e-7,-0.00012350910908671557,0.0009122496228648854,0.000013993783629869493,-0.001394044031090201,0.003914502245779731,0.0018811365691458033,-0.0020957062062597986,0.0022153314921427799,0.000019481511557250684,0.0012834618731532057,-0.00015142797563048277,-0.0018766466300586573,0.00031675838175571704,-0.005098755469699947,0.0001582299489514215,-0.005893572160687846,0.000010945471932149494,-0.0008785028039489968,0.002547230395680393,-0.0026171593784821776,0.007167190449409999,0.00495865412362935,0.005160455281045194,0.0008150670051776115,0.004689100646464001,0.0005646983164569307,0.0005455279701590775,0.0014217429155185405,0.0016064094287364082,0.0009569249604150399,0.0017861012859519996,0.0015575464383243633,-0.0002818575775073024,-0.0019908606192904426,-0.00004085794480329248,0.0012697909566466533,-0.005298708085391013,-0.0027202035105694116,-0.000010674480746378389]},{"row":1,"colmun":9,"elements":[0.001983709671605613,0.0020503724318585334,0.0019086596567065798,0.0030351510759345364,0.0032590338671266577,0.00199452293326718,0.002974976302411086,0.0006879904996512998,0.0016550678948013753]}],"learningRate":0.0025}