{"weights":[{"row":8,"colmun":40,"elements":[0.03146775503983697,-0.12524690504787107,0.36126384396078956,0.6221906530848692,-0.19381081730122788,0.14764502081926979,-0.13303233396639672,0.10333771796690845,0.3692019648847166,0.20861513950522365,0.3703238385203644,0.021208005962627294,-0.09654203247200306,-1.1757587767979505,-0.1469257144945385,-0.15968513870260069,-0.0489340597682936,-0.4218146670006107,0.030959454186351905,-0.10734035826005449,0.03698992918175002,-0.10425806708514057,-0.12420171819591154,-0.4003853374336761,0.2643541438842053,-0.010324207266201456,0.919178677348011,0.4218693471368501,-0.057366732518908027,-0.00798549054816042,0.03131853651788213,0.016439935782979595,-0.7929667487729994,-0.22100757717243547,-0.05423304053948033,-0.26123946567690028,-0.2954927736918728,-0.05296226781735843,0.025038157068292243,-0.10031499939067566,0.10015208416025649,-0.11669986022867972,0.3555958657774834,-0.06539222307769455,0.25813107342996197,-0.052789133716396468,0.36429649159629737,-0.1383283923657951,0.23374494078457704,0.13122845666893755,0.2614685237820688,-0.003359673983521322,0.007253540299662096,0.1112116606570384,0.19247392836241193,0.47869030429197426,-0.08503058350052176,0.6788167374828631,-0.006267663097826647,0.07535193338924916,-0.059309407040233349,0.17585704875128928,0.02877062285885679,-0.4896471540593885,0.11417180421338526,-0.06620333157715054,-0.12439969940961295,-0.1653097274220867,-0.22037854077286779,0.0027464491306516834,-0.3897443733788158,0.33295832008075496,-0.1902997046847925,0.06917743296408888,-0.05401789691984622,0.19650563763583896,0.16629932976613757,-0.05622976228528495,0.011110542566652206,-0.21031358767170106,0.5673945320804479,1.2723455981182517,0.29847578718537406,-0.9284992042122947,-1.5935341433525099,0.40261260636668086,0.3978574564674671,-0.605196880811951,-1.0005687615751542,-0.8951086058626584,3.720255593192883,-0.0073470039006036489,1.326372668012826,-0.16681709652990316,-1.2836440993734089,-0.2608025648618393,-1.6770043674303279,3.631478722758868,1.0782417988530047,0.8287477970760615,-0.8576713563305755,1.1515288303028344,1.2043468025989197,1.4965949600812725,-0.5965146373623358,1.323834899592666,-0.16452690222308,0.6155339097535514,-3.145917416861343,-0.0006853867494010835,0.001993997434173945,1.3064856490943278,1.5610175622341216,1.6104740322540275,-0.2371459419868501,0.32212461884581919,1.175420999244582,-0.6660840926176902,-1.2842507849498717,1.2895375894481676,-0.21157614747917304,0.09977591429711384,0.4983581307122638,0.5269188774756732,-0.34802482423138078,0.2871154254725529,0.6849148984809215,1.6363697879183852,-0.6446836392570997,-0.01087577090337361,-0.6620645916121654,-0.033894441505743059,-0.4033328929604637,0.33637285017910997,0.5172107888437579,1.3423675474812256,1.2880185696143467,0.3603665155504612,0.9951758802237531,0.7948865791203024,-0.3265916244264082,-1.296833113634409,0.28463303740590159,3.6570107676697778,-0.43919292572898246,-0.4721413668318178,1.4025451101851947,-0.03782291751704522,1.9612446736847638,-0.02402102330454195,-0.24623288472939093,-0.34219962962117086,-0.7020064090258195,0.5260769245887067,0.06789054881548358,1.4705871961830959,0.3356962027515003,0.30087375732804008,-1.2292977261316525,-0.28416689107253209,-0.07029263003307324,0.46481662318706776,0.7567923298493223,-0.06718360718839497,0.05973405398435332,0.11757391092826226,0.15979726914255155,0.17502316453984649,0.17908902221153476,-0.3309421312611635,-0.8904064635677423,0.004055749043888737,0.07580896028827626,1.1908487617920514,-0.02253300938919761,-0.3888931169931667,-0.17187925082136097,0.2018459917996567,-0.04892530630489147,0.048849082990756357,0.040781495371380909,0.05722356723428195,-0.03164044640110251,-0.3572096711244604,-0.2323470251168202,0.06416927879524928,0.08367582671022919,0.013111303207016942,-0.40209603398030877,0.002716526947384186,-0.08417235978519087,-0.09602827498246343,-0.5147424836248173,-0.13136927480755412,0.13927982724396616,-0.3024912059595063,-0.08295875567204983,-0.07766053590487739,0.03588134655471039,0.11691451924451404,0.07370621950801272,0.04052425570824361,-0.3467398177832771,0.049761802952370249,0.12904154485205866,-0.04432432219857053,0.11408859843227645,-0.03776453257141333,-0.18529930391999678,-0.09991635579891573,0.8002102119876701,0.0007395050187555396,0.10364611582738863,-0.3185437111096478,-0.04611756164103882,-0.25328611845387807,-0.12237363360529047,0.8866428642890284,-0.1302271725701895,0.041124079291090669,-0.25638678140990908,0.014938988816038238,0.05831096793478865,-0.08038678843880477,0.070720204686233,0.09099653399147378,-0.023752423571445758,-0.1341983997491874,-0.26958030032322319,-0.0011008685172558344,0.07825753617054243,0.21635498376045146,0.06384526113467687,0.11356460340640544,-0.051430926581805199,0.2826929680255662,-0.3257665342767439,0.18699124527916054,0.2234584280037317,0.1278520085838117,0.11187694901828076,2.3109301217382285,3.6595043731602656,2.648109415888609,-1.2207254415034914,0.7035821352248339,2.5289958804502814,-0.3518489261811564,1.6338969090691882,-5.812251571343475,1.7014451765710428,0.018627271096861163,1.4710464082101523,-1.4208738970969806,-2.2725199133208089,-3.794947311152109,-2.496698016142437,2.191234651543263,1.3958211307025639,3.4819434972360265,-5.622027252436739,-3.74029904766787,1.8106700402853627,0.06314310756260512,-3.2665931371820364,1.7299129332015469,0.6058980333149056,-1.467166328855612,0.8570173050704297,0.028277857621993003,-2.669886255981265,0.20055833161317944,-0.683577201358488,3.027867014099344,0.041530627195324718,4.1913751085316319,1.5008421713722276,-1.9257895246926267,-2.141003914120719,4.024430265198037,-0.4038580848575236,1.3549246280638097,-1.4120440893964648,-0.9235895140276871,-0.1460561074700162,0.1789306967885314,1.9546402685085276,1.6726671057107994,-0.03111964268512592,0.5108538811718647,0.7140725276965346,0.011484984859620398,-0.5102006175274206,0.8308277553354913,0.7312568683051014,0.2587049761173433,2.7744307486349184,1.3500945587618745,1.444046971625382,2.4989814592941559,-1.3524852443377,-0.8392703741757354,0.09778055180632504,1.3267586874341733,2.5028216930601587,-0.6200591028360443,3.009375949745554,2.7888776543857567,-0.06505193131373631,-0.047301081494716127,-0.2572144516546981,-0.7265731136699494,-2.522527832305489,0.4073011427362973,0.30131130815638709,-1.7577706357854473,0.282115814495499,2.5002609837981977,-1.8605981709330005,-1.6095554721916583]},{"row":40,"colmun":9,"elements":[-0.5052748682820766,0.06767253844678326,-0.283657836832328,-0.2837150603749785,-0.3429441155823416,0.007295132347990367,0.17014162773418604,0.0259103558868127,0.1294150025440094,0.2528579418017407,0.2304836943210342,0.2372295914610177,0.24405814979419408,0.21719664102189116,0.22477130526181519,0.2157836001767702,0.2091355679845621,0.23478168732517044,-0.019365337303486549,0.00098617838264432,-0.018228760780793879,-0.01051656952088674,-0.019431127212018806,-0.007213771274422977,-0.004159971621183583,-0.0014525689793592277,0.00047175566246597885,-0.08627916069740829,-0.10027209061553984,-0.08332385892236277,-0.09060517557872308,-0.0731255500052823,-0.09301970860617774,-0.09299881774155027,-0.0833079446186799,-0.09849357667882462,-0.20486178574501463,-0.2478460751561765,-0.2841455720552187,-0.20383462493183056,-0.30829880705476206,-0.33403749230496918,-0.1752300713646926,-0.24833203504958158,-0.23994790553738858,0.032385688845564638,-0.013025334656078964,0.012564353180288635,-0.19317302788307723,0.10612179608026493,0.11062298440983475,-0.027714018936831097,-0.17321047481746269,-0.2581243003869025,0.26087133677705195,0.2788504716594474,0.2688258606518945,0.24966386941511455,0.2794571400276273,0.29388394404438047,0.2643675131841059,0.2589400929308904,0.2503691002276124,-0.569397745471339,-0.5540890655339864,-0.5556133865272075,-0.5818965187014112,-0.5661358263291251,-0.5610915424570153,-0.5334822703567286,-0.5859646506655326,-0.5632757343382939,0.2907154714903261,0.2920999680693963,0.28537299290653569,0.26733280594995709,0.29083460538553287,0.2911980254450213,0.32796766833446869,0.28372105926544208,0.2796573749052132,0.35549694615890956,0.3748149499163877,0.3561071659038189,0.3759804211982815,0.3511038308415966,0.37860241777134887,0.36363205226164216,0.3891624362006301,0.3984877518325108,0.06255760857187969,0.07270221126637185,0.05107783209151358,0.08097518814578059,0.040976021288730599,0.05314180756693406,0.06310907012377802,0.07969833677196686,0.08819925425891716,0.3354618983095604,-0.8231237919643769,0.630058857746642,0.1724298621500953,0.681608693004778,0.5951711752612834,-0.6512162260779534,-0.5094422174613522,-0.13578700034496569,0.17476966083368487,-0.7385940386668912,-0.3564727559467769,-0.8276974482989267,0.03614481870328878,0.7656192838732931,-0.8006557693633081,-0.30900453255659968,-0.5880062957153561,-0.020571018681667175,-0.033482183390346257,-0.038449248562705807,-0.011392010459483192,-0.052640712612920328,-0.045032071157896178,-0.04300417982471917,-0.024255302337785776,-0.006930637372447424,0.15903710527500013,0.623735918794514,0.5897027327757188,0.2687945152863985,0.7546275070311489,0.4517815347283677,0.6797958339255068,0.2775491190892414,0.09571854672553683,0.043571677463552557,0.04839315833228515,0.049239541577178188,0.04012155326795283,0.04873559442079244,0.04476433512234232,0.04949380443409883,0.04578773591040007,0.05018393407350412,-0.3921068262136233,-0.37987726450740036,-0.37119535666583666,-0.3821934596777023,-0.36054254460450699,-0.36941395093392279,-0.39144142621861197,-0.38501476939516479,-0.39681814329054179,0.07783701031255568,0.1020353356435707,0.10343710996927164,0.083728121848619,0.10709726942182213,0.10310792209201407,0.08443150064604435,0.09202985726209914,0.08996252152039718,-0.18022276860284945,0.16911238167442564,0.08723026133449297,0.09720495030362161,0.17144943209893033,0.3967740327798312,-0.25884300246565247,0.31034761950626468,0.27059691003137967,-0.2792825811311357,-0.27337367954802457,-0.28379717821559488,-0.2690834199621811,-0.2841897862954588,-0.2813621771743433,-0.2881542224227422,-0.2755824344001481,-0.28229855844276616,-0.42222790062063478,-0.4085535227827903,-0.4075453205402755,-0.42111307465392658,-0.4071640487385967,-0.4055960686503448,-0.41626403614792897,-0.42225707367332307,-0.41819818390621468,-0.16838950190592,-0.19421575267477043,-0.1872757505141587,-0.17366956359814957,-0.19225913143134003,-0.20529692556065805,-0.17431005908646125,-0.17943969549150427,-0.1787371984343874,0.24366424705711585,0.01633577964405874,-0.06958914736692329,0.5959244516328492,-0.27403252741976688,-0.5517855847937404,0.3365153951606763,0.3996827040873595,0.5141229149580874,0.5091679501178126,0.5302091026261083,0.541301464996915,0.5062047929541704,0.5503192089738996,0.5647238061535571,0.5145190259300987,0.5299827871092057,0.5358978413703229,-0.34713907817233055,-0.35006642121163819,-0.34502830204475007,-0.35413985874049938,-0.351567503806919,-0.35790021709223376,-0.3435215575492087,-0.35264052523154507,-0.33951221686897867,-1.0697697843612848,0.29431966215057989,-0.05706818700275496,-0.19260101771965502,-0.11266733641202599,-1.0650780617026437,0.3934902713177556,-0.5541347680256432,-0.6049572098229942,-0.039296384080129437,-0.04886815821401188,-0.039365530613471238,-0.044155934016815199,-0.03858350071685668,-0.055967078750323379,-0.03909114188002732,-0.051476818604643367,-0.05243816374869174,0.1481949232041176,0.15499865938550148,0.146883875382051,0.14694188116670574,0.15343586535328716,0.1278302523524623,0.15502783901558063,0.1507680647416701,0.13633492147405275,0.07456173123582734,0.0763790597231882,0.08536856820225399,0.07240786792377942,0.09457852256489408,0.09872719679851366,0.06349708498723533,0.07148040292422375,0.0639002639907594,-0.711566976167791,0.7036191417589159,0.4834804207160604,-0.48061987836130246,0.2718810723858046,-0.8195109616639619,-0.7878374690229639,0.36111130365294016,0.9370703880259901,0.06123446255443312,0.026504667693030297,0.045945431493241147,0.05200970568024406,0.03751090563959059,-0.0016393122436476735,0.037769968382127327,0.023805522617486503,0.02260977787191239,-0.1498953895088244,-0.37137865271304595,-0.23524625962684005,-0.08641900908020885,-0.3350109769763014,-0.4855410637938042,-0.40621520318156209,-0.31493557570798999,-0.24407990865073637,-0.08455144052563167,-0.10071175136883641,-0.08903029421065795,-0.09743977009306479,-0.08963026761303067,-0.09057804268640618,-0.09642224088784048,-0.11545889335749946,-0.110763967212746,0.4386393749260155,0.5242449942046473,0.5697875635505589,0.31688085037718397,0.6304962097174633,0.7304624947056245,0.4126976754284019,0.39686097315711019,0.3774421293417937,-0.20737294362313755,0.03577605275143128,-0.04511675790104829,0.2766058884393316,-0.24309030041827216,-0.2379601450792528,0.11009407153240972,0.30697016568608545,0.47091642361296939,-0.22019098624646514,-0.22824192332521885,-0.2202564148443819,-0.22521813443487152,-0.2292158131308162,-0.23528190165741756,-0.21771914789509157,-0.23219782374723989,-0.21797451016569933,-0.3817237225833046,-0.38686329602475935,-0.3712796463845916,-0.3678402576388326,-0.3882866696152709,-0.4150850934036616,-0.37683453389841617,-0.41914285171042889,-0.4086856488585731,0.21618828379183997,0.22737543669938177,0.21118046514808976,0.20521748567128093,0.20598233232170053,0.22462343326495097,0.23308491469247057,0.21611066215699405,0.22547080242738025,-0.807012857738114,-0.5827856899957352,-0.6433364762254179,-0.6021223585629049,-0.5847862978029971,-0.43065119413437299,-0.8873413538895807,-0.4679468866289834,-0.5060218345081416,-0.3323294562850544,-0.3008884019196142,-0.3078936662131306,-0.31061235095470515,-0.3022900613254138,-0.2873854457531036,-0.3282066237155273,-0.3143864584527735,-0.31948990799628126]}],"biases":[{"row":1,"colmun":40,"elements":[0.10273693811756911,0.24130575451684903,-0.254292990376906,-0.8477623827010745,-0.46104259134767747,0.03038895451416778,1.2542175924724433,-0.18815288073373569,-1.0110817805279214,0.11329597747750209,-0.10418044244178883,-0.11423654544082626,0.001213658744977693,0.10017136033376967,-0.11860623358089456,-1.0360188188608728,0.02924157603552581,-0.3215819660840602,-1.3562458297704754,-0.30205173311703106,0.32467818624936375,1.5295534098464776,-0.06734424762547055,2.990615743340807,-0.00339138548932972,0.06533775077304333,0.5587057745837931,0.09039164643494509,-0.08264126093050682,0.25025030759099906,-0.12909827751844717,0.03669979180311725,-1.1462814462443159,-0.15713883782914463,0.046461672105625618,-0.021811668291145185,-0.8658724949704745,-0.1441829989155926,1.5128268414537514,-0.3081956003514005]},{"row":1,"colmun":9,"elements":[0.056052517782880419,-0.44284220315376218,-0.19263903086537205,-0.03891432770671179,-0.10092462855181836,0.14844681086914747,-0.08924616255337156,-0.32760572739592339,-0.45956175700226689]}],"inputSize":8,"hiddenSize":40,"hiddenLayers":1,"outputSize":9,"v":[{"row":1,"colmun":40,"elements":[-0.006975907390632627,1.4165247277460099,-0.448355652792483,-1.0554399626047114,-1.018377722149899,0.12394299779588757,2.0337356336024916,-0.3274799612705035,-1.0633162141559108,-1.765827993686697,0.3575486455821635,-0.11866881143180168,0.541589072210296,0.6384776153406451,-0.8511505930914116,-2.53845462433286,-0.23492665855047444,0.22605118397840869,-0.7076940139496575,1.2227084907664954,-1.5653896177843683,0.5126019083648139,0.607992889097365,3.6300850029285547,-0.6504590228034303,0.6640011155522013,0.2784910686911928,0.15622095338354026,-0.03740648556382441,0.2578557364575775,-0.572539799949407,-0.2989779215186709,-0.5268936055942504,1.0012454495607679,0.18330829887095727,0.5465376340699338,-0.05876393863078189,-0.1614875407790136,0.48869201266301567,0.8943994302416829]},{"row":1,"colmun":9,"elements":[0.25604871311432955,0.24712659417043798,0.25775308081209027,0.2658359012385012,0.2645673872760566,0.23371234230128225,0.26728808954485586,0.2684090096363369,0.251997731594996]}],"y":[{"row":1,"colmun":40,"elements":[-0.006975794235981227,0.8888716894534688,-0.4205464126840031,-0.7839123224099884,-0.7692049474884751,0.123312208284013,0.9663351094317322,-0.31625459569382516,-0.7869297783958197,-0.9431503623875519,0.34305298987666379,-0.11811488867647852,0.49418989273514898,0.5638620872332747,-0.6916700882729159,-0.9875990456801782,-0.23069807585726913,0.22227794868422405,-0.6092287727587904,0.8404513138070382,-0.916289308311574,0.47196999936159508,0.5427126991060567,0.9985950106647994,-0.5719788961418356,0.5810199767623103,0.2715079559389372,0.15496238138904087,-0.037389048375332887,0.25228883937001325,-0.517222077077584,-0.29037699240565098,-0.48300296853038,0.7621167168816694,0.18128235376412228,0.4979207443939178,-0.05869639071142217,-0.16009826143871687,0.45317768303281538,0.7135599003295197]},{"row":1,"colmun":9,"elements":[0.2505960625648027,0.24221572350099505,0.2521927152321321,0.25974589774855647,0.25856257854042849,0.22954806586541136,0.26109959834649296,0.26214379590779349,0.24679563889962934]}],"lastInputs":[-1.0399999618530274,-1.0000000953674318,0.07470694929361344,-0.23523209989070893,-0.3140000104904175,-0.3560036659240722,0.29768311977386477,0.24290990829467774],"dw":[{"row":8,"colmun":40,"elements":[0.0032015086879603898,-0.0011203794841373675,0.00021179521779078446,0.0007897750541244293,0.002629506563713275,-0.000775007868759848,-0.0004295192139717188,0.01184678163175907,-0.0026241751831034157,-0.0009499331142301825,-0.0011779140612390605,-0.0049851361438482699,0.0013421504904109145,0.0006381832711954882,-0.006680770979396089,-0.000027304948197232304,0.008338564735546263,-0.0022046803230727676,-0.002075124885693396,0.0019417668191794333,0.001547851939027339,0.0034659694516507089,0.0016829220245175268,-0.000035663381002461,0.005547040349275218,0.005058230743849274,0.0009804672322293322,-0.0033495168769625187,-0.0019938597230354535,0.002272896496362774,-0.0005155456008807139,0.007390783782191163,0.0016770516576157299,-0.0056223065987471769,0.0020530095242878578,0.004015352698149427,0.009159386264192505,-0.0049981273624206319,0.011266775587931663,0.0035271816456609375,0.0030783741449141395,-0.0010772881077695785,0.0002036492747670709,0.0007593991907807961,0.002528372029742598,-0.0007451999722091164,-0.000412999298738977,0.011391137688551564,-0.0025232457015561999,-0.0009133973458328919,-0.0011326098238262839,-0.004793400771270797,0.0012905294881136085,0.0006136378417940517,-0.0064238190976666459,-0.000026254761348821874,0.008017851765990902,-0.002119885205956414,-0.001995312653565254,0.0018670837265234034,0.0014883193686700783,0.0033326633743483967,0.0016181944680218252,-0.00003429171703049158,0.005333693347833139,0.004863684049783242,0.0009427570785550986,-0.003220689730054715,-0.0019171730637683488,0.002185477688935032,-0.000495716989381804,0.007106523805888077,0.0016125498837170536,-0.005406064751112617,0.001974047880175052,0.003860916565736134,0.008807103340061519,-0.004805892329239851,0.010833439495844264,0.0033915212609764049,-0.00022997591921865846,0.00008048090036649789,-0.000015214014592783218,-0.00005673239142884954,-0.0001888869430077081,0.00005567161122817001,0.00003085391472673206,-0.0008509970645377862,0.00018850397070434752,0.0000682371226924598,0.00008461381660863626,0.00035810031421218766,-0.00009641151183589797,-0.000045843006759620785,0.000479903881833527,0.0000019614129377474434,-0.0005989891882015307,0.00015837014148631343,0.0001490637070189818,-0.00013948411598207282,-0.00011118778900424442,-0.00024897308997620416,-0.00012089036054070905,0.000002561829321072792,-0.00039846392048377286,-0.00036335096303546493,-0.00007043049854703513,0.00024060788140750343,0.00014322613720291468,-0.00016327035531891847,0.000037033500457939314,-0.0005309066629891324,-0.0001204686709074844,0.0004038705667232625,-0.00014747508082308297,-0.0002884372705957998,-0.0006579517599024198,0.00035903352031098253,-0.0008093331379074438,-0.0002533701827087126,0.0007241323452987765,-0.000253412719610606,0.00004790484197611631,0.0001786350492667059,0.0005947542051411042,-0.0001752949375838204,-0.00009715068303074865,0.0026795609830793317,-0.0005935483283120902,-0.00021486035520419097,-0.00026642616180712385,-0.0011275616215111174,0.0003035739325087795,0.0001443473043315857,-0.0015110883115535526,-0.000006175962055227151,0.0018860559276581589,-0.0004986650009679748,-0.00046936154067485266,0.0004391979837766866,0.00035010045701209527,0.0007839493290135949,0.0003806512464425708,-0.000008066511836658003,0.0012546557667305965,0.0011440945031261049,0.00022176670612602468,-0.0007576095360459354,-0.00045098060263527086,0.0005140944570046132,-0.0001166085372431253,0.0016716823583583119,0.0003793234591501769,-0.0012716798422725232,0.0004643593838536181,0.0009082114246471441,0.002071713215063179,-0.0011305000366428553,0.002548372478614651,0.0007977945919598435,0.0009666094216134117,-0.00033826844488105677,0.00006394586831487295,0.0002384513311310935,0.0007939087681498136,-0.0002339927767758312,-0.00012968177176915635,0.0035768170125911288,-0.0007922991011990172,-0.0002868067488214245,-0.00035563946264658086,-0.0015051277489236376,0.0004052262341604809,0.0001926822703850361,-0.00201707907169222,-0.000008243994552744888,0.002517605298534204,-0.0006656439134280443,-0.0006265281344007734,0.0005862642538043202,0.0004673322528072194,0.0010464562347085832,0.0005081130314769538,-0.000010767598480430572,0.0016747796074528456,0.0015271966970091874,0.00029602570432500516,-0.0010112965125788094,-0.0006019923047247473,0.0006862399518072317,-0.0001556551250217351,0.0022314483367917609,0.0005063406321150707,-0.0016975042266746195,0.0006198509959699551,0.001212327726527191,0.0027654302774375247,-0.0015090500978828979,0.0034016997909310298,0.0010649376099647003,0.001095912376160966,-0.0003835184790472045,0.0000724998814657284,0.0002703488700352599,0.0009001096255671087,-0.00026529389665256453,-0.00014702925035334487,0.004055286389427971,-0.000898284634114066,-0.0003251727725509349,-0.00040321321089036624,-0.0017064680840742002,0.000459433184936598,0.00021845730039470653,-0.002286902929906332,-0.00000934679039676283,0.0028543843493132527,-0.0007546868326861452,-0.0007103385515907553,0.000664688587839866,0.0005298471007821914,0.0011864402654111566,0.0005760831078542571,-0.000012207975809442642,0.0018988142036584009,0.0017314891864915949,0.0003356249440337947,-0.0011465772413573623,-0.000682520573822183,0.0007780379948566552,-0.0001764770486506037,0.0025299482855981748,0.0005740736153407811,-0.001924578686076872,0.0007027682150307622,0.0013745003201464774,0.0031353607762227367,-0.0017109151240801836,0.0038567438072794389,0.001207393886820978,-0.0009163799318964436,0.0003206904542327065,-0.000060622945670892034,-0.0002260602987065856,-0.0007526536019841142,0.00022183343142692243,0.00012294290798828766,-0.003390949081515575,0.0007511275807621354,0.00027190294557001733,0.0003371587936891673,0.0014269143598371825,-0.0003841688075446351,-0.000182669609735823,0.0019122623274887927,0.000007815598521882018,-0.002386778899963589,0.0006310539814895695,0.0005939708389921,-0.0005557992555853525,-0.00044304751063327445,-0.0009920775358202394,-0.0004817091317021836,0.000010208064334522425,-0.0015877503242804072,-0.0014478365034574115,-0.0002806428415689892,0.0009587448752332974,0.0005707100043418332,-0.0006505797545942359,0.0001475665658510388,-0.002115491975534965,-0.00048002883439675825,0.0016092940673364835,-0.0005876406755117117,-0.001149329578866318,-0.002621725748413086,0.0014306328854296203,-0.003224931759450866,-0.0010095985334640287,-0.0007477675099251337,0.0002616839305091308,-0.00004946842194027047,-0.000184465570199608,-0.0006141665593081152,0.0001810164396474399,0.00010032161221503662,-0.0027670199474145219,0.0006129213235172239,0.00022187324435338833,0.00027512212220160353,0.0011643644307265814,-0.0003134823697132455,-0.00014905869766099187,0.0015604091591035904,0.000006377541063331259,-0.0019476154514580862,0.000514941071865509,0.0004846811674739478,-0.00045353309353599877,-0.0003615274868788934,-0.0008095368774365474,-0.00039307543234354194,0.000008329797044752397,-0.0012956068384353838,-0.001181436933836528,-0.0002290050136563573,0.0007823373723636952,0.00046570028869235544,-0.0005308741343711701,0.00012041455694722071,-0.0017262448813546762,-0.00039170430701846896,0.0013131865676926254,-0.00047951574381243983,-0.0009378547994755629,-0.002139332460653451,0.0011673987536379265,-0.0026315495434873486,-0.0008238340399162917]},{"row":40,"colmun":9,"elements":[-0.00001299488610990548,-0.000020043613744318416,-0.000024700263425035045,-0.000004343639725680038,-0.00003347971173115444,-0.000036829328819626376,-0.00001697753786720909,-0.0000075332245919104338,-7.916374258480712e-7,0.0016558381712562577,0.002554003201494808,0.0031473641764418168,0.0005534765290850542,0.004266061601328238,0.004692877487768078,0.002163316786058223,0.0009599007429871481,0.0001008722551646754,-0.000783416561883325,-0.0012083598759147193,-0.0014890931160453357,-0.00026186295679484303,-0.0020183755698538108,-0.0022203123533609807,-0.001023516807510493,-0.0004541519532972893,-0.00004772507162977919,-0.001460314195812343,-0.002252422486711619,-0.0027757184645418526,-0.0004881211500630173,-0.003762318338091651,-0.004138735133395658,-0.0019078689376529966,-0.0008465541535930759,-0.00008896110063027618,-0.0014329165037911332,-0.0022101636510654697,-0.0027236418088144875,-0.00047896326268726246,-0.0036917315839476605,-0.004061086233681266,-0.0018720744451249195,-0.0008306715236454042,-0.00008729205649996123,0.00022971263893455302,0.00035431410233619594,0.00043663042875138306,0.00007678320037036302,0.0005918261127867276,0.0006510378191691823,0.0003001145983969128,0.0001331659920724772,0.000013993898879367686,0.0018001412120640139,0.002776579558657073,0.0034216507758655868,0.0006017109203130937,0.004637840481674873,0.0051018525333846559,0.0023518455903083527,0.0010435542053189047,0.00010966307386065643,-0.0005891361347181974,-0.0009086972388400701,-0.0011198111008956166,-0.00019692324326297327,-0.0015178361544651725,-0.0016696943891275102,-0.0007696936280569023,-0.00034152625736821207,-0.000035889673000434524,-0.0014659352757282725,-0.002261092570751444,-0.0027864028332606207,-0.0004900000388672401,-0.003776800353063652,-0.004154666061823523,-0.0019152127570847462,-0.0008498127321675733,-0.00008930353204502637,-0.0017569514135788365,-0.0027099626117126926,-0.003339556989830411,-0.0005872744009886703,-0.004526567324620563,-0.004979446590261267,-0.002295419051971838,-0.001018516782957797,-0.00010703198801607634,0.0006390576301857823,0.0009856973113476923,0.00121470028100787,0.0002136098836109074,0.001646452693564262,0.0018111789051281312,0.0008349149830207276,0.000370466090633445,0.00003893084810825796,-0.00022003079137828129,-0.0003393805961008962,-0.00041822748292651325,-0.00007354696903230275,-0.0005668820338261681,-0.0006235981060223602,-0.000287465473801211,-0.00012755335864966956,-0.000013404088948593607,0.0009206036123650577,0.001419960364547102,0.0017498538689094503,0.00030771877402029015,0.0023718209840367556,0.0026091196848954288,0.0012027487241849274,0.0005336802272382883,0.0000560823902383867,0.0010503927377180326,0.00162015012187056,0.0019965528825683467,0.0003511017783865014,0.0027062065620176215,0.002976960259596024,0.0013723154115568497,0.000608919873249983,0.00006398903353087254,-0.0012884803821153017,-0.001987382026885556,-0.002449102253537893,-0.0004306843881647631,-0.003319609837256342,-0.0036517340182296877,-0.0016833717735966897,-0.0007469409134218064,-0.00007849313063051661,-0.001839752820498731,-0.002837677422273704,-0.0034969432528255078,-0.0006149514023411714,-0.004739894876025494,-0.0052141173843250929,-0.002403597300673005,-0.0010665173263698909,-0.000112076179406157,-0.000429756830566528,-0.0006628669034114865,-0.000816868022845535,-0.0001436494961051024,-0.0011072151521893249,-0.0012179910998489116,-0.00056146801156444,-0.00024913298178869553,-0.000026180421145128953,0.0004140713630852398,0.0006386732745535653,0.0007870535885014501,0.00013840650904916726,0.0010668034913867244,0.0011735362862651609,0.0005409752872822736,0.0002400400087248084,0.00002522487578712497,-0.0011349042487581872,-0.0017505026366914753,-0.0021571896567181708,-0.00037935039507514223,-0.0029239399845084805,-0.0032164777284539316,-0.001482727874333695,-0.0006579117757478367,-0.00006913740301164558,0.0015656380813971422,0.002414876490760436,0.002975914733819638,0.0005233264615693941,0.004033672261316594,0.004437237789129321,0.002045472317991551,0.0009076111323378277,0.00009537734229330323,-0.0017069131918794479,-0.002632782497957743,-0.0032444459402342867,-0.0005705487440081006,-0.0043976500548679529,-0.004837631255757382,-0.0022300451967087575,-0.0009895092826955233,-0.00010398370204534171,0.0008792111953877584,0.0013561157405296322,0.0016711764880927879,0.00029388304316402194,0.002265178557428693,0.002491807772916915,0.001148670425944842,0.000509684759263058,0.00005356079934883194,0.001010994515707729,0.0015593813904243115,0.0019216660036913763,0.00033793262239715653,0.0026047019313137369,0.0028653001756942448,0.001320842485944152,0.0005860804537725525,0.00006158892730512783,0.0018602366977189945,0.0028692722296091868,0.003535878350757679,0.000621798294424517,0.004792669044161375,0.005272171563735782,0.0024303590435796396,0.0010783919704651353,0.00011332403981038761,-0.0010655131675607829,-0.0016434722235690993,-0.002025293311461448,-0.00035615589730519394,-0.0027451624734511615,-0.003019813677306877,-0.0013920699263754206,-0.0006176852901199959,-0.00006491015727579762,0.0010823553806477943,0.0016694500436792916,0.0020573064508142165,0.0003617855353962386,0.0027885543457845409,0.0030675468700863768,0.0014140739137927772,0.0006274488365440433,0.0000659361705937307,0.0005057796784144163,0.0007801263072353222,0.0009613698178041563,0.00016906071242347445,0.001303078587190005,0.001433450507304593,0.0006607902193309831,0.00029320394802196114,0.000030811668473265755,0.0002886722901148,0.0004452548358494975,0.0005486990458430085,0.00009649091315158887,0.0007437283386769125,0.0008181377354010439,0.000377144108473732,0.0001673453061845828,0.00001758567075751079,-0.00006965033786247488,-0.00010743029661587988,-0.0001323891320243618,-0.00002328115628623104,-0.00017944545368779165,-0.0001973988208776859,-0.00009099666118833537,-0.000040376778494465975,-0.000004243039431709119,0.0004699772704738337,0.0007249038428129099,0.0008933177471739363,0.00015709348469323866,0.0012108381252887489,0.0013319814645268334,0.0006140151470904364,0.0002724490466194765,0.000028630616186886663,-0.000963509208812914,-0.001486138951677227,-0.001831407452812157,-0.0003220602966476293,-0.0024823619298040687,-0.00273072015960646,-0.0012588039587016359,-0.0005585528957294111,-0.000058696162736213084,-0.0005409299382405805,-0.0008343428832798808,-0.0010281823061800934,-0.00018080995467597254,-0.001393638870389264,-0.001533071270909925,-0.0007067132741537609,-0.0003135807946903332,-0.000032952992450354305,-0.000899764006000053,-0.0013878168723278516,-0.0017102426124093039,-0.0003007529767590452,-0.0023181303238962826,-0.0025500573192234977,-0.0011755222288384303,-0.0005215993645183819,-0.000054812859116763085,0.0014197121651394743,0.0021897969728626278,0.0026985434247047,0.00047454961185311174,0.0036577122437303495,0.004023663286997881,0.0018548232620384349,0.0008230168779786932,0.00008648765940314809,0.0003377025556099994,0.0005208802545761806,0.0006418942045606896,0.0001128796530885437,0.0008700487343308598,0.0009570963807299805,0.00044120109073920554,0.00019576848732310686,0.000020572552892297692,0.0009275536442551302,0.0014306802549360699,0.0017630642669879936,0.00031004187515077644,0.002389726878881389,0.0026288170495065165,0.0012118287906506174,0.0005377092083856449,0.000056505780278783055,-0.00010934280550064917,-0.00016865287934340263,-0.00020783530356912458,-0.000036548666119350864,-0.0002817081717435729,-0.00030989283813532024,-0.00014285401235483798,-0.00006338677418019797,-0.000006661070851214243,-0.00029823968474571223,-0.00046001180723805746,-0.000566884443212106,-0.00009968888772701904,-0.0007683775438759464,-0.0008452530729137292,-0.00038964370279591934,-0.00017289159046168478,-0.000018168508313271645,0.0008442038539764819,0.0013021196051631013,0.0016046356544636616,0.00028218157248098487,0.002174986485792894,0.0023925920601332499,0.0011029340909424735,0.0004893907633798767,0.000051428181840204233,0.0013292579057950537,0.0020502782252188164,0.0025266108648632908,0.00044431458624977866,0.003424668067575711,0.003767303236409054,0.0017366467270321254,0.0007705799235357436,0.00008097726274258577]}],"db":[{"row":1,"colmun":40,"elements":[-0.0030783738513375316,0.001077288005031388,-0.00020364925534556446,-0.0007593991183588526,-0.0025283717886182739,0.0007451999011413156,0.00041299925935229837,-0.011391136602208122,0.0025232454609207608,0.0009133972587245412,0.0011326097158122042,0.0047934003141365199,-0.0012905293650391373,-0.0006136377832729923,0.006423818485043574,0.000026254758844972953,-0.008017851001349044,0.0021198850037884256,0.001995312463277429,-0.0018670835484644407,-0.001488319226732896,-0.00333266305652088,-0.0016181943136987895,0.00003429171376017891,-0.005333692839172551,-0.00486368358594623,-0.0009427569886467859,0.0032206894229058365,0.001917172880932495,-0.0021854774805116579,0.0004957169421065524,-0.0071065231281572179,-0.0016125497299323273,0.005406064235550155,-0.001974047691915193,-0.0038609161975304724,-0.008807102500150773,0.004805891870914286,-0.010833438462687062,-0.0033915209375357635]},{"row":1,"colmun":9,"elements":[0.0018628539877047558,0.002873309198389658,0.0035408532117577097,0.0006226731435505213,0.004799412167071342,0.005279589330439288,0.0024337784763831988,0.0010799092314182626,0.0001134834828935745]}],"learningRate":0.0025}