{"weights":[{"row":8,"colmun":40,"elements":[0.08980205946702971,0.1088327317927828,-0.08702234417476938,-0.29084669256080628,-0.4561586877708123,1.3542551499583214,0.36148608954342728,-0.16905274808865268,0.03889063073217666,0.06049840540484386,-0.3108929177747683,-1.12859857644591,-0.7213720107172809,0.32497044597135929,0.538292012058642,0.2996696666149838,-0.40418992427760139,0.11582648179146264,0.3284804211659942,-0.05904813772546718,-0.8567620276279404,-0.1287588625629764,-0.4997258819803707,-0.3273352814640173,-1.4901818321381569,0.32725678288260909,-0.9451336348258946,-0.008957874976998463,-0.08936874949489224,-0.6892388018991736,0.3129818216343734,0.11966093446581336,0.007672254742292203,0.09489874142510432,-0.7836806660499394,0.1317721016859293,0.05844276553802102,0.17025300328089364,0.07202052570546117,0.062400676876645449,-0.23541782584295208,0.12688078678052196,-0.03583645908744193,0.05781630145404018,-0.2326930710544831,0.5255324715664618,-0.1867704451264426,-0.6733552713067028,0.5664148641119117,-0.12373374871144655,0.1011778685007847,-0.6533352455014344,-0.002128986344322107,-0.2524240828443852,0.17369122505758145,-0.04744507498701021,-0.0011497752035778213,-0.06474210357598963,-0.03368688162560611,0.057876806995992017,-0.6301844228524998,0.2365446364457342,-0.6989805546086553,0.1553066755089932,-0.3614273684058728,0.0384938582778643,-0.013396939306285484,0.47119731289934338,0.04052048995282421,0.1769504358148574,-0.2717286210429563,0.15900523809972895,-0.5250142340628591,0.13878553991988819,-0.9034626273129469,0.21288706756733656,-0.08352081145197915,0.07262858170419986,0.1375657253653552,0.12993678382888969,0.22055916987568389,-0.3516421134821177,1.0600385754058104,0.20154276466597735,-0.057157833789562687,-0.0707345580544028,-0.2846239307936227,-0.139822897744527,0.11245390994271559,0.7801440341386584,0.10177142808050469,-0.028249714131668096,0.14075603707720983,-0.6185337371928033,0.059482858496481879,-0.3127865242902022,0.18388338344338116,1.0980335202618215,0.06413614459076186,-0.7022948957910357,-0.08470599311052839,0.19313119912636884,0.13622003370220457,0.25036925797566519,-0.0033879162180668967,0.3478190746308039,0.28517689509428997,0.10221669841542718,0.09955249895869024,-0.1012784046317951,-0.45711331266315677,-0.20504713429649147,-0.08612049063480393,-0.058798741991803408,-0.07372924713540979,0.2450727732427918,0.8458162030951427,0.2417989893183789,-0.2466302870613993,-0.10555984506121356,0.974347552776854,-0.8643340566307802,0.7587510857465656,0.46424978789222068,-0.19879998690227089,0.08166033996738133,-1.236734961435713,-0.3923665558474734,0.43799872184503449,-0.03397385753802606,0.40279170486812479,0.5193432397439445,-0.34112484416422036,0.6124495415208193,-0.6990527325137695,0.45948560735535745,0.7081129691978529,0.5514710717300048,-0.12032777671769941,0.1054784286036965,0.2846485071875064,-0.2929693222370536,0.8771342873409533,0.5931474704512528,0.4189965388816706,-0.6035048691469243,0.29434431830756416,-0.5860196847549768,1.2171629992959406,0.2188382459201417,0.8780352086573734,0.31005414422094165,0.3542499915588106,-0.016393077496269477,-0.2311592696622481,-0.5700960852235859,-0.05514866673285935,1.4362659753079626,-0.10037036954312898,-0.40248331053649258,0.4698931139278039,-0.458643216802473,0.3914236233998401,-0.3498165479931932,0.43756290375576875,-1.3267536209159408,-0.7910774319757304,-0.42612264304351296,0.24549598856092068,-0.7284726994997504,-0.029638730230527673,-1.5119428869823247,-0.4291496015790907,0.7659463316217268,-0.07142876973697175,-0.6588768663932757,0.5543043164459014,-1.0032613154916208,0.1720266773771566,0.5859631015448914,-1.3054542105214689,-0.4734929986875124,0.9096366183900413,-0.0393604294919901,1.272220903904769,-0.4767154728956397,0.00421969930421855,-0.4759938639478933,-0.2748690239745993,-0.28443943160714227,0.4192754842901436,-0.2746882218962229,0.2266510367040938,0.3837948529021241,-1.298015440480159,0.0629573034506273,0.3628198124374896,-0.2715680019841405,0.23105732515959127,-0.013215402340893752,-0.0296601554717086,0.1463260892205869,-0.11458007970470219,-0.005269176966891546,0.15137776107564747,-0.316256643726732,0.20387719228473295,-0.7541271737503662,0.6230251096325085,-0.00845072295999712,-0.003603844782883325,-1.0365197144704517,0.488793072364786,0.6954894890136323,-0.04769658684495282,-0.242065048362424,-0.038568171383969247,-0.10131493820700174,-0.28997757037450597,-0.053877176835502669,-0.743878491692895,-0.04469125702707625,0.7357028017059903,0.4562412946675521,0.13864853543556156,-0.5125718229983283,0.5105031453880553,-0.17339442175772666,-0.1659552435339056,0.28254675650842756,0.2554700621251505,0.10568224619010143,0.151478709105348,-0.1627949684308602,-0.6538280536959478,0.05242094130492906,0.04505709693003393,-0.25102658530943258,-0.12873396282573183,-0.16944353997542239,-0.00846831611972997,-0.06791694004435785,1.1082509581560405,0.34842216403644507,-0.0917610513789381,-0.21880501261453196,-0.606079326787154,-0.16273034154215064,0.0016056611625351338,0.678289672132561,0.2702445739336945,-0.10905056192989711,-0.03424613501941621,-0.498504390726976,-0.16596490773720055,-0.19561386313827926,0.3371559394671682,0.9306803376684144,0.12212626781357913,-0.534569899294533,-0.21521739125170395,0.2628250190080204,-0.04100628657832946,-0.17458235634871176,0.26652900356315548,0.3235347761344265,0.07631345878125645,0.22367826110707005,-0.08449496136402,0.042572378231605267,-0.49721480485318655,-0.277721063541784,-0.3317552549655487,0.10273195319439321,-0.20169993956465055,0.124040900847331,0.5988261982886568,-0.08653618520444004,-0.25476260297995409,0.24642486358951128,0.7323720261578763,-0.6265253453838066,-0.2232859078602298,-0.08487585612019764,0.09122203278120644,0.7759288987274166,-1.37469925158538,-0.8480101943732676,0.7850807463654765,-0.6169850205390804,0.006460351970702187,-0.04458606657130286,-0.08671511869686806,0.4322492452588303,-0.42721539197206606,0.5367329802159088,0.6528594447369984,-0.00263994719175231,-0.4673079152528568,0.5419554727800799,-0.2077865021134588,-0.33061162852171557,-0.2287685998832822,0.6974869811334535,0.2501410403170713,-0.834027893642145,0.7897163908443178,-0.35483160410284605,0.4416961127311145,0.22951930744993366,0.24493723253713596,0.2442391477243935,0.38942799351274517,-0.04987277482619722,-0.6585091218431182,-0.45946929728845017,-0.9089512142932811,1.1754392660408657,0.4901000203930586,-0.5412643332915093]},{"row":40,"colmun":9,"elements":[-0.09841700883299408,0.4860021820931126,0.6966034108600575,0.8090232407086605,1.096544215068654,0.5823796756001753,-0.21494668553669997,0.8749486329502154,0.830652362018912,-1.192401312161442,-0.6027819351598736,-0.4947054799376159,-0.3649470451061492,0.18219986575569975,-0.5220033853138436,-1.028429253513407,-0.2484987646809683,-0.12378445355589848,0.4193370954959405,0.3754713695827971,0.4140430502711712,0.44228238337056288,0.43786282688367109,0.4494290405039234,0.3663113914970354,0.35889108114040088,0.4436212182757406,1.2529438828603399,0.10406621121732895,-0.43367195007650868,-0.4554396011619162,0.8679450376670331,0.8022113915436655,0.4957707404992492,-0.22223364922195708,0.3443064060233911,-0.6267036576610727,0.46770256419927028,-0.46444665041574725,-0.11902805300457208,0.0544556638663404,-0.21380301628397603,0.08011245312002158,-0.36179621987609109,-0.12542304755029574,-0.49442614226731737,-0.5516957365985523,-0.38783443219458549,-0.5925740542021478,-0.6137609017128649,-0.39874195413157556,-0.6452152149541665,-0.5539815304372894,-0.5896619830081977,-0.5367504308922715,-0.3235328990893604,-0.5433177463892029,-0.513635307528005,-0.30513153164736325,-0.7072047771802116,-0.3086975060596464,-0.6192379608931407,-0.4657608967122043,-0.014693483693506758,0.29200087822922318,0.782019641371696,0.08344007823348107,-0.051802343581211027,0.5632436566503767,0.5959759878699034,0.6489075380008795,0.6824314918556191,-0.22998986123906413,0.1844011589987589,0.846615258673339,-0.1998366133818156,-0.4199271159548612,0.6202421439119945,0.5254653713787526,0.7876517833290504,0.7241454317436933,-0.7774480974380196,-0.04714087393379018,-0.22825577191840525,-0.23250326608593933,-0.8229396883099373,-0.5646916442803766,-0.7904086630126095,-0.7651219334052567,-0.09651263078466135,-0.8684095126975887,0.2330477851595109,0.6745168382529109,0.5152965106478146,-0.6798306808835891,-0.06929069923961262,-0.5990439306940446,0.4722329807782344,-0.06925628783505267,-0.5850560034764386,-0.6203552074737623,-0.4358160550885437,-0.5305467093192391,-0.5436503687849643,-0.32343890707472536,-0.35269893840176888,-0.39099748007498066,-0.584559720019142,0.21218822300248123,0.5940028401087768,0.4234373241495126,0.1943293829926411,0.23472163815165129,0.014814238998168646,0.24568603911458246,0.13995495372534723,0.2891278127217722,-0.1075016031181456,-0.40983664949256656,-0.39152622373990356,-0.3143828383317627,-0.372016898291259,-0.25107156210294825,-0.25871314983701657,-0.25990134204066037,-0.3240349543363894,0.04814051539938352,-0.24806304599539814,-0.21320451509210668,-0.6159829046931294,-0.1997419872801321,-0.4732066236817059,0.142779825324433,-0.6996283696651342,-0.5471886413595554,0.04834839277748672,0.10747058233844698,-0.2957724568502853,0.17457592408820547,0.27252696756887126,-0.1793692513331089,0.4393812143414346,0.15054191875486548,0.13123885897184354,0.023094237843512445,0.39056181478393178,-0.28571776089553477,-0.11514985536957281,0.4694633123297296,-0.8537333673813479,0.6717060195191459,-0.6996801916079841,-0.05215796098206683,0.4665262295437176,0.5214143185181474,0.7099355856049513,0.5811627928086165,0.4649691450494465,0.5255677445039401,0.49757967506252545,0.5848636948720781,0.4946694909324541,0.2629103406662689,-0.28665901855705586,-0.24588033529253926,-0.546971695498093,-0.24275929171575895,0.27048102969339007,-0.24912470141500699,0.636028047610584,-0.011336941225852304,-0.18134617379569757,0.58464200874049,0.8834800246954435,0.7509839478916205,-0.3480752259361563,0.21130350008909488,-0.3843595630633562,0.050137434332468758,0.6520142337890021,-0.16910702893928457,0.08268239715292261,-0.3026881965439101,-0.10351761457887514,-0.05767306189237572,-0.5536161831842186,-0.5601987645950143,-0.4462636368527837,0.06110010085346505,-0.7059775759987107,-0.5147400981655887,0.4990803053954939,0.5177373656285176,-0.5607156048403523,-0.3132648249667004,-0.434031537016855,0.5804489346223469,-0.15380393840678514,-0.07988413869199437,-0.3201343856668309,-0.19258768759837872,-0.21034763064950275,-0.23204066422891404,-0.10938297039778278,-0.22340309324174727,-0.25767846039817107,-0.23098069489742299,0.4516757925352236,0.06243499989446514,0.16914032789204226,0.7932114092856212,1.0505486086247662,-0.34046640998437946,0.3367033818390749,-0.4205191721897698,0.010855804797571305,-0.42683716327621248,-0.5973580974702865,-0.3434717158968611,-0.5403103144484992,-0.6074780936126675,-0.3126704009550285,-0.634863708877587,-0.4787561056536965,-0.5579188711778873,-0.6234770749941441,-0.28128746352965869,-0.6201105793394783,-0.2139247483449212,-0.45915237058382288,-0.5877324758364083,-0.37116667694431218,-0.8051014189205265,-0.12425546084160909,-0.48705892525257069,-0.10104819600693488,-0.32352084934846017,-0.6509425506838733,-0.6837952161140649,-0.1820446975479142,-0.5441608896428886,0.05279598938450223,-0.5420520940636241,0.763983753551565,-0.6010466001846668,0.040829537172326939,-0.4281058033505647,-0.16703807775249347,0.36282296754205098,0.04508784120319054,-0.5868533031199459,-0.4819545755996695,-0.3381783193997683,0.031259187322974068,0.17082452092306903,-0.06869384833900209,-0.15208080107994766,-0.4183887017947705,0.27061552287836956,0.1220214525276041,-0.01218932231215952,0.09885723976442368,-0.7179552857728803,-0.6705897469923354,-0.40076961090463167,0.05069039173116613,0.030642282106160404,0.152087606703151,-0.07572297465530248,0.05076356535364851,0.3824073826575052,0.708270915290025,0.317587682918562,0.375069478587954,0.7543288675022246,0.48646453613637277,0.3892189442249002,0.18505190988178264,0.5412353346053446,-0.03952589284066484,0.7565455829442644,0.37993067080439976,-0.13442589511761106,-0.16651458560344763,0.4831984689326658,-0.19230581426200123,0.21767621360168289,-0.33941980884341085,-0.08200262224622118,-0.6001974636443731,0.5229033014122471,-0.23655090005522684,-0.19104071013641586,0.18711110190720224,-0.21680034048837736,-0.16540195286075633,-0.5753380294109631,0.3423355205677719,-0.6982935086159282,-0.5194838620295312,-0.23764082661210959,0.47728323096809147,-0.37351624498916666,0.272192707538463,0.060199029669459568,-0.5699572983010414,0.7228921817361999,0.48506860168253709,0.5701466585108699,0.5743834051701314,0.5548167412777549,0.7304490757347921,0.7275614518190888,0.6893174749102135,0.3987629755956527,-0.4517530333346945,-0.02238088006464115,-0.4423466673226455,0.23929459154759467,0.18794840254998225,0.033863457303275567,-0.2571361294219178,0.3378635003278768,0.4392255992159968,-0.47081629601896027,-0.34897011801394148,-0.5595561213329624,-0.6565960223089712,-0.611060337241688,-0.49164610249209425,-0.41330671707314339,-0.6356113818448748,-0.6622092243480701,-0.3623693871289756,-0.48722805337671107,-0.46460441995339576,-0.4584579234049709,-0.4345179717036157,-0.16871833342843499,-0.7118377424375599,-0.47290404208474298,-0.4814685499463744,0.44627675277579506,0.5298654361965324,-0.04217253686360932,-0.22000570212141533,0.4966397185712394,0.23152124396228802,0.5256297641483939,0.0430066410057221,0.273760460745907,-0.7156347748659196,0.21042888517857945,0.3904040094799424,-0.27041604613630829,0.14565278428494447,-0.7509971257459425,-0.3250467838693054,-0.9498082816386019,-1.0513311486778199]}],"biases":[{"row":1,"colmun":40,"elements":[1.8520211785649783,-1.6565743163462803,0.5264440186957636,-0.5337827941301646,-1.1510149486916164,-0.4252559821348799,0.7223240578151647,-0.07108997967733308,0.05969737082750476,-0.8321289820591361,-0.2630019709871834,0.14526591075964924,0.08700121932693253,0.05415086734214855,0.7851199780770172,-0.005458242814007174,-0.40825387589768799,-1.03935232983282,0.17677055082463515,0.6844566951813068,0.17182810346175629,-0.5222399961514664,0.43031713115145389,0.08246494477842487,0.21722234032329286,1.5345389479182346,0.20392969549550669,-0.2714385239005007,-0.30036068904005205,-0.020254658020775284,-1.3013890711447858,-0.24909566857421884,0.27420924294619605,-1.1647819858666607,0.44890634301892037,0.06275153588245083,0.42541221106469775,-0.4152566070535284,0.8585613255891449,-0.05236324256487292]},{"row":1,"colmun":9,"elements":[-0.5757735438053396,-0.32574471812616126,-0.7042932928859624,-0.23024188300568072,0.5634559078364448,-0.3812107714596604,-0.018489866848148699,-0.07370049705700183,-0.6790796215611936]}],"inputSize":8,"hiddenSize":40,"hiddenLayers":1,"outputSize":9,"v":[{"row":1,"colmun":40,"elements":[1.238231786172552,-1.2489736664280445,1.4445949088294908,-0.007495740722919364,-1.8893872638159266,0.8740107697087973,1.3370059194804958,-0.31100593722050187,0.2438494419648595,0.6249898540966943,-0.06456832987463582,0.21040465974998585,0.353585052037705,-1.3391478479605612,1.2763185363145354,-0.029134282191041775,-0.9062168265820659,0.7582005725942334,0.36101463295389837,-0.6029679738709594,0.19322368201007568,0.33204119767198905,-0.6885048733803566,0.0801089725336081,-1.389511515154383,2.625537911143527,-0.0899129916991098,0.7357144273344829,-0.19187668760119315,0.02707081082673018,-2.298155914410059,-0.2001527578637246,-0.6517910854330692,-1.2902860776731316,0.4218931067522074,0.6410523508235668,1.30919927946146,-0.4009703588734599,0.36368119291944647,0.27293880508160375]},{"row":1,"colmun":9,"elements":[-0.08028012874494389,-0.10831058794100609,-0.06414067182571248,-0.05071862907925223,-0.07957418053607135,-0.06300873178819971,-0.11597972776890243,-0.058627503221620667,-0.06292229097744928]}],"y":[{"row":1,"colmun":40,"elements":[0.8449505380849486,-0.8479955900848667,0.8946189131461022,-0.007495600340522681,-0.9553196225848014,0.7034061729327226,0.8709512268891264,-0.3013519592117644,0.2391283971589758,0.5545926970921297,-0.06447874931307951,0.20735379336825464,0.3395511099940246,-0.8714674188308672,0.8555009517794442,-0.0291260418670904,-0.719311492209665,0.6400158389262197,0.346107437276091,-0.5391581440487058,0.1908543655478382,0.3203536896350822,-0.5970206461623064,0.07993804624308644,-0.8830633713882197,0.9895709158909466,-0.0896714767513396,0.6265489355224381,-0.18955610296222448,0.027064200007969054,-0.9800235873984994,-0.19752212267060099,-0.5728744784668383,-0.8592014440000478,0.39852407323922608,0.5656156604442695,0.8640726678560418,-0.3807789326840957,0.348452399306858,0.2663572745183007]},{"row":1,"colmun":9,"elements":[-0.08010810642221017,-0.10788902885939203,-0.06405285753845139,-0.05067518459652143,-0.07940664894851196,-0.06292548033108313,-0.11546248469568296,-0.0585604242705641,-0.06283938132465004]}],"lastInputs":[0.26399993896484377,0.903998041152954,0.7696022987365723,0.037439752370119098,-0.6959999203681946,0.08000144958496103,0.28846484422683718,-0.40838491916656496],"dw":[{"row":8,"colmun":40,"elements":[0.01602160141953932,-0.01308936122250449,0.008077533323057265,0.03122511460541469,-0.0012131133216739387,-0.026527632486984689,-0.011214280580361532,0.033201466771779177,0.0255378328937431,-0.03190057624680671,-0.005631357281012135,-0.04609757535922189,0.02277454081422916,-0.007050129042259061,-0.008101679925048226,0.009286140172759276,-0.001476409668859162,0.03090057253582407,-0.005768240436523845,0.017630926891059,-0.01965164595282276,-0.011861257984421592,-0.012896706240457325,0.026472625823571073,-0.010799025119615098,-0.0008954157885167793,-0.03907384997397251,-0.006710012929479074,-0.005085147094676318,-0.01636285302406803,0.0018170426443487223,0.008863102591743359,-0.010369727173419193,-0.0034864569269102685,0.04926844955999263,0.0006354890107042239,-0.013393111559462568,-0.037248927098725497,0.02185807980962322,-0.032007577287048807,0.05486174109049952,-0.044821059245257,0.02765937874843175,0.10692215516697659,-0.004153986060715841,-0.09083686874584129,-0.03840034098998958,0.11368965100060183,0.08744756154776827,-0.10923509509827581,-0.019283095181871679,-0.15784896765520332,0.07798539789421254,-0.024141304233128864,-0.027742062407321676,0.03179793358650752,-0.005055574837711227,0.10581084659496699,-0.01975181538284831,0.06037245097753884,-0.06729186952254895,-0.04061574417619412,-0.04416136315944773,0.09064851295996027,-0.03697840837680503,-0.0030661147953689089,-0.13379807576955309,-0.022976666464941309,-0.017412742709664768,-0.05603026705017914,0.006221982465690532,0.030349353158527188,-0.03550839098227917,-0.01193845061044026,0.1687067885981881,0.002176064218436616,-0.0458611720221248,-0.12754910953513966,0.07484721931657595,-0.10960149189048516,0.04670554595681396,-0.03815759399540726,0.023547309283181194,0.09102623308500159,-0.0035364205183113668,-0.07733231690156226,-0.03269143222973413,0.09678761763800963,0.07444689183201825,-0.09299531244904229,-0.016416312539568459,-0.13438184910854809,0.06639145081633796,-0.020552260498948765,-0.023617700513087489,0.027070592710619035,-0.004303971733804923,0.09008014073447675,-0.016815348961899437,0.05139698864105563,-0.057287709832628697,-0.034577475458939379,-0.037595973725236309,0.07717196362733447,-0.03148089574852711,-0.0026102810927516979,-0.11390655951803734,-0.01956076730671858,-0.014824021963117397,-0.04770034929018826,0.005296971663994885,0.025837370096710913,-0.030229423162848769,-0.010163582900500222,0.14362545758620999,0.0018525527141312322,-0.0390430750999922,-0.10858661571307273,0.06371981953258572,-0.09330723769743595,0.0022721398803057328,-0.0018562975611856785,0.0011455337776306147,0.004428260715283711,-0.00017204042750333055,-0.003762076594307447,-0.0015903787310863089,0.004708541597146674,0.003621705911600795,-0.004524052845722798,-0.0007986237532306329,-0.0065374325959295129,0.003229823354396528,-0.0009998301005467825,-0.0011489581829644428,0.0013169351095517516,-0.00020938039840341625,0.004382235042827867,-0.000818036149559563,0.0025003700358613579,-0.002786942910001641,-0.0016821313045605657,-0.0018289757563057308,0.003754275699106534,-0.0015314883325443739,-0.00012698542856416143,-0.00554134699011248,-0.0009515957596999613,-0.0007211617121459457,-0.002320535253499974,0.00025768803931209194,0.0012569410719069196,-0.0014706064669591103,-0.0004944398264046171,0.006987117339566764,0.0000901233208158677,-0.0018993746067435002,-0.005282541397915307,0.0030998533506008598,-0.004539227441844741,-0.04223877231144087,0.03450831998013015,-0.021295317611296714,-0.08232076630044397,0.003198208221537105,0.06993649381470796,0.029564924982644064,-0.08753114989296582,-0.06732702185506348,0.08410152901752634,0.014846307292787818,0.12152998559388995,-0.06004197824923188,0.01858670600924359,0.02135897684216157,-0.024481645132611305,0.0038923532179060457,-0.08146515528978658,0.015207181108552542,-0.046481539959100679,0.05180889083497099,0.03127059288344531,0.03400041133178301,-0.06979147623059143,0.02847016045828384,0.002360641899947916,0.10301288923398272,0.017690036152655729,0.013406298451556038,0.04313843573753404,-0.0047903857127055489,-0.02336636410696288,0.027338374831597124,0.009191569335248324,-0.12988956400851937,-0.0016753803147806892,0.03530911641653686,0.09820172836466465,-0.05762585350038779,0.08438362270201665,0.00485511982791141,-0.00396654588651623,0.0024477822890764508,0.009462329581153326,-0.00036761684349353665,-0.00803882402904076,-0.0033983292041627067,0.010061235167342088,0.007738879254172926,-0.00966701868321253,-0.0017065032188200232,-0.01396921857463322,0.006901502651532137,-0.002136441945226613,-0.0024550995754720557,0.0028140335099426417,-0.00044740507953569764,0.009363981694709268,-0.0017479837241096807,0.005342803162537939,-0.005955153509204464,-0.0035943865607532797,-0.0039081645175887539,0.008022155037270624,-0.003272491906858598,-0.0002713430970608772,-0.011840777884419776,-0.0020333745651495876,-0.0015409819431095914,-0.004958531302711509,0.0005506290875504582,0.0026858379510993665,-0.0031423992328444094,-0.0010565214869443336,0.014930107177516552,0.0001925759613846766,-0.004058593132299127,-0.011287760804290989,0.006623782099231826,-0.009699443835885032,0.01750632509944383,-0.014302353859943043,0.008826079282098212,0.03411874963280038,-0.0013255326752661652,-0.028985951296313974,-0.01225350927509427,0.03627825058588062,0.02790442685884718,-0.0348568063836063,-0.006153215819754999,-0.0503694430664381,0.024885060178704154,-0.007703465326274889,-0.008852463552523586,0.01014668787010704,-0.001613228725780764,0.03376413221161234,-0.00630278395331893,0.019264786950883979,-0.02147276628475613,-0.012960442150958768,-0.014091845518146946,0.028925847158959764,-0.011799772042168186,-0.000978394074504464,-0.04269482822716022,-0.007331830613491179,-0.005556388271482514,-0.017879200530129596,0.001985428199001874,0.009684447346914703,-0.011330691005021453,-0.0038095472986403886,0.05383416255074841,0.0006943798517509226,-0.01463425277620048,-0.04070078953533982,0.023883670625470856,-0.03497372322277896,-0.024784022398993058,0.02024810212363842,-0.012495240741859646,-0.04830253353125638,0.0018765806831404914,0.041035937702698688,0.017347515633069887,-0.05135977825210804,-0.0395048039135697,0.04934741387820498,0.008711219392783427,0.07130893537576696,-0.03523023166574737,0.01090593577531179,0.012532593432700759,-0.014364850305237012,0.002283877207085553,-0.0478004952074007,0.008922965715976169,-0.02727350877984703,0.0303993852248663,0.018348333344981733,0.019950081640835034,-0.040950847183814958,0.0167051515914896,0.0013851302611952003,0.060443843758889007,0.010379805762670393,0.007866279792913246,0.02531190891850273,-0.002810806761335546,-0.013710448001187195,0.01604106504759485,0.005393245300952765,-0.07621400167709497,-0.0009830461676820502,0.020717977447442798,0.05762084696648364,-0.033812546287664207,0.04951293517090431]},{"row":40,"colmun":9,"elements":[0.03733659691812834,0.03500517521656222,0.033815583771374908,0.039095943105342128,0.03966473093474024,0.03252083767359215,0.030431504994770939,0.02794028449133146,0.03658908862356025,-0.03747115139675304,-0.03513132766454132,-0.033937449142601019,-0.039236837955840039,-0.0398076755957766,-0.032638037009332477,-0.030541174745801416,-0.0280409763251534,-0.03672094921476228,0.03953133852210406,0.0370628698310638,0.03580335112811887,0.041394103622437897,0.041996326269576698,0.03443249651049377,0.0322203474602499,0.029582686581015987,0.03873988975923344,-0.0003312149007062288,-0.0003105327370617528,-0.0002999798092396837,-0.0003468221525932631,-0.00035186789912581694,-0.0002884940490040294,-0.0002699594697204513,-0.0002478597225610256,-0.0003245837155956694,-0.04221357590619256,-0.03957761936242356,-0.03823264116639547,-0.04420273131802817,-0.04484581532119712,-0.036768772812301817,-0.03440652743080363,-0.031589898854514058,-0.041368426622703968,0.031082047486514488,0.029141180722516939,0.028150867173857374,0.03254667164216821,0.033020177311736068,0.027073014262342475,0.025333682269106734,0.023259785867753455,0.030459760234163224,0.038485512971457937,0.036082349117657539,0.03485615174635231,0.040298997490622188,0.040885287972165239,0.03352156391955525,0.03136793861490347,0.0288000586549243,0.03771500246590877,-0.013316112747947282,-0.01248461023289102,-0.01206034195148221,-0.013943584293974417,-0.01414644270880354,-0.011598570219691925,-0.010853408854820841,-0.009964914030920832,-0.01304951360522623,0.010566583692151183,0.009906770946353384,0.009570106156238684,0.011064494060667799,0.01122546599433361,0.009203681679141658,0.008612382245507642,0.00790734504024443,0.010355032302707445,0.02450629125818098,0.022976036655987115,0.022195235060760687,0.02566105772450821,0.026034387951735507,0.021345414038045797,0.019974057262421509,0.01833891693671074,0.02401565586297448,-0.0028491810637150695,-0.002671268690549338,-0.0025804901595917007,-0.002983437965920717,-0.003026842551409488,-0.0024816872056907127,-0.0023222488102378018,-0.002132142081991978,-0.0027921381981715509,0.00916253041270571,0.00859039143891858,0.008298461571311094,0.009594280070612997,0.00973386257719936,0.007980726387151702,0.007467996899407082,0.0068566427452624819,0.008979089283945408,0.015004053320900286,0.014067150163911769,0.013589101949908337,0.01571106269459233,0.015939635291588304,0.01306879637597619,0.012229178909315429,0.011228059140695666,0.014703660268632867,-0.03850832241365895,-0.03610373426217377,-0.034876810153041549,-0.04032288174168317,-0.04090951970355893,-0.03354143134798936,-0.031386529641176979,-0.028817127760220164,-0.037737355244979047,0.0378027976312774,0.03544226480149826,0.03423781960889207,0.039584111767229358,0.040160001724662258,0.0329269067577371,0.030811485777751,0.02828915882993305,0.037045955628530798,-0.0012870188679644985,-0.0012066531151435554,-0.0011656470577762365,-0.0013476647737279706,-0.0013672712919628584,-0.0011210162452593967,-0.0010489954720487537,-0.0009631213416555289,-0.0012612517290584358,-0.03178487027664286,-0.029800116912351943,-0.02878741053607467,-0.03328261230318371,-0.033766824814891609,-0.027685185369451819,-0.025906523851191196,-0.023785732802505924,-0.03114851195438706,0.02828096121858862,0.02651500362821826,0.02561393624917782,0.029613594757734404,0.03004442852065303,0.024633218476221548,0.02305063352366035,0.02116363480764945,0.027714753935808947,0.015293763709805003,0.014338770069386978,0.013851491314073672,0.016014424591941524,0.016247410653389559,0.013321139259570625,0.012465309780222688,0.01144485958193143,0.01498757042568454,-0.023824270643222985,-0.022336603684089227,-0.021577532132733013,-0.024946899462641508,-0.02530983974924198,-0.020751361994209864,-0.01941817066686106,-0.01782853699896052,-0.023347289841868875,0.00843345520872175,0.00790684212355187,0.0076381415188431799,0.008830849949839647,0.008959325683528327,0.0073456889622735038,0.006873758068260985,0.006311050208814772,0.00826461074402103,0.014155759469955792,0.01327182661172626,0.012820806118280796,0.014822796198160925,0.015038445838647805,0.01232991739655111,0.011537769924756454,0.010593251110933096,0.013872349933652686,-0.026381093582215726,-0.024733770066805537,-0.02389323488603087,-0.02762420303084,-0.02802609410271997,-0.022978400091480248,-0.021502130547010818,-0.019741897246175055,-0.025852923156943026,0.0035322950592650648,0.0033117267687065106,0.0031991833573829437,0.0036987411298123969,0.00375255231254977,0.003076691603401472,0.0028790265747770267,0.0026433402347730056,0.0034615757095221727,-0.03902072330223271,-0.036584139129413769,-0.03534088927653767,-0.04085942758786017,-0.04145387149385646,-0.03398774160378616,-0.031804166262804547,-0.02920057530986577,-0.03823949746120533,0.04372706891490115,0.040996604817232436,0.0396034048097881,0.04578754197146172,0.046453682612736187,0.0380870520482016,0.03564011254181581,0.032722498735849977,0.042851618300515658,-0.003962394994275373,-0.0037149698285569314,-0.003588722886502221,-0.004149107900668526,-0.00420947125014448,-0.0034513162699334519,-0.0032295831171747578,-0.002965199095403563,-0.0038830647025760299,0.027685886925527676,0.025957087759743485,0.025074980204219594,0.028990479834969004,0.029412248202446719,0.024114898219804009,0.022565613253568426,0.020718319850904479,0.027131593502249517,-0.00837608770060369,-0.007853056834072659,-0.007586184031106011,-0.008770779214459103,-0.008898381008284115,-0.007295720845914724,-0.0068270002018796329,-0.006268120091190712,-0.008208391778933042,0.0011959103889079427,0.0011212337535428542,0.0010831305281478056,0.0012522631515228173,0.0012704817180341998,0.0010416591451845499,0.0009747367456427223,0.0008949416725229974,0.0011719673140415028,-0.04330519243870483,-0.04060107171598646,-0.03922131322942067,-0.04534578615887331,-0.046005499910045929,-0.03771959016005008,-0.035296258598171818,-0.03240679377776359,-0.042438188126105527,-0.008728089449212103,-0.00818307841888911,-0.007904990392699152,-0.009139367716693315,-0.009272331925067632,-0.007602320607869906,-0.007113902165506209,-0.00653153534082183,-0.008553346173242823,-0.02531412493762911,-0.02373342650479767,-0.02292688630151564,-0.026506957516595279,-0.026892594327790455,-0.022049051490977066,-0.020632488846450898,-0.01894344720161286,-0.024807316071194284,-0.03796631464228788,-0.03559557126469473,-0.03438591621223261,-0.039755333900120568,-0.04033371488494855,-0.03306933297252051,-0.03094476168257454,-0.02841152434216287,-0.03720619889924027,0.0176099452145774,0.01651032147204178,0.015949246229340506,0.01843974740673347,0.018708018308240188,0.015338574402480149,0.014353132850596147,0.013178139407053346,0.017257380138985449,0.02499337295228219,0.023432703343746067,0.02263638270650087,0.026171091304750994,0.026551841762058036,0.021769670826696846,0.020371057263235873,0.01870341724544401,0.02449298579509076,0.03818156383547903,0.0357973795799893,0.03458086641457797,0.03998072589899302,0.040562386002205668,0.033256818834890098,0.031120202334331869,0.028572602860043818,0.037417138632796897,-0.01682582457046956,-0.01577516393751588,-0.015239071775417019,-0.01761867803726237,-0.017875003600522904,-0.01465559142362269,-0.013714028773971403,-0.012591354437873104,-0.0164889582123236,0.01539738267705189,0.014435918722548654,0.013945338535204293,0.016122926211866924,0.01635749081052321,0.013411393216596502,0.0125497652844627,0.011522401287993298,0.015089114858991939,0.011769770828764447,0.011034827063192764,0.01065982720124993,0.012324376849162431,0.012503678203725779,0.01025167900055141,0.009593049965112072,0.008807732158197395,0.01153413067819156]}],"db":[{"row":1,"colmun":40,"elements":[0.06068789819558587,-0.04958092518440911,0.0305967242065648,0.11827697660783498,-0.004595127280826705,-0.10048347962124836,-0.04247834535240143,0.1257631607869445,0.09673423787095616,-0.12083554402281446,-0.02133090372328476,-0.17461206824506349,0.08626721999834247,-0.026705040425020367,-0.03068818862919172,0.0351747815138544,-0.005592462159833196,0.11704765030244582,-0.02184940064433874,0.06678382942128963,-0.07443807006121969,-0.04492901790405765,-0.04885117129581893,0.10027512099954073,-0.040905407637435779,-0.0033917272558006909,-0.1480070416954751,-0.02541672151815395,-0.01926192526640506,-0.06198051820855546,0.00688273888044608,0.033572366063780178,-0.039279278677409486,-0.013206279291506017,0.18662295814603803,0.002407155900096062,-0.05073149490858821,-0.1410944534486648,0.08279577599650132,-0.12124085108713292]},{"row":1,"colmun":9,"elements":[0.04418790832745128,0.041428667879069288,0.04002078494205917,0.04627009670169776,0.04694325779665043,0.03848845134450061,0.036015723551987909,0.033067361025246707,0.04330323134237912]}],"learningRate":0.00025}